tree
version=v4
num_class=1
num_tree_per_iteration=1
label_index=0
max_feature_idx=18
objective=binary sigmoid:1
feature_names=Column_0 Column_1 Column_2 Column_3 Column_4 Column_5 Column_6 Column_7 Column_8 Column_9 Column_10 Column_11 Column_12 Column_13 Column_14 Column_15 Column_16 Column_17 Column_18
feature_infos=[0.0010000000474974513:1] [0.083300001919269562:1] [0.05000000074505806:1] [0:0.95649999380111694] [0:1] [-1:0.49930000305175781] [-1:1] [0:1] [0.05000000074505806:1] [0:1] [0:1] [0:1] [0.15000000596046448:0.85000002384185791] [0.0020000000949949026:0.05000000074505806] [0:9.9275074005126953] [0:2.3912832736968994] [0:0.24780228734016418] [0.96881061792373657:1] [0.23978953063488007:0.92104405164718628]
tree_sizes=1428 1438 2299 2410 1761 1973 2501 2944 2290 2188 1547 1656 1867 2078 2199 2094 1117 1333 2399 2517 2401 2087 3137 3248 1879 1859 2714 2825 3363 3473 2077 2289 2824 3354 2934 3581 3366 3452 3362 3255 3467 3144 2935 3145 3424 3686 3473 3045 3155 3269

Tree=0
num_leaves=12
num_cat=0
split_feature=2 3 13 5 2 6 13 2 2 7 7
split_gain=2.5249e+06 40856.5 2094.86 425.66 32.1515 7.54915 3.18987 2.6547 2.00607 6.66199 1.04365
threshold=0.066299999132752432 0.28260000050067907 0.010049999691545965 0.006599999964237214 0.69804999232292186 0.26645000278949743 0.013650000095367433 0.78540000319480907 0.5132499933242799 0.15444999933242801 0.037149999290704734
decision_type=2 2 2 2 2 2 2 2 2 2 2
left_child=-1 2 3 4 -2 10 -7 8 -4 -10 -3
right_child=1 5 7 -5 -6 6 -8 -9 9 -11 -12
leaf_value=-0.73291794884202488 -0.6318923935604166 -0.65897205215869503 -0.65348898027707414 -0.65607143621062747 -0.61620981057352953 -0.65103766910128347 -0.65464041502541737 -0.65045408741137745 -0.65189895998848135 -0.66303202007031092 -0.65550985367437453
leaf_weight=255860.41924080253 115.16600725054741 340.53574985265732 437.91342201828957 184.49814704060555 248854.58053468168 663.77340766787529 1254.5991992950439 304.10133922100067 94.919699504971504 166.48409216105938 17253.287761554122
leaf_count=1151714 293 1046 1299 556 559597 1938 3751 884 278 524 51884
internal_value=-0.674573 -0.619216 -0.616397 -0.616246 -0.616217 -0.655356 -0.653371 -0.653873 -0.655422 -0.658825 -0.655574
internal_weight=525530 269670 250158 249154 248970 19512.2 1918.37 1003.42 699.317 261.404 17593.8
internal_count=1773764 622050 563431 560446 559890 58619 5689 2985 2101 802 52930
is_linear=0
shrinkage=1


Tree=1
num_leaves=12
num_cat=0
split_feature=2 3 13 5 2 6 13 2 2 7 7
split_gain=2.354e+06 36478.5 1866.73 379.198 27.8465 6.66108 2.65089 2.15248 1.58306 5.89036 0.723631
threshold=0.066299999132752432 0.28260000050067907 0.010049999691545965 0.006599999964237214 0.69804999232292186 0.26645000278949743 0.013650000095367433 0.78540000319480907 0.5132499933242799 0.15444999933242801 0.037149999290704734
decision_type=2 2 2 2 2 2 2 2 2 2 2
left_child=-1 2 3 4 -2 10 -7 8 -4 -10 -3
right_child=1 5 7 -5 -6 6 -8 -9 9 -11 -12
leaf_value=-0.038386085661711866 0.059327059528722033 0.03376339591116663 0.038974112491658719 0.036522195070406417 0.073941930678420753 0.041297866536066749 0.037881343541231134 0.041850582957320151 0.040481888281348181 0.02989346707696431 0.037055687489340523
leaf_weight=252477.53889843822 117.47794228792191 344.44981104135513 443.71687120199203 186.79063495993614 255056.50914309919 673.08966571092606 1270.7635245025158 308.42606866359711 96.225841611623764 168.17969691753387 17470.774871245027
leaf_count=1151714 293 1046 1299 556 559597 1938 3751 884 278 524 51884
internal_value=0.0188342 0.0711521 0.0737684 0.0739082 0.0739354 0.0372024 0.0390865 0.0386142 0.0371439 0.0339097 0.0369944
internal_weight=528614 276136 256377 255361 255174 19759.1 1943.85 1016.55 708.122 264.406 17815.2
internal_count=1773764 622050 563431 560446 559890 58619 5689 2985 2101 802 52930
is_linear=0
shrinkage=0.0259278


Tree=2
num_leaves=20
num_cat=0
split_feature=2 3 13 5 2 14 5 0 0 5 5 0 0 5 12 2 2 2 2
split_gain=2.20194e+06 32753.2 1711.46 339.326 14.1549 12.9077 8.92417 5.4865 5.05889 4.82605 4.11855 3.56061 3.10995 2.84542 1.40143 2.16349 1.23001 0.7493 0.58428
threshold=0.066299999132752432 0.28260000050067907 0.010049999691545965 0.006599999964237214 0.69804999232292186 1.3390499949455263 0.036450000479817397 0.049249999225139625 0.062849998474121108 0.038549998775124557 0.071150001138448729 0.044150000438094146 0.043250000104308135 0.079549998044967665 0.17500000447034839 0.84995001554489147 0.50235000252723705 0.17255000025033954 0.58184999227523815
decision_type=2 2 2 2 2 2 2 2 2 2 2 2 2 2 2 2 2 2 2
left_child=-1 2 3 4 -2 6 8 12 11 -8 17 -3 -7 -11 -4 16 -16 -9 -18
right_child=1 5 14 -5 -6 7 9 10 -10 13 -12 -13 -14 -15 15 -17 18 -19 -20
leaf_value=-0.037916914194794801 0.059044135191912296 0.031021345004296853 0.042844192828032139 0.035730657101035256 0.070519382564836142 0.037134723746321256 0.041322643687925265 0.033431278700014812 0.034318207373702891 0.035756573267597687 0.033924624856954355 0.038834749345739196 0.027635540995100988 0.038923304858105787 0.03684481370368918 0.039941721771989694 0.026814278864468809 0.037688336791283521 0.034028626584575949
leaf_weight=248754.69298700988 118.38135015964508 110.63956260681152 104.81577591598034 193.68759882450104 260634.69244331121 87.686689004302025 236.55517069995403 213.84011653065681 6637.7347218990326 5671.8045244812965 500.50687603652477 545.95932447910309 134.59459978342056 547.32300114631653 394.80087614059448 240.22539383172989 85.020153686404228 5279.8240529745817 207.38469594717026
leaf_count=1150489 285 334 292 568 560047 254 668 636 19664 16645 1484 1569 415 1572 1147 681 264 15287 616
internal_value=0.0183094 0.0679169 0.0703567 0.0704887 0.0705143 0.0359019 0.0353838 0.0370411 0.034618 0.0362423 0.0372366 0.0375836 0.0315763 0.0360422 0.0369495 0.0362368 0.0348791 0.0375305 0.0320779
internal_weight=530700 281945 261979 260947 260753 19966.5 13750 6216.45 7294.33 6455.68 5994.17 656.599 222.281 6219.13 1032.25 927.431 687.206 5493.66 292.405
internal_count=1772917 622428 563900 560900 560332 58528 40452 18076 21567 18885 17407 1903 669 18217 3000 2708 2027 15923 880
is_linear=0
shrinkage=0.0259278


Tree=3
num_leaves=21
num_cat=0
split_feature=2 3 13 5 6 2 2 5 5 5 0 0 13 5 5 2 2 13 13 12
split_gain=2.06587e+06 29875 1559.09 308.969 12.7021 12.511 7.78176 4.42712 4.41058 5.81343 3.82329 4.02309 2.70745 1.92636 1.09178 1.08953 1.74491 1.03365 1.32634 0.954696
threshold=0.066299999132752432 0.28260000050067907 0.010049999691545965 0.006599999964237214 0.1430500000715256 0.69804999232292186 0.13925000280141833 0.036450000479817397 0.04474999941885472 0.051049999892711646 0.062849998474121108 0.044150000438094146 0.010049999691545965 0.081599999219179167 0.067749999463558211 0.67004999518394481 0.65254998207092296 0.020750000141561035 0.010350000113248827 0.17500000447034839
decision_type=2 2 2 2 2 2 2 2 2 2 2 2 2 2 2 2 2 2 2 2
left_child=-1 2 3 5 7 -2 -6 10 -9 -10 11 -3 -13 -11 19 16 -8 18 -12 -4
right_child=1 4 14 -5 6 -7 15 8 9 13 17 12 -14 -15 -16 -17 -18 -19 -20 -21
leaf_value=-0.037470826140226794 0.056608357523666553 0.029341286683506891 0.042313787734425845 0.034438105684265516 0.030032376857343748 0.067483038530328415 0.035967124105584093 0.037410064952235061 0.031044622735640678 0.034616938822291679 0.032244865617352403 0.043489413909643192 0.035797506273351654 0.040519546486332242 0.030990658065026679 0.034793728967226115 0.041252792259611579 0.032093156268910086 0.034310594407426662 0.035608011567974766
leaf_weight=245235.58740346134 120.24835301935673 105.90482880175114 93.435186192393303 195.71952232718468 275.04157803952694 265236.45327180624 5108.257285296917 744.97119317948818 550.03277705609798 2714.0780034959316 1323.6137595772743 107.0767043530941 413.30997261404991 128.95149275660515 154.09718206524849 3520.0961358249187 157.68371932208538 2354.7321980446577 2672.5664434581995 795.77441954612732
leaf_count=1150489 285 318 255 568 822 560047 14673 2119 1633 7873 3903 291 1187 358 456 10189 436 6951 7775 2289
internal_value=0.0177794 0.0650272 0.0673296 0.0674541 0.034603 0.0674783 0.0354374 0.033919 0.0348601 0.0342875 0.0333547 0.0361582 0.037463 0.0348998 0.0356091 0.0356017 0.0361336 0.0330715 0.0336371 0.0363611
internal_weight=532008 286772 266596 265552 20176.3 265357 9061.08 11115.2 4138.03 3393.06 6977.2 626.292 520.387 2843.03 1043.31 8786.04 5265.94 6350.91 3996.18 889.21
internal_count=1772917 622428 563900 560900 58528 560332 26120 32408 11983 9864 20425 1796 1478 8231 3000 25298 15109 18629 11678 2544
is_linear=0
shrinkage=0.0259278


Tree=4
num_leaves=15
num_cat=0
split_feature=2 3 13 2 6 0 2 0 0 7 2 2 2 2
split_gain=1.94319e+06 27542.1 1418.54 247.472 7.48773 6.84756 3.20115 3.10356 2.48132 1.71293 3.27848 2.92983 2.00863 1.16126
threshold=0.066299999132752432 0.28260000050067907 0.010049999691545965 0.65810000896453869 0.1430500000715256 0.049249999225139625 0.17810000479221347 0.16845000535249713 0.045949999243021018 0.037149999290704734 0.17255000025033954 0.10545000061392786 0.46334999799728399 0.35424999892711645
decision_type=2 2 2 2 2 2 2 2 2 2 2 2 2 2
left_child=-1 2 3 -2 9 8 -7 -4 -6 12 11 -11 -3 -12
right_child=1 4 7 -5 5 6 -8 -9 -10 10 13 -13 -14 -15
leaf_value=-0.03704629439320338 0.031822236969880985 0.022926781522930702 0.032078273434688977 0.064764759247276635 0.031871503816425124 0.030708652039423485 0.034406483058316339 0.036472636573612396 0.024358177979292892 0.028458332322057561 0.031566600994512271 0.036534906011453649 0.031571539600418433 0.033028741832211737
leaf_weight=241709.55677573383 158.51864692568779 79.956701710820198 510.88308285176754 269177.13661840558 208.43752175569534 389.36189714074135 8486.4738742560148 532.10790552198887 114.78648951649666 88.444783493876457 2110.0374293774366 589.6886343806982 139.27166835963726 8214.2814143896103
leaf_count=1150719 455 246 1477 560213 605 1139 24185 1493 350 262 6140 1657 406 23681
internal_value=0.0172799 0.0624354 0.0646285 0.0647455 0.0333963 0.0340812 0.0342491 0.0343614 0.0293362 0.0328311 0.0329112 0.0355449 0.0286146 0.0327341
internal_weight=532509 290799 270379 269336 20420.7 9199.06 8875.84 1042.99 323.224 11221.7 11002.5 678.133 219.228 10324.3
internal_count=1773028 622309 563638 560668 58671 26279 25324 2970 955 32392 31740 1919 652 29821
is_linear=0
shrinkage=0.0259278


Tree=5
num_leaves=17
num_cat=0
split_feature=2 3 13 5 2 6 2 0 2 7 2 2 2 0 2 2
split_gain=1.83212e+06 25555.8 1315.76 233.061 13.7776 6.78084 6.20911 2.6876 2.38623 1.40939 2.87305 2.52664 1.72366 1.37505 0.915867 5.6295
threshold=0.066299999132752432 0.28260000050067907 0.010049999691545965 0.006599999964237214 0.69804999232292186 0.1430500000715256 0.2230000048875809 0.16845000535249713 0.50235000252723705 0.037149999290704734 0.17255000025033954 0.10545000061392786 0.46334999799728399 0.24665000289678576 0.97394999861717235 0.86779999732971203
decision_type=2 2 2 2 2 2 2 2 2 2 2 2 2 2 2 2
left_child=-1 2 3 4 -2 9 -7 -4 -5 12 11 -11 -3 -8 15 -12
right_child=1 5 7 8 -6 6 13 -9 -10 10 14 -13 -14 -15 -16 -17
leaf_value=-0.036641921525792889 0.051378627941229188 0.022194971129099308 0.030985777000307479 0.028040862470549367 0.062335644428626331 0.030433991553634198 0.033565349110081938 0.035191634668815225 0.037649369918866311 0.027512163861013305 0.031538576881315387 0.035248888847825843 0.030494361556818842 0.031950763561553873 0.032672943054794353 0.027937080423964811
leaf_weight=238088.13425602019 121.83689633011818 80.445196643471718 515.12551547586918 86.854763686656952 272242.33519242704 1024.7240812331438 6383.8618985414505 537.11081346869469 109.9484471976757 89.105726063251495 7592.8540784716606 595.27999483048916 140.43716540932655 1871.7548537701368 2285.9546572118998 533.88738471269608
leaf_count=1150719 284 246 1477 254 559832 2957 17989 1493 298 262 21756 1657 406 5333 6499 1566
internal_value=0.0168299 0.0601016 0.0621984 0.0623103 0.0623309 0.0322467 0.0329032 0.0331735 0.0336273 0.0317047 0.0317812 0.0343044 0.0276662 0.0332045 0.0316112 0.0313073
internal_weight=532300 294212 273613 272561 272364 20598.3 9280.34 1052.24 196.803 11318 11097.1 684.386 220.882 8255.62 10412.7 8126.74
internal_count=1773028 622309 563638 560668 560116 58671 26279 2970 552 32392 31740 1919 652 23322 29821 23322
is_linear=0
shrinkage=0.0259278


Tree=6
num_leaves=22
num_cat=0
split_feature=2 3 13 5 2 7 14 7 7 2 2 2 13 13 12 12 12 13 2 2 2
split_gain=1.72998e+06 23962.3 1222.06 250.501 12.5622 4.58567 4.00019 3.77669 2.96765 2.3353 2.19484 1.69072 8.64133 8.14329 4.02001 3.25587 1.68764 1.50239 1.4759 0.793955 0.624364
threshold=0.066299999132752432 0.28260000050067907 0.010049999691545965 0.006599999964237214 0.69804999232292186 0.037149999290704734 2.4703083038330083 0.15444999933242801 0.24994999915361407 0.55120000243186962 0.93125000596046459 0.45040000975131994 0.0059500001370906839 0.023950000293552879 0.22500000149011615 0.27500000596046453 0.39999999105930334 0.019550000317394737 0.67595002055168163 0.81894999742507946 0.3741499930620194
decision_type=2 2 2 2 2 2 2 2 2 2 2 2 2 2 2 2 2 2 2 2 2
left_child=-1 2 3 4 -2 10 11 9 19 -4 20 12 -7 18 -15 -14 -5 -11 -13 -9 -3
right_child=1 5 7 16 -6 6 -8 8 -10 17 -12 13 15 14 -16 -17 -18 -19 -20 -21 -22
leaf_value=-0.036256433252840524 0.049518471365001981 0.024483885372417399 0.031310685787297454 0.034273663480574097 0.0601349862992532 0.025202010372168522 0.03530780146744892 0.02506298763340227 0.032542411763937788 0.043148381419188239 0.021220705475685393 0.032652621285748432 0.031979841794836754 0.027360040366552232 0.030652317108106356 0.030187250517957523 0.025529431645253457 0.033691334663280156 0.031382277831370584 0.032043873265196865 0.030958331132837389
leaf_weight=234388.68116821349 120.83764761686325 106.0567210316658 170.70299860835075 101.3396375477314 274621.00414274633 285.32223963737488 309.41234765946865 196.91579785943031 417.18197931349277 91.954036980867386 84.136359378695488 3813.9757374674082 2171.3189710080624 607.57635851204395 2448.4793603271246 4871.255519926548 93.741039961576462 100.69720631837845 5857.7374599725008 83.96378555893898 196.29953052103519
leaf_count=1150523 279 315 480 278 559367 838 846 579 1165 236 254 10664 6102 1761 6944 13858 273 277 16528 233 557
internal_value=0.0163948 0.0579817 0.0600021 0.0601095 0.0601305 0.0311077 0.0311781 0.0321477 0.0304957 0.035203 0.0272841 0.0311123 0.030536 0.0314406 0.0300118 0.030746 0.0302922 0.0384287 0.0318877 0.0273028 0.0288294
internal_weight=531139 296750 275998 274937 274742 20751.6 20365.1 1061.42 698.062 363.354 386.493 20055.7 7327.9 12727.8 3056.06 7042.57 195.081 192.651 9671.71 280.88 302.356
internal_count=1772357 621834 563167 560197 559646 58667 57541 2970 1977 993 1126 56695 20798 35897 8705 19960 551 513 27192 812 872
is_linear=0
shrinkage=0.0259278


Tree=7
num_leaves=26
num_cat=0
split_feature=2 3 13 5 2 6 14 7 7 7 2 12 2 13 13 12 13 13 13 13 2 13 13 2 13
split_gain=1.63754e+06 22543.8 1149.38 235.103 11.757 6.43116 3.65579 3.36801 3.22848 2.59701 2.01153 1.42514 1.21474 11.7095 8.09736 3.9366 1.94816 1.26568 1.19235 1.13454 0.746717 1.98612 5.24955 0.618969 0.459578
threshold=0.066299999132752432 0.28260000050067907 0.010049999691545965 0.006599999964237214 0.69804999232292186 0.27775000035762792 2.5564196109771733 0.15444999933242801 0.037149999290704734 0.24994999915361407 0.55120000243186962 0.39999999105930334 0.45040000975131994 0.0059500001370906839 0.023950000293552879 0.27500000596046453 0.015150000341236593 0.0054500000551342973 0.019550000317394737 0.017849999479949478 0.83140000700950634 0.021949999965727333 0.014549999963492157 0.81894999742507946 0.020750000141561035
decision_type=2 2 2 2 2 2 2 2 2 2 2 2 2 2 2 2 2 2 2 2 2 2 2 2 2
left_child=-1 2 3 4 -2 8 19 10 20 23 -4 -5 13 17 16 -15 -14 -10 -12 -7 21 22 -3 -9 -21
right_child=1 5 7 11 -6 6 -8 9 12 -11 18 -13 14 15 -16 -17 -18 -19 -20 24 -22 -23 -24 -25 -26
leaf_value=-0.035888652551995706 0.047845207205412819 0.024567212757766167 0.030280240106266756 0.033127571890979805 0.058138484009496852 0.033110570386800216 0.037589869002440428 0.02427047939886124 0.026569689133454023 0.031462279068880515 0.041628685983784913 0.024723005896181528 0.030144444774191412 0.030989651018234397 0.028864503536035844 0.029088191198937116 0.031452330571598922 0.020082985094928889 0.032570187217518407 0.025411713962629093 0.021571665286276919 0.02227697516951772 0.036055736572767963 0.030990863186636994 0.030819309840333348
leaf_weight=230699.36754100025 121.80790433287621 98.10556249320507 171.91924285888672 102.11687082052231 276658.38743644953 617.08244736492634 161.20124532282352 198.05820719897747 130.40927147865295 420.27461487054825 92.828022226691246 94.281854569911957 4887.1337981373072 2073.6894269287586 2924.3484129607677 4669.8775797635317 4375.1747412234545 140.62395586073399 101.45269972085953 126.1890060454607 93.803627237677574 86.273744985461235 87.682956606149673 84.557911202311516 428.30041597783566
leaf_count=1150523 279 287 480 278 559367 1688 426 579 375 1165 236 273 13707 5783 8283 13205 12161 422 277 364 280 256 237 233 1193
internal_value=0.0160083 0.0560578 0.0580101 0.0581138 0.0581341 0.0300837 0.0322839 0.0310915 0.0299316 0.0295014 0.0340263 0.0293117 0.0299974 0.0294413 0.0303139 0.0296793 0.0307669 0.0233625 0.0371198 0.0315171 0.0263647 0.0278595 0.0302206 0.0264333 0.0296661
internal_weight=529645 298946 278046 276977 276780 20899.9 1332.77 1069.09 19567.1 702.891 366.2 196.399 19201.3 7014.6 12186.7 6743.57 9262.31 271.033 194.281 1171.57 365.866 272.062 185.789 282.616 554.489
internal_count=1772357 621834 563167 560197 559646 58667 3671 2970 54996 1977 993 551 53936 19785 34151 18988 25868 797 513 3245 1060 780 524 812 1557
is_linear=0
shrinkage=0.0259278


Tree=8
num_leaves=20
num_cat=0
split_feature=2 3 13 5 2 0 6 0 5 12 1 7 7 12 6 5 5 7 12
split_gain=1.55267e+06 21478.9 1055.27 216.331 9.00754 5.5748 9.72324 6.59508 8.46748 2.84178 2.25558 1.49018 2.47421 1.48616 1.38585 1.24274 1.95927 1.34879 0.800182
threshold=0.066299999132752432 0.28260000050067907 0.010049999691545965 0.006599999964237214 0.69804999232292186 0.049249999225139625 0.24374999850988391 0.11574999988079072 0.079549998044967665 0.77500000596046459 0.45835000276565557 0.22035000473260882 0.32215000689029699 0.39999999105930334 0.26064999401569372 0.03024999983608723 0.042749999091029174 0.38844999670982366 0.39999999105930334
decision_type=2 2 2 2 2 2 2 2 2 2 2 2 2 2 2 2 2 2 2
left_child=-1 2 3 4 -2 6 9 15 14 -3 11 -4 -13 -5 -9 17 -17 -7 -18
right_child=1 5 10 13 -6 7 -8 8 -10 -11 -12 12 -14 -15 -16 16 18 -19 -20
leaf_value=-0.035537498127978538 0.047248241593464663 0.026087996993290469 0.030826468607917011 0.032743868567102728 0.056319218821856788 0.028997884861321287 0.017583536339403398 0.028443290781266044 0.032683288121930089 0.032519332153758899 0.032748357998238456 0.022510895795419806 0.029788854270147443 0.024388456493463238 0.029980596768714316 0.032905735135447915 0.031319701619381003 0.035324975533604176 0.028926021342620102
leaf_weight=227024.86631906033 132.47106245160103 494.71159811317921 344.70683881640434 98.478717297315598 278172.80816289783 2464.4756575077772 104.16160805523396 12745.77460680902 511.559944704175 130.28948277235031 428.63323180377483 153.04365277290344 141.90119679272175 99.56604577600956 1614.3245068639517 685.54120221734047 1097.0828000605106 88.32107649743557 1083.5107765197754
leaf_count=1150716 299 1411 945 265 559373 6882 314 35725 1388 355 1161 445 392 286 4457 1860 3011 235 3026
internal_value=0.0156421 0.0542962 0.0561968 0.0562956 0.0563151 0.0290155 0.0261401 0.0291167 0.0287618 0.0274975 0.0303892 0.028741 0.0261581 0.0287602 0.0286191 0.0300828 0.0308242 0.0292336 0.03015
internal_weight=527616 300591 279572 278503 278305 21019.8 729.163 20290.6 14871.7 625.001 1068.28 639.652 294.945 198.045 14360.1 5418.93 2866.13 2552.8 2180.59
internal_count=1772546 621830 563166 560223 559672 58664 2080 56584 41570 1766 2943 1782 837 551 40182 15014 7897 7117 6037
is_linear=0
shrinkage=0.0259278


Tree=9
num_leaves=19
num_cat=0
split_feature=2 3 13 2 18 6 18 5 12 1 18 7 7 6 5 5 7 12
split_gain=1.47444e+06 20435.1 1004.74 207.666 5.06301 8.98669 6.02223 7.76838 2.52234 1.94764 1.47709 1.25487 2.1973 1.18732 1.02619 1.67997 1.11883 0.609192
threshold=0.066299999132752432 0.28260000050067907 0.010049999691545965 0.65810000896453869 0.62015223503112804 0.24374999850988391 0.70548808574676525 0.079549998044967665 0.77500000596046459 0.45835000276565557 0.75819745659828197 0.22035000473260882 0.32215000689029699 0.26064999401569372 0.03024999983608723 0.042749999091029174 0.38844999670982366 0.39999999105930334
decision_type=2 2 2 2 2 2 2 2 2 2 2 2 2 2 2 2 2 2
left_child=-1 2 3 -2 5 8 14 13 -3 11 -9 -4 -13 -8 16 -16 -6 -17
right_child=1 4 9 -5 6 -7 7 10 -10 -11 -12 12 -14 -15 15 17 -18 -19
leaf_value=-0.035201982400087727 0.024691484442751054 0.025275102081513328 0.029844825925537281 0.054648902792994204 0.02807959150375865 0.017064439637513935 0.027545734288337495 0.028498007333419641 0.031465291605593623 0.031692322853467729 0.033905184955304569 0.021827147919662702 0.02884434502921707 0.029029997139722648 0.031840590174499514 0.030315102038151794 0.034164423679531757 0.028010613044097306
leaf_weight=223295.03273051977 160.87432244420052 497.34773690998554 346.78536751866341 279368.68896469474 2478.8890471607447 104.54241892695427 12818.859378352761 224.75574135780334 131.15123136341572 431.39484068751335 290.11691308021545 153.73629927635193 142.73698171973228 1623.8312412500381 690.04417370259762 1103.9580497443676 88.94528292119503 1089.8243573158979
leaf_count=1150716 451 1411 945 559772 6882 314 35725 619 355 1161 769 445 392 4457 1860 3011 235 3026
internal_value=0.0153064 0.0526832 0.0545354 0.0546318 0.0280977 0.0253288 0.0281951 0.0278531 0.0266352 0.0294265 0.0316283 0.0278402 0.0253505 0.0277156 0.0291254 0.029839 0.0283071 0.0291899
internal_weight=525042 301746 280604 279530 21142.3 733.041 20409.2 14957.6 628.499 1074.65 514.873 643.259 296.473 14442.7 5451.66 2883.83 2567.83 2193.78
internal_count=1772546 621830 563166 560223 58664 2080 56584 41570 1766 2943 1388 1782 837 40182 15014 7897 7117 6037
is_linear=0
shrinkage=0.0259278


Tree=10
num_leaves=13
num_cat=0
split_feature=2 3 13 5 2 6 12 12 6 0 0 12
split_gain=1.40296e+06 19371.9 1002.83 209.108 5.80981 3.63379 1.94276 1.50119 1.48982 1.18525 2.56079 0.605959
threshold=0.066299999132752432 0.28260000050067907 0.010049999691545965 0.006599999964237214 0.69804999232292186 0.29404999315738684 0.39999999105930334 0.22500000149011615 0.26645000278949743 0.26015000045299536 0.16845000535249713 0.39999999105930334
decision_type=2 2 2 2 2 2 2 2 2 2 2 2
left_child=-1 2 3 4 -2 6 8 -4 9 10 -3 -5
right_child=1 5 7 11 -6 -7 -8 -9 -10 -11 -12 -13
leaf_value=-0.034881182798116528 0.045120465917221707 0.027164105637211708 0.03145859278704434 0.0297046549833931 0.053126425406784271 0.030944717264786363 0.026867094212195509 0.026982331453415304 0.029592020005173875 0.026172372470674898 0.028602935810780682 0.022467048424591577
leaf_weight=219715.73897600174 132.20756754279137 4778.0104929953814 211.3576377928257 105.05830338597298 279805.59285253286 364.30983518064022 10432.332597389817 861.54600103199482 863.81338785588741 1466.3343311995268 3386.2897381037474 98.523152276873589
leaf_count=1151560 294 13194 562 281 559444 974 28875 2373 2334 4079 9260 280
internal_value=0.0149839 0.051202 0.0530076 0.0531035 0.0531228 0.0273524 0.0272878 0.0279042 0.0277019 0.0275279 0.0277661 0.026413
internal_weight=522221 302505 281214 280141 279938 21291.1 20926.8 1072.9 10494.4 9630.63 8164.3 203.581
internal_count=1773510 621950 563234 560299 559738 58716 57742 2935 28867 26533 22454 561
is_linear=0
shrinkage=0.0259278


Tree=11
num_leaves=14
num_cat=0
split_feature=2 3 13 5 2 6 0 12 12 6 0 0 12
split_gain=1.33583e+06 18605.2 963.487 200.342 5.72301 3.29596 1.72625 2.16719 1.28791 3.94838 1.28343 0.565248 0.465266
threshold=0.066299999132752432 0.28260000050067907 0.010049999691545965 0.006599999964237214 0.69804999232292186 0.29404999315738684 0.26015000045299536 0.39999999105930334 0.22500000149011615 0.23785000294446948 0.049550000578165061 0.062849998474121108 0.39999999105930334
decision_type=2 2 2 2 2 2 2 2 2 2 2 2 2
left_child=-1 2 3 4 -2 6 7 10 -4 -10 -3 -12 -5
right_child=1 5 8 12 -6 -7 -8 -9 9 -11 11 -13 -14
leaf_value=-0.034574254359534547 0.043810925679272902 0.024234111658675537 0.03048200489138082 0.028796606743279152 0.051719069709912371 0.029985139600101195 0.025501521012553607 0.026160822977069367 0.027210400742084796 0.020962489009355271 0.029308844806556749 0.027043309396057175 0.02179837799673336
leaf_weight=215967.86337077618 132.62337285280228 378.52967070043087 212.45879158377647 105.55476629734039 279964.38109624386 366.19497925043106 3219.2125881016254 8874.6384460330009 713.32167416810989 152.16205753386021 565.89687533676624 7987.7539070695639 98.907525792717934
leaf_count=1151560 294 1060 562 281 559444 974 8902 24430 1941 432 1519 21831 280
internal_value=0.0146897 0.04983 0.0516023 0.0516966 0.0517155 0.0265158 0.0264533 0.026623 0.027053 0.0261616 0.0270774 0.0271982 0.0256213
internal_weight=518739 302772 281379 280301 280097 21392.2 21026 17806.8 1077.94 865.484 8932.18 8553.65 204.462
internal_count=1773510 621950 563234 560299 559738 58716 57742 48840 2935 2373 24410 23350 561
is_linear=0
shrinkage=0.0259278


Tree=12
num_leaves=16
num_cat=0
split_feature=2 3 5 2 8 3 14 14 2 7 0 14 14 0 0
split_gain=1.27276e+06 18076.7 914.274 219.827 4.185 4.82074 3.9059 2.85207 2.51096 2.21337 1.35616 1.11019 0.772332 1.13118 0.402722
threshold=0.066299999132752432 0.28260000050067907 0.006599999964237214 0.66589999198913585 0.47499999403953558 0.63044998049736034 0.43962599337100988 2.2935868501663212 0.29934999346733099 0.20564999431371692 0.049550000578165061 1.5570414066314699 0.65805739164352428 0.24665000289678576 0.088749997317790999
decision_type=2 2 2 2 2 2 2 2 2 2 2 2 2 2 2
left_child=-1 2 3 9 6 10 -3 12 -4 -2 -6 -7 13 -8 -14
right_child=1 4 8 -5 5 11 7 -9 -10 -11 -12 -13 14 -15 -16
leaf_value=-0.034280405368696233 0.02617633599671338 0.027302714375394391 0.022048954758677335 0.050413036727393376 0.020121965775362911 0.023150676745017539 0.024882588420462377 0.028399559012834728 0.027008266963079505 0.017783939202744365 0.025918459378389724 0.025609964723374474 0.026604085412526166 0.021302000606228083 0.025456940592345132
leaf_weight=212025.85847449303 98.720872789621353 1999.2601815611124 196.11261405050755 280083.36324845254 96.249580591917038 2060.8119054436684 1136.5149686485529 519.24025762081146 858.89660513401031 93.956362187862396 2561.8693924695253 591.33083780109882 2323.4533917158842 274.60832987725735 9824.8874705731869
leaf_count=1150504 264 5407 549 560192 274 5738 3126 1385 2314 267 6990 1613 6312 774 26897
internal_value=0.0144352 0.0485559 0.050303 0.0503939 0.025573 0.0247292 0.0258491 0.0256396 0.0261271 0.0223067 0.0257247 0.0237152 0.0255307 0.0242162 0.0256799
internal_weight=514745 302719 281331 280276 21388.2 5310.26 16078 14078.7 1055.01 192.677 2658.12 2652.14 13559.5 1411.12 12148.3
internal_count=1772606 622102 563586 560723 58516 14615 43901 38494 2863 531 7264 7351 37109 3900 33209
is_linear=0
shrinkage=0.0259278


Tree=13
num_leaves=18
num_cat=0
split_feature=2 3 13 5 2 13 8 3 14 13 14 13 13 0 14 14 0
split_gain=1.21459e+06 17490 891.904 192.839 12.5917 4.38912 3.81858 4.42435 3.54588 3.36987 2.58719 1.3454 1.4929 1.17511 1.0647 0.620252 0.965523
threshold=0.066299999132752432 0.28260000050067907 0.010049999691545965 0.006599999964237214 0.69804999232292186 0.012450000271201135 0.47499999403953558 0.63044998049736034 0.43962599337100988 0.024349999614059929 2.2935868501663212 0.021650000475347046 0.014549999963492157 0.049550000578165061 0.43962599337100988 0.65805739164352428 0.24665000289678576
decision_type=2 2 2 2 2 2 2 2 2 2 2 2 2 2 2 2 2
left_child=-1 2 3 4 -2 -4 8 13 -3 11 15 12 -7 -8 -9 16 -10
right_child=1 6 5 -5 -6 9 7 14 10 -11 -12 -13 -14 -15 -16 -17 -18
leaf_value=-0.033998917755926263 0.03930423938443104 0.026485897119667427 0.031381560344323038 0.023771002467859542 0.049215268374749058 0.019306905931446291 0.01953813947254383 0.020357839149621762 0.024146714548365863 0.027930789813169044 0.027551443245565976 0.019432653323424372 0.025609484834708637 0.025148985166428633 0.023384569334397646 0.024918345175937284 0.020682529406560471
leaf_weight=208287.23149824142 129.2635857462883 2007.3719368726015 142.02700656652451 206.98440662026405 279314.40017931163 96.746810719370842 96.551649659872055 335.86498345434666 1140.7281983941793 317.46533317863941 521.31881207227707 148.33194863796234 402.52734366059303 2571.665461063385 2325.5997989177704 12194.421830207109 275.48829844594002
leaf_count=1150504 291 5407 366 565 559748 272 274 945 3126 842 1385 417 1085 6990 6406 33209 774
internal_value=0.0141748 0.0473751 0.0491 0.0491922 0.0492108 0.0257924 0.0248154 0.0239997 0.0250822 0.0249254 0.0248797 0.0233857 0.0244742 0.024962 0.0230187 0.0247742 0.0235032
internal_weight=510514 302227 280758 279651 279444 1107.1 21469 5329.68 16139.3 965.071 14132 647.606 499.274 2668.22 2661.46 13610.6 1416.22
internal_count=1772606 622102 563586 560604 560039 2982 58516 14615 43901 2616 38494 1774 1357 7264 7351 37109 3900
is_linear=0
shrinkage=0.0259278


Tree=14
num_leaves=19
num_cat=0
split_feature=2 3 13 0 2 6 13 3 0 13 0 12 12 0 0 6 13 13
split_gain=1.16067e+06 16793.8 844.633 168.937 3.10309 2.42401 4.54768 4.23732 3.88822 4.86106 3.67002 2.39022 1.46143 1.27849 0.927059 1.39139 0.530506 0.96843
threshold=0.066299999132752432 0.28260000050067907 0.010049999691545965 0.19614999741315844 0.69804999232292186 0.1430500000715256 0.014250000007450582 0.89129999279975902 0.062849998474121108 0.011850000359117987 0.062849998474121108 0.22500000149011615 0.82500001788139354 0.2396500036120415 0.2396500036120415 0.22625000029802325 0.0066499998793005952 0.013950000051409008
decision_type=2 2 2 2 2 2 2 2 2 2 2 2 2 2 2 2 2 2
left_child=-1 2 3 -2 -5 6 8 14 9 -3 -9 -4 -13 -12 -7 -16 -10 -18
right_child=1 5 11 4 -6 7 -8 10 16 -11 13 12 -14 -15 15 -17 17 -19
leaf_value=-0.033729112354395394 0.020268814854539855 0.028512530222880552 0.028976161701003117 0.041156089931273968 0.048092953416449251 0.025292309847763556 0.02437696299135652 0.016690646172352989 0.020978154582679993 0.019884026791502866 0.024247872484909148 0.023509854040196766 0.029015917268889423 0.020508110312281599 0.025079605172149997 0.022614136450659957 0.023187733964544866 0.018625256916880759
leaf_weight=204642.15411022305 152.13828933238983 278.23373608291149 211.42479856312275 129.24574638903141 278353.15018096566 6534.8643662333488 7551.8368490189314 108.12335768342018 664.75088988244534 101.08791372179985 852.20512308180332 771.72911371290684 116.21164281666279 269.43293417990208 1044.4976843297482 928.13138572871685 3152.3251198083162 131.30160336196423
leaf_count=1150975 419 731 549 289 559664 17571 20498 309 1849 282 2307 2096 303 749 2816 2541 8628 370
internal_value=0.0139234 0.0462836 0.0479852 0.0480749 0.0480899 0.0242614 0.0238843 0.024717 0.0230148 0.0263263 0.0228339 0.0252213 0.0242789 0.0233878 0.0249841 0.0239414 0.0226857 0.0230184
internal_weight=505993 301351 279734 278635 278482 21616.8 11879.5 9737.25 4327.7 379.322 1229.76 1099.37 887.941 1121.64 8507.49 1972.63 3948.38 3283.63
internal_count=1772946 621971 563320 560372 559953 58651 32358 26293 11860 1013 3365 2948 2399 3056 22928 5357 10847 8998
is_linear=0
shrinkage=0.0259278


Tree=15
num_leaves=18
num_cat=0
split_feature=2 3 13 0 2 6 13 3 12 12 6 6 6 13 13 6 6
split_gain=1.10974e+06 16355.3 823.736 163.495 3.3688 2.21688 4.17099 3.87822 2.15662 1.27696 0.851735 2.05006 1.86713 0.474634 0.561614 0.422564 0.392354
threshold=0.066299999132752432 0.28260000050067907 0.010049999691545965 0.19614999741315844 0.69804999232292186 0.1430500000715256 0.014250000007450582 0.89129999279975902 0.22500000149011615 0.82500001788139354 0.28335000574588781 0.23185000568628314 0.21554999798536303 0.013950000051409008 0.0066499998793005952 0.16920000314712527 0.030650000087916855
decision_type=2 2 2 2 2 2 2 2 2 2 2 2 2 2 2 2 2
left_child=-1 2 3 -2 -5 6 13 15 -4 -10 11 12 -9 14 -3 -7 -8
right_child=1 5 8 4 -6 7 16 10 9 -11 -12 -13 -14 -15 -16 -17 -18
leaf_value=-0.033470358583634681 0.019702272580137382 0.02086247920579682 0.028134008729705222 0.040067403897266145 0.047051835895696857 0.025434646743212851 0.024312645782989105 0.021792364403577121 0.022836380560106312 0.028165728176267224 0.026117737485336218 0.019337790358037097 0.027246573014995293 0.018465777807975425 0.022808764197849482 0.024021958768840265 0.023197845719745619
leaf_weight=200925.78484155238 152.45095318555832 738.08212330937386 212.09863586723804 129.31443305313587 277150.73887848854 1421.4691046774387 3181.2447135001421 560.2405339628458 773.86031231284142 116.61021500825882 139.11371701955795 399.83102633059025 133.9748537838459 143.6889550536871 3458.3990615308285 7111.7190108448267 4393.6390142589808
leaf_count=1150975 419 2040 549 289 559664 3790 8572 1534 2096 303 367 1112 352 403 9417 19138 11926
internal_value=0.0136918 0.0452562 0.0469448 0.0470339 0.0470487 0.0235615 0.0231952 0.024004 0.0244971 0.0235825 0.0221815 0.0216417 0.0229068 0.0223538 0.0224767 0.0242623 0.0236717
internal_weight=501142 300216 278535 277433 277280 21681.4 11915.1 9766.35 1102.57 890.471 1233.16 1094.05 694.215 4340.17 4196.48 8533.19 7574.88
internal_count=1772946 621971 563320 560372 559953 58651 32358 26293 2948 2399 3365 2998 1886 11860 11457 22928 20498
is_linear=0
shrinkage=0.0259278


Tree=16
num_leaves=9
num_cat=0
split_feature=2 3 5 2 6 6 7 6
split_gain=1.06127e+06 15952.7 872.446 196.289 4.40318 2.26683 1.15592 0.399969
threshold=0.066299999132752432 0.28260000050067907 0.006599999964237214 0.66589999198913585 0.16920000314712527 0.21554999798536303 0.035350000485777862 0.22074999660253528
decision_type=2 2 2 2 2 2 2 2
left_child=-1 2 3 -2 -4 6 -3 -7
right_child=1 5 4 -5 -6 7 -8 -9
leaf_value=-0.033222072520170801 0.020183009846362295 0.019249408915179848 0.024291577532765823 0.046077005948921064 0.019976417785619677 0.026108794829078751 0.022675342942711316 0.023384750636979864
leaf_weight=197127.81417153776 202.8443643450737 234.85858407616615 578.17825371026993 275686.10741351545 478.77708703279495 328.88135959208012 16133.643606022 4962.6205372959375
leaf_count=1150395 551 654 1536 559722 1312 865 43623 13310
internal_value=0.0134684 0.0442918 0.0459679 0.0460581 0.0223775 0.0228588 0.0226288 0.0235622
internal_weight=495734 298606 276946 275889 1056.96 21660 16368.5 5291.5
internal_count=1771968 621573 563121 560273 2848 58452 44277 14175
is_linear=0
shrinkage=0.0259278


Tree=17
num_leaves=11
num_cat=0
split_feature=2 16 13 5 2 13 13 6 0 7
split_gain=1.01637e+06 15616.8 871.085 187.292 9.22302 3.86405 4.31246 2.08005 1.75678 1.02393
threshold=0.066299999132752432 0.07391583546996118 0.010049999691545965 0.006599999964237214 0.69804999232292186 0.025649999268352989 0.012749999761581423 0.21554999798536303 0.16845000535249713 0.034450000151991851
decision_type=2 2 2 2 2 2 2 2 2 2
left_child=-1 2 3 4 -2 6 -4 9 -5 -3
right_child=1 7 5 8 -6 -7 -8 -9 -10 -11
leaf_value=-0.032983712185757671 0.036177286377368577 0.018364050838985749 0.02600546191932555 0.01562231590623394 0.045176510423668277 0.025843463720322299 0.019941499001490774 0.022898880690893606 0.023169569979175308 0.022031759700999267
leaf_weight=193452.33335360885 124.50958636403084 193.5923340767622 155.99705462157726 91.294315904378891 273766.90008568764 257.45954617857933 710.93445993959904 5303.4914777874947 114.0478104352951 16212.409879431129
leaf_count=1150395 280 539 405 258 559272 671 1936 14175 299 43738
internal_value=0.0132612 0.0433902 0.0450603 0.0451539 0.0451726 0.0222106 0.0210822 0.0222148 0.0200231 0.0219911
internal_weight=490383 296931 275221 274097 273891 1124.39 866.932 21709.5 205.342 16406
internal_count=1771968 621573 563121 560109 559552 3012 2341 58452 557 44277
is_linear=0
shrinkage=0.0259278


Tree=18
num_leaves=21
num_cat=0
split_feature=2 3 13 5 14 2 8 12 14 7 7 13 5 14 13 13 6 13 5 5
split_gain=974167 15504 785.906 179.018 7.19529 6.53724 4.38125 3.34635 6.38401 3.93451 6.0746 2.82804 7.74039 3.32554 2.46668 2.23661 5.80786 1.60975 1.20353 1.05351
threshold=0.066299999132752432 0.28260000050067907 0.010049999691545965 0.006599999964237214 1.7969430685043337 0.69804999232292186 0.42499999701976782 0.39999999105930334 0.23658198863267901 0.30795000493526464 0.24994999915361407 0.02615000028163195 0.046850001439452178 1.5570414066314699 0.010950000025331976 0.028050000779330734 0.27214999496936804 0.0060499999672174462 0.067749999463558211 0.0059499999042600402
decision_type=2 2 2 2 2 2 2 2 2 2 2 2 2 2 2 2 2 2 2 2
left_child=-1 2 3 5 7 -2 18 11 -9 10 -10 13 19 14 -3 -6 -17 -11 -4 -13
right_child=1 4 6 -5 15 -7 -8 8 9 17 -12 12 -14 -15 -16 16 -18 -19 -20 -21
leaf_value=-0.032754767067561225 0.03630267834411275 0.020580465555568483 0.024748613606234739 0.019816891310573657 0.023187970600406022 0.044325978338670323 0.019690608579724097 0.024341003338162654 0.020673307310509547 0.016185520217309103 0.018385901952634537 0.020233486880006549 0.022729340817505338 0.024066173262080957 0.022157688583781636 0.01414716688517707 0.024333424841472731 0.022016010260400315 0.018853723208307336 0.01680256893317961
leaf_weight=190058.69568988681 127.4461682587862 1940.7925433516502 604.15618599951267 206.88876138627529 2691.3757423907518 271399.9826092571 417.28733941912651 459.72754882276058 5294.0451566576958 90.347823917865753 1406.6535515785217 324.73029214143753 608.6551818549633 849.38288426399231 5231.1046418100595 116.29095143079758 98.221510007977486 2207.0524194389582 95.461558789014816 474.83764736354351
leaf_count=1151955 285 5257 1578 559 7127 558430 1131 1211 14333 252 3869 882 1621 2236 14001 328 257 5915 260 1320
internal_value=0.0130118 0.0425335 0.0442145 0.0443039 0.021485 0.0443224 0.0224319 0.0212659 0.0208 0.0206143 0.0201995 0.0217287 0.0202163 0.0219889 0.0217369 0.0228944 0.0190114 0.0218054 0.0240056 0.0182496
internal_weight=484703 294644 272851 271734 21793.2 271527 1116.91 18887.3 9457.83 8998.1 6700.7 9429.5 1408.22 8021.28 7171.9 2905.89 214.512 2297.4 699.618 799.568
internal_count=1772807 620852 562243 559274 58609 558715 2969 50897 25580 24369 18202 25317 3823 21494 19258 7712 585 6167 1838 2202
is_linear=0
shrinkage=0.0259278


Tree=19
num_leaves=22
num_cat=0
split_feature=2 3 13 5 14 2 8 12 14 7 7 13 5 14 13 13 6 13 5 5 12
split_gain=934296 15238.6 773.916 175.48 6.75371 6.70039 4.06525 3.09188 5.95025 3.64573 5.66389 2.58597 7.23546 3.07141 2.25449 2.01818 5.42295 1.44413 1.05372 0.92891 0.391209
threshold=0.066299999132752432 0.28260000050067907 0.010049999691545965 0.006599999964237214 1.7969430685043337 0.69804999232292186 0.42499999701976782 0.39999999105930334 0.23658198863267901 0.30795000493526464 0.24994999915361407 0.02615000028163195 0.046850001439452178 1.5570414066314699 0.010950000025331976 0.028050000779330734 0.27214999496936804 0.0060499999672174462 0.067749999463558211 0.0059499999042600402 0.39999999105930334
decision_type=2 2 2 2 2 2 2 2 2 2 2 2 2 2 2 2 2 2 2 2 2
left_child=-1 2 3 5 7 -2 18 11 -9 10 -10 13 19 14 -3 -6 -17 -11 -4 -13 -5
right_child=1 4 6 20 15 -7 -8 8 9 17 -12 12 -14 -15 -16 16 -18 -19 -20 -21 -22
leaf_value=-0.032534763277801276 0.035472399187197926 0.020013581503031744 0.024065889264304304 0.021916554796259334 0.022548502860636335 0.043528161571545092 0.019153224028359287 0.023664100448610736 0.020103660876598053 0.015744290365731387 0.017882529191830619 0.019675930900432615 0.02210070744659335 0.02340032813232875 0.021545433706138966 0.013765065794203699 0.023661119419897358 0.021407567042053516 0.018339258495643534 0.016344541533652886 0.015837122344093946
leaf_weight=186430.1219214499 127.05266182124615 1943.9764225631952 605.17285639047623 110.17540888488293 2695.8802979439497 269236.66823266447 417.8646198362112 460.60536958277225 5302.7831462323666 90.470145404338837 1408.7232349514961 325.26690563559532 609.72340536117554 850.88203336298466 5240.1480053365231 116.41862010955811 98.391190558671951 2210.8785302042961 95.593345448374748 475.47911374270916 96.983831822872162
leaf_count=1151955 285 5257 1578 290 7127 558430 1131 1211 14333 252 3869 882 1621 2236 14001 328 257 5915 260 1320 269
internal_value=0.0128261 0.0417359 0.0434166 0.043506 0.0208933 0.0435245 0.0218181 0.0206801 0.0202273 0.0200469 0.0196438 0.0211296 0.0196619 0.0213819 0.0211369 0.0222643 0.0184976 0.0212036 0.0233459 0.0177514 0.0192776
internal_weight=478949 292519 270690 269571 21829.6 269364 1118.63 18918.9 9473.46 9012.86 6711.51 9445.48 1410.47 8035.01 7184.12 2910.69 214.81 2301.35 700.766 800.746 207.159
internal_count=1772807 620852 562243 559274 58609 558715 2969 50897 25580 24369 18202 25317 3823 21494 19258 7712 585 6167 1838 2202 559
is_linear=0
shrinkage=0.0259278


Tree=20
num_leaves=21
num_cat=0
split_feature=2 3 13 2 14 13 13 3 0 13 12 12 13 0 13 13 13 0 0 0
split_gain=896349 14948.1 797.567 168.67 4.09898 3.37986 5.11027 2.48987 2.1812 1.65105 3.29565 4.12835 1.1207 6.0228 0.749031 0.636744 2.67276 0.450045 1.45904 0.397371
threshold=0.066299999132752432 0.28260000050067907 0.010049999691545965 0.65810000896453869 1.5570414066314699 0.010650000069290401 0.013349999673664572 0.54344999790191661 0.27445000410079962 0.012749999761581423 0.22500000149011615 0.82500001788139354 0.01925000082701445 0.062849998474121108 0.019849999807775024 0.02615000028163195 0.022850000299513343 0.20615000277757647 0.16845000535249713 0.24665000289678576
decision_type=2 2 2 2 2 2 2 2 2 2 2 2 2 2 2 2 2 2 2 2
left_child=-1 2 3 -2 7 8 -7 -3 17 -4 -11 -12 13 -8 -14 16 -9 18 -6 -19
right_child=1 4 9 -5 5 6 12 15 -10 10 11 -13 14 -15 -16 -17 -18 19 -20 -21
leaf_value=-0.032323253768663324 0.016805067567310848 0.020718665317520139 0.024905007662680122 0.042772741777264874 0.023451847974049631 0.017768940519941653 0.01491872162489714 0.019703584703182737 0.017321840400356159 0.02426719198888375 0.018256030425985809 0.025383662383494182 0.016141795680054211 0.023006427293824374 0.020736297997224293 0.018727112983566989 0.021408956805578451 0.028037906167379563 0.018623021404723231 0.022032433523269779
leaf_weight=182596.75931483507 173.70362320542336 6374.6840596050024 154.2190595716238 267321.2596938014 558.58874173462391 517.45169495046139 99.630810603499413 7609.7174454182386 100.97850841283798 191.71424077451229 690.56463912129402 99.521540001034737 113.1876572072506 1073.7957262843847 1988.6091574281454 1595.5546564906836 1433.9585271179676 172.11133496463299 160.11353620886803 113.95554792881012
leaf_count=1150475 474 17052 396 559384 1458 1407 277 20509 275 494 1873 255 311 2813 5304 4333 3817 433 432 300
internal_value=0.0126928 0.040984 0.0426638 0.042756 0.0203888 0.0212318 0.0207295 0.0201436 0.0229157 0.0209109 0.0202398 0.0192082 0.0211841 0.0223563 0.0205093 0.0197951 0.0199787 0.0234352 0.0224358 0.0257957
internal_weight=473140 290543 268631 267495 21912.3 4898.42 3792.68 17013.9 1105.75 1136.02 981.8 790.086 3275.22 1173.43 2101.8 10639.2 9043.68 1004.77 718.702 286.067
internal_count=1772072 621597 562876 559858 58721 13010 10112 45711 2898 3018 2622 2128 8705 3090 5615 28659 24326 2623 1890 733
is_linear=0
shrinkage=0.0259278


Tree=21
num_leaves=18
num_cat=0
split_feature=2 3 13 2 14 13 13 13 3 0 13 12 12 13 0 13 13
split_gain=860728 14746.2 787.648 165.41 3.86493 3.14444 4.76396 2.39912 2.56707 1.99073 1.49115 3.05828 3.84278 0.991929 5.62615 0.637721 0.443444
threshold=0.066299999132752432 0.28260000050067907 0.010049999691545965 0.65810000896453869 1.5570414066314699 0.010650000069290401 0.013349999673664572 0.029849999584257606 0.54344999790191661 0.27445000410079962 0.012749999761581423 0.22500000149011615 0.82500001788139354 0.01925000082701445 0.062849998474121108 0.019849999807775024 0.012450000271201135
decision_type=2 2 2 2 2 2 2 2 2 2 2 2 2 2 2 2 2
left_child=-1 2 3 -2 7 9 16 8 -3 -6 -4 -12 -13 14 -8 -15 -7
right_child=1 4 10 -5 5 6 13 -9 -10 -11 11 12 -14 15 -16 -17 -18
leaf_value=-0.032119825849895554 0.016358533225441656 0.020205647306508381 0.024234215603131003 0.042066852322874972 0.022804339591769487 0.018491397622631293 0.014518627576951455 0.013800973908416661 0.019278977866843339 0.016857222589059688 0.023616054403176174 0.017765663283039888 0.024696269757711761 0.015709621800189654 0.022383791416258077 0.020176156820094857 0.014533559756317075
leaf_weight=179035.38661003113 173.81707662343979 6348.7133899480104 154.37650045752525 264792.4656136781 1005.921441078186 350.18713849782944 99.720918253064156 97.494157195091248 10587.844914913177 101.07027444243431 191.89007221162319 691.21775391697884 99.637962460517883 113.28486539423466 1075.0322788357735 1990.796343639493 167.73046000301838
leaf_count=1150475 474 16956 396 559384 2623 943 277 272 28483 275 494 1873 255 311 2813 5304 464
internal_value=0.012524 0.040273 0.0419576 0.0420501 0.0198375 0.0206606 0.0201712 0.019598 0.0196289 0.0223001 0.0203517 0.0196981 0.0186931 0.0206128 0.0217527 0.0199561 0.0172925
internal_weight=467077 288041 266103 264966 21937.8 4903.74 3796.75 17034.1 16936.6 1106.99 1137.12 982.746 790.856 3278.83 1174.75 2104.08 517.918
internal_count=1772072 621597 562876 559858 58721 13010 10112 45711 45439 2898 3018 2622 2128 8705 3090 5615 1407
is_linear=0
shrinkage=0.0259278


Tree=22
num_leaves=28
num_cat=0
split_feature=2 3 5 13 2 14 8 12 2 3 8 2 2 6 2 2 7 2 2 7 7 2 12 3 2 2 2
split_gain=827528 14596.4 680.509 150.412 7.3311 4.5395 6.62955 5.70154 13.9399 9.13647 5.27877 4.77336 7.1546 4.3983 6.2914 4.74431 3.72755 3.44934 2.46508 1.92289 3.03617 1.91748 1.19454 2.3595 1.09336 0.6735 0.399928
threshold=0.066299999132752432 0.28260000050067907 0.006599999964237214 0.010049999691545965 0.69804999232292186 1.5570414066314699 0.47499999403953558 0.82500001788139354 0.30900000035762792 0.54344999790191661 0.32500000298023229 0.15879999846220019 0.17810000479221347 0.19385000318288806 0.35754999518394476 0.57375001907348644 0.15444999933242801 0.29675000905990606 0.73955002427101146 0.039650000631809242 0.049350000917911536 0.57034999132156383 0.39999999105930334 0.80434998869895946 0.52895000576972973 0.59714999794960033 0.88195002079010021
decision_type=2 2 2 2 2 2 2 2 2 2 2 2 2 2 2 2 2 2 2 2 2 2 2 2 2 2 2
left_child=-1 2 3 4 -2 6 10 22 -9 -10 19 -12 -13 21 -15 -16 -5 -4 -11 -3 -21 24 23 -7 -8 -23 -19
right_child=1 5 17 16 -6 7 13 8 9 18 11 12 -14 14 15 -17 -18 26 -20 20 -22 25 -24 -25 -26 -27 -28
leaf_value=-0.031924086805713826 0.033103788558493857 0.014526673338436796 0.016368188548350301 0.026580169032243472 0.041407918169810626 0.021772765668638127 0.017758542099915359 0.0065804616901106866 0.013034393191526031 0.025258585395710412 0.023858810910362804 0.011878269592007749 0.019897267742353574 0.020794163794917674 0.0078120850656648883 0.015243219097656635 0.018179322482525122 0.022349928667448799 0.017314692640757134 0.023313049895530392 0.018659668158842627 0.023169763801346843 0.019582700389029793 0.019055440806992899 0.014022603051801998 0.018874597041762173 0.018900388969648355
leaf_weight=175616.09251536429 123.06770385801792 162.87442010641098 195.92208528518677 97.746213763952255 262040.76919223368 1856.6099804192781 1691.1987729519606 85.652395531535149 141.63987013697624 146.89945034682751 309.10317492485046 102.8692339360714 6008.6719868779182 122.33850131928921 113.61566001176834 247.46661472320557 165.64703705906868 621.34669588506222 91.920454010367393 173.53361824154854 5986.8480591922998 121.32867836952209 1938.1206544935703 611.30122332274914 176.24027280509472 1773.8259672224522 246.95767356455326
leaf_count=1151179 280 452 535 244 559207 4858 4579 249 394 374 799 289 16011 323 328 680 443 1620 248 450 16093 315 5160 1632 489 4765 654
internal_value=0.0123581 0.039611 0.0413003 0.0413843 0.0414042 0.0192493 0.018999 0.0201133 0.0168212 0.019014 0.0193419 0.0199729 0.0197693 0.0179597 0.0150789 0.0130237 0.0214599 0.0205289 0.0223808 0.0186945 0.0187977 0.0183184 0.0204519 0.0211171 0.0174289 0.0191722 0.0214183
internal_weight=460970 285354 263491 262427 262164 21862.1 16989.9 4872.14 466.112 380.46 12743.9 6420.64 6111.54 4246.01 483.421 361.082 263.393 1064.23 238.82 6323.26 6160.38 3762.59 4406.03 2467.91 1867.44 1895.15 868.304
internal_count=1772650 621471 562983 560174 559487 58488 45573 12915 1265 1016 34094 17099 16300 11479 1331 1008 687 2809 622 16995 16543 10148 11650 6490 5068 5080 2274
is_linear=0
shrinkage=0.0259278


Tree=23
num_leaves=29
num_cat=0
split_feature=2 3 13 8 2 14 8 12 2 3 8 2 2 6 2 2 13 13 2 2 2 7 7 12 3 7 7 7
split_gain=795517 14439.4 668.094 153.582 29.9555 4.2791 6.20392 5.30384 13.1685 8.60253 4.93208 4.45166 6.70817 4.08519 5.90029 4.45231 2.99198 6.81742 6.72821 2.86273 2.26062 1.76287 2.8114 1.07036 2.16639 1.00919 3.00933 1.51424
threshold=0.066299999132752432 0.28260000050067907 0.010049999691545965 0.37500000000000006 0.68439999222755443 1.5570414066314699 0.47499999403953558 0.82500001788139354 0.30900000035762792 0.54344999790191661 0.32500000298023229 0.15879999846220019 0.17810000479221347 0.19385000318288806 0.35754999518394476 0.57375001907348644 0.018150000832974914 0.026349999941885475 0.57034999132156383 0.18695000559091571 0.73955002427101146 0.039650000631809242 0.049350000917911536 0.39999999105930334 0.80434998869895946 0.15444999933242801 0.24255000054836276 0.20564999431371692
decision_type=2 2 2 2 2 2 2 2 2 2 2 2 2 2 2 2 2 2 2 2 2 2 2 2 2 2 2 2
left_child=-1 2 3 -2 -5 6 10 23 -9 -10 21 -12 -13 16 -15 -16 18 -18 -8 -4 -11 -3 -23 24 -7 -21 27 -27
right_child=1 5 19 4 -6 7 13 8 9 20 11 12 -14 14 15 -17 17 -19 -20 25 -22 22 -24 -25 -26 26 -28 -29
leaf_value=-0.031735671595555744 0.012983245411187583 0.014139814188800738 0.014329061950412692 0.026481985586874257 0.040778611491639166 0.021194683889587364 0.015129430874454897 0.00640823210278345 0.012690966933203436 0.024585044096078548 0.023219337925415921 0.011564864972059012 0.019366207987731393 0.020238764998068218 0.007607209711879219 0.014839456624835401 0.020036984367128141 0.015998142516749289 0.018611932519971966 0.023156223280547731 0.016855925919034596 0.022688636299897098 0.018162545636022563 0.019062707853065384 0.018550289078258921 0.019253409963397906 0.021637885296156335 0.012868062044453768
leaf_weight=172123.93507902324 138.29528337717056 162.99066080152988 87.701570242643356 115.69421425461769 259293.099617064 1857.7815387547016 983.94664962589741 85.673830300569534 141.70028835535049 147.00943909585476 309.37727972865105 102.91702608764172 6013.3135344833136 122.43555772304535 113.65008901059628 247.60724869370461 1250.9201794266701 545.50186623632908 985.03168728947639 361.06899815797806 91.97351735830307 173.68431940674782 5991.1782519668341 1939.3497047275305 611.66166444122791 142.71481129527092 422.92649237811565 103.44696548581123
leaf_count=1151179 380 452 241 286 559383 4858 2703 249 394 374 799 289 16011 323 328 680 3316 1490 2639 926 248 450 16093 5160 1632 378 1102 287
internal_value=0.0122047 0.0389732 0.0406714 0.0407578 0.0407724 0.0187376 0.0184932 0.019581 0.0163834 0.0185158 0.0188266 0.0194401 0.0192419 0.0174827 0.0146842 0.0126829 0.0178309 0.0188344 0.0168934 0.0205924 0.0217901 0.0181967 0.018297 0.0199095 0.0205571 0.021084 0.0199016 0.0167443
internal_weight=454667 282543 260665 259547 259409 21877.7 17002.6 4875.15 466.357 380.683 12753.5 6425.61 6116.23 4249.09 483.693 361.257 3765.4 1796.42 1968.98 1117.86 238.983 6327.85 6164.86 4408.79 2469.44 1030.16 669.088 246.162
internal_count=1772650 621471 562983 560049 559669 58488 45573 12915 1265 1016 34094 17099 16300 11479 1331 1008 10148 4806 5342 2934 622 16995 16543 11650 6490 2693 1767 665
is_linear=0
shrinkage=0.0259278


Tree=24
num_leaves=16
num_cat=0
split_feature=2 3 13 2 6 6 13 13 13 6 13 7 7 14 13
split_gain=765629 14064.8 748.487 162.647 6.18817 5.11867 5.0801 9.60928 3.17865 2.4421 2.14296 2.27632 2.10072 0.808788 0.419122
threshold=0.066299999132752432 0.28260000050067907 0.010049999691545965 0.65810000896453869 0.1430500000715256 0.052850000560283668 0.026349999941885475 0.018949999473989013 0.028450000099837783 0.24374999850988391 0.0053499999921768912 0.24994999915361407 0.082199998199939742 0.23658198863267901 0.0058500000741332778
decision_type=2 2 2 2 2 2 2 2 2 2 2 2 2 2 2
left_child=-1 2 3 -2 5 13 7 14 -8 -4 -6 12 -12 -3 -7
right_child=1 4 9 -5 10 6 8 -9 -10 -11 11 -13 -14 -15 -16
leaf_value=-0.031554239729499514 0.014003753670232377 0.019980322228129333 0.019542655986817398 0.040179574391240147 0.02372314442072038 0.013625135956699917 0.01319721253513188 0.019395445211574869 0.017358742648655955 0.014675953451201864 0.01803997682066694 0.018246624462892668 0.019790964188970979 0.018331060611220511 0.016861347231559295
leaf_weight=168707.89222115278 164.71067935228348 913.55949307978153 963.43019938468933 256606.99899713695 135.77544277906418 173.16629579663277 469.35421817004681 1691.1586343199015 340.9097087085247 160.50879009068012 1294.1469439417124 3978.4208403974771 4458.3221357613802 5574.6458853334188 2909.8559685200453
leaf_count=1151436 451 2409 2537 559991 347 479 1302 4484 918 438 3458 10612 11759 14908 7862
internal_value=0.0120727 0.0383748 0.0400704 0.040163 0.0184419 0.0179775 0.0172815 0.0176596 0.0150011 0.0188858 0.0190058 0.0189355 0.0194045 0.0185699 0.0166935
internal_weight=448543 279835 257896 256772 21939.3 12072.7 5584.44 4774.18 810.264 1123.94 9866.67 9730.89 5752.47 6488.21 3083.02
internal_count=1773391 621955 563417 560442 58538 32362 15045 12825 2220 2975 26176 25829 15217 17317 8341
is_linear=0
shrinkage=0.0259278


Tree=25
num_leaves=16
num_cat=0
split_feature=2 3 13 5 2 6 6 6 7 7 7 6 6 7 14
split_gain=736722 13953.6 743.603 162.272 13.4258 5.83945 4.7857 2.25835 1.88914 1.64066 2.09542 2.37785 5.76121 1.00447 0.711177
threshold=0.066299999132752432 0.28260000050067907 0.010049999691545965 0.006599999964237214 0.69804999232292186 0.1430500000715256 0.052850000560283668 0.24374999850988391 0.1909499987959862 0.034450000151991851 0.24994999915361407 0.22625000029802325 0.26064999401569372 0.11744999885559083 0.23658198863267901
decision_type=2 2 2 2 2 2 2 2 2 2 2 2 2 2 2
left_child=-1 2 3 4 -2 6 14 -4 -5 -7 13 -12 -13 -11 -3
right_child=1 5 7 8 -6 9 -8 -9 -10 10 11 12 -14 -15 -16
leaf_value=-0.031379458875529474 0.029954292808750286 0.01945528491424884 0.019033657815260462 0.019647020112121841 0.039624519282114093 0.013524130965329482 0.016827788951958467 0.014292705605400738 0.012413925339659586 0.018197229342685646 0.018704246869352688 0.015137206382792902 0.018512671416684723 0.019505284981687999 0.017848392332383903
leaf_weight=165293.53758198023 132.9488869458437 913.88323096930981 963.54484140872955 94.818808048963547 253368.465070948 107.26186242699623 5586.5630420446396 160.53919972479343 107.29821760952473 2164.7014298886061 2155.8974024951458 887.61206901073456 986.51283115148544 3567.434804558754 5576.9199585616589
leaf_count=1151436 311 2409 2537 248 559588 295 15045 438 295 5754 5715 2412 2610 9390 14908
internal_value=0.0119324 0.037799 0.0395076 0.039601 0.0396196 0.017958 0.017505 0.0183947 0.0160194 0.0185081 0.0185584 0.017893 0.0169369 0.0190188 0.0180812
internal_weight=442068 276774 254828 253704 253501 21946.8 12077.4 1124.08 202.117 9869.42 9762.16 4030.02 1874.12 5732.14 6490.8
internal_count=1773391 621955 563417 560442 559899 58538 32362 2975 543 26176 25881 10737 5022 15144 17317
is_linear=0
shrinkage=0.0259278


Tree=26
num_leaves=24
num_cat=0
split_feature=2 3 13 0 12 12 14 7 7 7 7 14 2 0 6 5 0 12 13 7 7 7 2
split_gain=708440 14151.9 778.681 155.225 4.55634 4.31846 10.0306 4.68258 4.52518 3.69341 6.98954 5.74336 2.98783 2.3072 2.28582 2.18423 1.72936 1.54364 1.37664 1.05815 0.762192 0.531527 0.475241
threshold=0.066299999132752432 0.28260000050067907 0.010049999691545965 0.19614999741315844 0.17500000447034839 0.39999999105930334 2.5564196109771733 0.037149999290704734 0.31524999439716345 0.30795000493526464 0.24994999915361407 0.65805739164352428 0.80689999461174022 0.049550000578165061 0.26064999401569372 0.069099999964237227 0.045649999752640731 0.39999999105930334 0.026549999602139 0.32215000689029699 0.082199998199939742 0.20564999431371692 0.69804999232292186
decision_type=2 2 2 2 2 2 2 2 2 2 2 2 2 2 2 2 2 2 2 2 2 2 2
left_child=-1 2 3 -2 -4 8 7 -7 13 10 -9 -11 15 16 20 18 -3 -14 -6 -10 -15 -16 -5
right_child=1 5 4 22 12 6 -8 9 19 11 -12 -13 17 14 21 -17 -18 -19 -20 -21 -22 -23 -24
leaf_value=-0.031211030834932343 0.012596405415390534 0.017118081201276076 0.023140935020720808 0.033557039076988204 0.016837442884388577 0.012043507483757208 0.025518970164922151 0.016914027207769269 0.013311316298326461 0.015173383383325974 0.014761451730676042 0.018558021271743531 0.01572270546737637 0.019077905422243101 0.018634478486830541 0.0102878187389843 0.011280406844584326 0.021862453592748823 0.011701516482627282 0.016777848868931102 0.017693801077435532 0.021625898052175182 0.039088122997432959
leaf_weight=161805.12804096937 153.58276462554932 174.81626300513744 115.24362997710705 120.16227234899998 500.69455482065678 204.00804634392262 107.30178904533386 6236.4352573007345 191.844911262393 599.54753302037716 1672.0099721848965 2185.4293601959944 125.74754674732685 1305.4001582562923 584.04448705911636 98.284838452935219 120.53875653445721 165.02477705478668 105.29089997708797 2285.4394692331553 5943.6966141462326 379.20146560668945 250205.37819363177
leaf_count=1150614 422 468 291 275 1338 568 267 16706 526 1626 4552 5782 336 3443 1536 275 336 422 291 6123 15824 975 559616
internal_value=0.0117946 0.0372299 0.0389734 0.0390696 0.0172387 0.0172798 0.0168317 0.0167422 0.0177247 0.0168279 0.0164644 0.0178448 0.016512 0.0180685 0.018178 0.0152773 0.0148808 0.0193548 0.0160158 0.0165267 0.017949 0.0198567 0.0390856
internal_weight=435384 273579 251589 250479 1110.29 21989.7 11004.7 10897.4 10985 10693.4 7908.45 2784.98 995.043 8507.7 8212.34 704.27 295.355 290.772 605.985 2477.28 7249.1 963.246 250326
internal_count=1772612 621998 563266 560313 2953 58732 29501 29234 29231 28666 21258 7408 2662 22582 21778 1904 804 758 1629 6649 19267 2511 559891
is_linear=0
shrinkage=0.0259278


Tree=27
num_leaves=25
num_cat=0
split_feature=2 16 13 5 2 12 12 14 7 7 2 8 2 2 12 5 13 0 6 0 14 7 7 7
split_gain=682281 14061 773.737 153.477 9.00961 4.38458 4.05537 9.48894 4.39653 4.24034 3.67671 4.72543 3.49555 6.86351 4.64829 2.95194 2.53616 2.12838 2.13955 1.5922 1.14902 0.95104 0.662606 0.442985
threshold=0.066299999132752432 0.07391583546996118 0.010049999691545965 0.006599999964237214 0.69804999232292186 0.22500000149011615 0.39999999105930334 2.5564196109771733 0.037149999290704734 0.31524999439716345 0.80689999461174022 0.42499999701976782 0.36474999785423284 0.68895000219345104 0.77500000596046459 0.057249998673796661 0.022850000299513343 0.049550000578165061 0.26064999401569372 0.045649999752640731 1.1111883521080019 0.32215000689029699 0.082199998199939742 0.20564999431371692
decision_type=2 2 2 2 2 2 2 2 2 2 2 2 2 2 2 2 2 2 2 2 2 2 2 2
left_child=-1 2 3 4 -2 -4 9 8 -8 17 11 15 14 -14 -10 -7 -12 19 22 -3 -5 -11 -19 -20
right_child=1 6 5 20 -6 10 7 -9 12 21 16 -13 13 -15 -16 -17 -18 18 23 -21 -22 -23 -24 -25
leaf_value=-0.031048667792339814 0.029702300982481469 0.016671884284946287 0.020746890392299121 0.018887700796420912 0.038587442837078843 0.017867238604381726 0.011728811049480233 0.024868560731889137 0.014359640984243071 0.012966120864238612 0.015902823319674582 0.010870673435571056 0.017626849850240305 0.015869416250910619 0.016897877225635058 0.011003814055658537 0.023234145822948901 0.018582475531183928 0.018155797373714741 0.010986753651142961 0.012485435381877467 0.016342880593722225 0.017234952701075352 0.021071661015134219
leaf_weight=158477.48093667626 118.7214565128088 174.84081982076168 221.14216858148575 105.42114770412445 246896.26683562994 303.10196149349213 204.04996982216835 107.25400570034981 1696.8789432793856 191.84594462811947 156.94745241105556 232.83638706803322 3880.1151937097311 3954.399219289422 1162.3776787668467 94.034026503562927 101.98029720783234 1305.4539806693792 583.9025154709816 120.55164659023285 102.41950605809689 2285.4327670633793 5943.7242822051048 379.08643616735935
leaf_count=1150614 279 468 568 275 559479 801 568 267 4616 526 418 648 10306 10639 3105 261 257 3443 1536 336 280 6123 15824 975
internal_value=0.0116659 0.0367076 0.0384674 0.0385645 0.0385833 0.0168005 0.0168323 0.0163953 0.016308 0.0172661 0.0157704 0.014393 0.0163913 0.0167453 0.0154065 0.0163501 0.0189561 0.017601 0.0177074 0.0144969 0.0159392 0.0160987 0.0174835 0.0193482
internal_weight=428800 270323 248333 247223 247015 1110.04 21989.9 11005.1 10897.8 10984.8 888.9 629.972 10693.8 7834.51 2859.26 397.136 258.928 8507.56 8212.17 295.392 207.841 2477.28 7249.18 962.989
internal_count=1772612 621998 563266 560313 559758 2953 58732 29501 29234 29231 2385 1710 28666 20945 7721 1062 675 22582 21778 804 555 6649 19267 2511
is_linear=0
shrinkage=0.0259278


Tree=28
num_leaves=30
num_cat=0
split_feature=2 3 13 5 0 0 3 7 13 14 13 13 2 3 3 14 13 13 13 7 7 13 7 13 13 7 7 8 13
split_gain=657676 13808.9 685.204 133.669 5.17322 6.56263 6.0064 5.11309 8.44643 5.52225 5.8953 4.16351 3.84998 2.28867 6.10447 5.07847 4.70119 3.90659 2.19088 2.16028 1.88243 1.71599 1.67716 5.98224 3.09829 2.25342 2.53232 1.33225 1.32564
threshold=0.066299999132752432 0.28260000050067907 0.010049999691545965 0.006599999964237214 0.049249999225139625 0.11574999988079072 0.80434998869895946 0.29354999959468847 0.018949999473989013 0.65805739164352428 0.012149999849498274 0.029250000603497032 0.69804999232292186 0.54344999790191661 0.63044998049736034 2.1308821439743046 0.01124999998137355 0.0088499998673796671 0.026950000785291198 0.30795000493526464 0.035649999976158149 0.022149999625980858 0.15444999933242801 0.025150000117719177 0.021949999965727333 0.24255000054836276 0.33005000650882726 0.42499999701976782 0.015150000341236593
decision_type=2 2 2 2 2 2 2 2 2 2 2 2 2 2 2 2 2 2 2 2 2 2 2 2 2 2 2 2 2
left_child=-1 2 3 12 7 6 11 9 -9 -3 -11 28 -2 15 16 17 -15 -7 19 -8 -16 -17 24 25 -4 -24 -27 -12 -6
right_child=1 4 22 -5 5 13 18 8 -10 10 27 -13 -14 14 20 21 -18 -19 -20 -21 -22 -23 23 -25 -26 26 -28 -29 -30
leaf_value=-0.03089210493397938 0.031287714834673595 0.021265920141741248 0.022289775028341775 0.016743743404479802 0.016988067451343566 0.014631441711401823 0.015364876094519007 0.0046183542824883572 0.015321219073360186 0.0081196906964832068 0.017997928323073235 0.023841970734414138 0.038108331626687961 0.017045618354745797 0.011403560627082684 0.022409946441916358 0.013592586510742017 0.017034120822297976 0.011763611994059201 0.01886466364497397 0.016449261612853601 0.01585774191983421 0.011800282560446908 0.021113503574595148 0.015926304154292057 0.018972784785372818 0.012959922261554211 0.012497953475224449 0.018536530418040442
leaf_weight=155217.17808026075 125.99821370840073 121.06484431028366 227.55489082634449 204.25848695635796 1720.58375428617 825.326270788908 928.09969894587994 111.79391798377037 117.05706903338432 114.796023234725 188.34771656990051 127.31089785695076 243436.89264151454 497.43943372368813 106.29359436035156 233.97164642810822 1432.2673839628696 4722.4136080592871 156.31142920255661 309.87675654888153 7706.3819254934788 95.749398365616798 195.74704153835773 189.97403337061405 157.89694155752659 200.24298177659512 150.96154840290546 123.55977638065815 2455.1449289470911
leaf_count=1150788 293 312 577 541 4574 2233 2497 324 315 325 498 321 559188 1322 295 594 3902 12554 431 812 20581 255 539 488 420 523 411 340 6452
internal_value=0.0115486 0.0362228 0.037994 0.0380873 0.0165878 0.0166758 0.0175405 0.0141188 0.0102801 0.0156443 0.0139487 0.0180943 0.038105 0.0163576 0.0160179 0.0169135 0.0145049 0.0166844 0.0158005 0.0162756 0.0163861 0.0206374 0.0177105 0.0165623 0.0197944 0.0149031 0.0165104 0.0159567 0.0179088
internal_weight=422200 266983 244890 243767 22093.8 21317.2 5697.33 776.619 228.851 547.768 426.704 4303.04 243563 15619.8 9742.38 5877.46 1929.71 5547.74 1394.29 1237.98 7812.68 329.721 1122.38 736.926 385.452 546.952 351.205 311.907 4175.73
internal_count=1772705 621917 562980 560022 58937 56823 15087 2114 639 1475 1163 11347 559481 41736 26100 15636 5224 14787 3740 3309 20876 849 2958 1961 997 1473 934 838 11026
is_linear=0
shrinkage=0.0259278


Tree=29
num_leaves=31
num_cat=0
split_feature=2 3 13 5 0 0 3 7 13 14 13 12 2 13 12 3 3 14 13 13 13 7 7 13 7 13 13 7 7 13
split_gain=633874 13747.8 684.152 133.213 4.83442 6.19173 5.64549 4.80983 7.98383 5.18355 5.55676 4.26061 4.15429 3.89717 3.50175 2.12854 5.74121 4.80082 4.41793 3.65961 2.03274 2.00129 1.73939 1.56994 1.54581 5.62398 2.88923 2.10058 2.35302 1.2043
threshold=0.066299999132752432 0.28260000050067907 0.010049999691545965 0.006599999964237214 0.049249999225139625 0.11574999988079072 0.80434998869895946 0.29354999959468847 0.018949999473989013 0.65805739164352428 0.012149999849498274 0.39999999105930334 0.69804999232292186 0.029250000603497032 0.62500000000000011 0.54344999790191661 0.63044998049736034 2.1308821439743046 0.01124999998137355 0.0088499998673796671 0.026950000785291198 0.30795000493526464 0.035649999976158149 0.022149999625980858 0.15444999933242801 0.025150000117719177 0.021949999965727333 0.24255000054836276 0.33005000650882726 0.015150000341236593
decision_type=2 2 2 2 2 2 2 2 2 2 2 2 2 2 2 2 2 2 2 2 2 2 2 2 2 2 2 2 2 2
left_child=-1 2 3 12 7 6 13 9 -9 -3 -11 -5 -2 29 -12 17 18 19 -17 -7 21 -8 -18 -19 26 27 -4 -26 -29 -6
right_child=1 4 24 11 5 15 20 8 -10 10 14 -13 -14 -15 -16 16 22 23 -20 -21 -22 -23 -24 -25 25 -27 -28 28 -30 -31
leaf_value=-0.030741075772263968 0.030710422990945042 0.020719144622147162 0.021731268317214694 0.020635248259368764 0.016552538719495524 0.014255099111841325 0.014970144848314453 0.0044987396668241635 0.014926174720521707 0.0079095959610669207 0.01311908533409888 0.011505120119374984 0.037652779573835352 0.023233642077404658 0.020560380850177619 0.016608172725162799 0.011107797339869038 0.021844835280198951 0.013243045332470808 0.016597208349543098 0.011460373215926188 0.018381602727077489 0.016026908119367366 0.015453288564622115 0.011496834884769143 0.020577525524802746 0.015521930505507753 0.018489255747780667 0.012628319289805033 0.018062151798864803
leaf_weight=151977.80335432291 125.0509640276432 121.03840203583241 227.35425671935081 102.96178345382214 1720.0771612077951 825.15376392006874 927.87652376294136 111.79091073572636 117.04016263782978 114.79000481963158 215.83873943984509 101.16105730831623 240038.40571789443 127.25775997340679 96.037190705537796 497.30613252520561 106.29462993144989 233.8033005297184 1431.959347769618 4721.0798842012882 156.28779746592045 309.77600468695164 7704.4153219759464 95.708545714616776 195.70503482222557 189.86979058384895 157.81111924350262 200.15335009992123 150.90954364836216 2454.3080441206694
leaf_count=1150788 293 312 577 263 4574 2233 2497 324 315 325 590 278 559188 321 248 1322 295 594 3902 12554 431 812 20581 255 539 488 420 523 411 6452
internal_value=0.0114301 0.035746 0.037537 0.0376314 0.0161631 0.0162486 0.017092 0.0137614 0.0100193 0.0152466 0.0135935 0.0163206 0.0376493 0.0176315 0.0155481 0.0159383 0.0156068 0.0164804 0.0141327 0.0162565 0.0153963 0.0158587 0.0159655 0.0201186 0.0172652 0.0161438 0.0192986 0.0145257 0.016092 0.0174504
internal_weight=415555 263577 241489 240368 22087.8 21311.3 5695.58 776.535 228.831 547.704 426.666 204.123 240163 4301.64 311.876 15615.7 9739.98 5875.75 1929.27 5546.23 1393.94 1237.65 7810.71 329.512 1121.8 736.638 385.165 546.768 351.063 4174.39
internal_count=1772705 621917 562980 560022 58937 56823 15087 2114 639 1475 1163 541 559481 11347 838 41736 26100 15636 5224 14787 3740 3309 20876 849 2958 1961 997 1473 934 11026
is_linear=0
shrinkage=0.0259278


Tree=30
num_leaves=18
num_cat=0
split_feature=2 3 13 2 7 8 0 14 8 8 0 7 6 12 14 7 7
split_gain=611309 13708.3 708.948 152.301 4.6624 2.2989 7.0447 2.62615 3.11425 2.85956 3.45786 2.75343 1.34342 3.07265 0.878641 4.36484 2.17482
threshold=0.066299999132752432 0.28260000050067907 0.010049999691545965 0.65810000896453869 0.031549999490380294 0.47499999403953558 0.04474999941885472 2.2105520963668828 0.22500000149011615 0.32500000298023229 0.24665000289678576 0.38844999670982366 0.23785000294446948 0.82500001788139354 1.5570414066314699 0.20564999431371692 0.37395000457763677
decision_type=2 2 2 2 2 2 2 2 2 2 2 2 2 2 2 2 2
left_child=-1 2 3 -2 -3 7 -7 9 -9 11 -11 -6 13 -4 16 -16 -8
right_child=1 4 12 -5 5 6 14 8 -10 10 -12 -13 -14 -15 15 -17 -18
leaf_value=-0.030595348137754375 0.012189056058207373 0.0086815117885011527 0.016357134722405135 0.037212541636834851 0.015272051497078734 0.0071305874380302179 0.015120075958923699 0.022920412128922499 0.016913487642962424 0.016643722035746277 0.014929597317734255 0.018916086457279796 0.013224224930644977 0.022768552008888186 0.014263608980152458 0.018072129848824534 0.011873847214149287
leaf_weight=148863.64093565941 168.72012923657894 90.276742905378342 835.97740358114243 236800.56956484914 7590.8956257402897 93.27660109102726 3913.1196039170027 121.34919722378254 591.45549976825714 6314.5415016710758 1584.4419089704752 246.44594696164131 188.84149111807346 95.572096019983292 557.55605548620224 643.49681124091148 278.46728698909283
leaf_count=1151403 461 254 2213 559714 20335 265 10506 305 1558 16741 4255 642 512 240 1500 1684 764
internal_value=0.0113064 0.035287 0.0370975 0.0371949 0.0157139 0.0157409 0.0151099 0.0159487 0.0179963 0.0158532 0.0163053 0.0153921 0.0164526 0.017061 0.01524 0.0163398 0.0149146
internal_weight=408979 260115 238090 236969 22025.3 21935 5485.92 16449.1 712.805 15736.3 7898.98 7837.34 1120.39 931.549 5392.64 1201.05 4191.59
internal_count=1773352 621949 563140 560175 58809 58555 14719 43836 1863 41973 20996 20977 2965 2453 14454 3184 11270
is_linear=0
shrinkage=0.0259278


Tree=31
num_leaves=20
num_cat=0
split_feature=2 3 13 5 2 7 12 8 0 14 8 8 7 7 6 12 14 7 7
split_gain=589590 13664.9 708.399 152.736 15.0745 4.38542 2.44846 2.13675 6.64867 2.47121 2.90991 2.67168 3.48719 2.57018 1.23299 2.87707 0.801915 4.1006 2.01915
threshold=0.066299999132752432 0.28260000050067907 0.010049999691545965 0.006599999964237214 0.69804999232292186 0.031549999490380294 0.39999999105930334 0.47499999403953558 0.04474999941885472 2.2105520963668828 0.22500000149011615 0.32500000298023229 0.037149999290704734 0.38844999670982366 0.23785000294446948 0.82500001788139354 1.5570414066314699 0.20564999431371692 0.37395000457763677
decision_type=2 2 2 2 2 2 2 2 2 2 2 2 2 2 2 2 2 2 2
left_child=-1 2 3 4 -2 -3 -5 9 -9 11 -11 13 -13 -7 15 -4 18 -18 -10
right_child=1 5 14 6 -6 7 -8 8 16 10 -12 12 -14 -15 -16 -17 17 -19 -20
leaf_value=-0.030454691746334805 0.026213960168831547 0.0084573012063856937 0.01594504798618793 0.017503462965450467 0.036806826603077825 0.014883358689460724 0.010048445352643423 0.0069464242868229322 0.014734325898967249 0.02235094281360853 0.01648823960974866 0.010148512374624883 0.015967718710348126 0.018437226908641559 0.012887514233391554 0.022205291424271117 0.013901743953043298 0.017616672874342109 0.011569931385333101
leaf_weight=145714.7208943516 118.51444336771965 90.267603978514671 835.35550348460674 103.63928754627705 233140.05385917425 7587.2305741459131 100.77374958992004 93.267250508069992 3911.4727395772934 121.21636915206909 590.9852928519249 110.98982971906662 7783.7540418803692 246.29308053851128 188.75247383117676 95.457181394100189 557.24106477200985 643.02400892972946 278.3736574202776
leaf_count=1151403 290 254 2213 270 559336 20335 279 265 10506 305 1558 308 20688 642 512 240 1500 1684 764
internal_value=0.0111969 0.03485 0.0366831 0.0367819 0.0368016 0.0153149 0.014038 0.0153412 0.0147259 0.0155438 0.0175463 0.0154504 0.0158913 0.0150006 0.01604 0.0166332 0.0148526 0.0159277 0.0145343
internal_weight=402311 256597 234583 233463 233259 22014.1 204.413 21923.8 5483.38 16440.5 712.202 15728.3 7894.74 7833.52 1119.57 930.813 5390.11 1200.27 4189.85
internal_count=1773352 621949 563140 560175 559626 58809 549 58555 14719 43836 1863 41973 20996 20977 2965 2453 14454 3184 11270
is_linear=0
shrinkage=0.0259278


Tree=32
num_leaves=25
num_cat=0
split_feature=2 3 13 5 2 12 6 13 13 13 7 2 2 13 13 7 7 2 13 12 12 13 2 2
split_gain=568728 13638.9 678.117 173.813 10.199 3.754 3.2777 5.61087 7.94062 14.9802 3.00632 2.91278 3.73662 6.2982 5.56307 3.18787 2.95192 2.06297 1.43216 3.21164 4.70189 2.66088 2.21826 1.9376
threshold=0.066299999132752432 0.28260000050067907 0.010049999691545965 0.006599999964237214 0.69804999232292186 0.39999999105930334 0.26645000278949743 0.014250000007450582 0.028949999250471595 0.027350000105798248 0.032150000333786018 0.13925000280141833 0.67960000038146984 0.029649999924004081 0.02465000003576279 0.11744999885559083 0.24994999915361407 0.2230000048875809 0.012450000271201135 0.39999999105930334 0.22500000149011615 0.023349999450147155 0.84029999375343334 0.54330000281333934
decision_type=2 2 2 2 2 2 2 2 2 2 2 2 2 2 2 2 2 2 2 2 2 2 2 2
left_child=-1 2 3 4 -2 -5 10 -8 9 17 -3 15 13 -13 -14 -12 -17 -9 -4 20 -20 -22 23 -21
right_child=1 6 18 5 -6 -7 7 8 -10 -11 11 12 14 -15 -16 16 -18 -19 19 22 21 -23 -24 -25
leaf_value=-0.030318889003533158 0.027172307759067576 0.009114812033140865 0.019838367927265416 0.016287191466305473 0.036413462717895785 0.0079762518954387372 0.01807728870199285 0.010673612874955397 0.022659998366941311 0.0047247744742191103 0.0079725194935656805 0.015271176030510645 0.014702371284325871 0.0092702058344633371 0.012722804428324668 0.016165514370867707 0.010958790870214929 0.01564861154822805 0.017114742849628578 0.017483077369252205 0.0081451628218697971 0.014411161369420325 0.021172027611080588 0.011882059814203776
leaf_weight=142522.57774476707 116.92799878120422 103.26197776198387 136.89240555465221 102.52348038554192 229737.57564024627 104.1626395881176 796.82376600801945 122.00762608647346 99.268408209085464 115.21210993826389 128.34874646365643 11427.501220166683 5897.0755576938391 155.8122546672821 1613.0329293757677 229.22973093390465 235.2408203035593 967.42252108454704 182.86491000652313 245.09665368497372 166.63769400119781 118.2447447180748 132.87057000398636 128.20612999796867
leaf_count=1150674 285 289 350 269 559686 292 2072 335 249 329 360 30476 15793 433 4384 607 647 2563 477 642 466 316 336 349
internal_value=0.0111067 0.0344374 0.0362898 0.0363875 0.0364089 0.0123062 0.0148733 0.0160948 0.0148503 0.0141711 0.0147415 0.0147689 0.014838 0.0151942 0.0142829 0.0124702 0.0136208 0.0151308 0.0160114 0.0154294 0.0134192 0.0108964 0.0172023 0.0156744
internal_weight=395585 253062 231172 230061 229855 206.686 21890.2 2100.73 1303.91 1204.64 19789.5 19686.2 19093.4 11583.3 7510.11 592.819 464.471 1089.43 1110.81 973.921 467.747 284.882 506.173 373.303
internal_count=1772679 622005 563468 560532 559971 561 58537 5548 3476 3227 52989 52700 51086 30909 20177 1614 1254 2898 2936 2586 1259 782 1327 991
is_linear=0
shrinkage=0.0259278


Tree=33
num_leaves=30
num_cat=0
split_feature=2 3 5 0 2 0 2 2 14 6 6 6 2 8 7 2 0 12 8 7 0 7 2 0 0 2 2 7 7
split_gain=548862 13608.7 677.167 160.381 9.33277 3.11773 5.04323 4.65587 8.41011 7.09891 6.61617 4.14706 4.76722 2.38824 2.30184 2.24319 6.55117 5.92157 1.95309 4.44597 3.07545 1.51724 1.34948 0.999462 1.71376 3.49587 2.12205 0.740393 2.32934
threshold=0.066299999132752432 0.28260000050067907 0.006599999964237214 0.19614999741315844 0.69304999709129345 0.24665000289678576 0.43394999206066137 0.67960000038146984 1.0823040604591372 0.099249999970197691 0.21554999798536303 0.26064999401569372 0.47619999945163732 0.37500000000000006 0.046949999406933791 0.29314999282360082 0.14164999872446063 0.39999999105930334 0.32500000298023229 0.1909499987959862 0.11574999988079072 0.11744999885559083 0.43394999206066137 0.19614999741315844 0.11574999988079072 0.39994999766349798 0.39204999804496771 0.15444999933242801 0.22794999927282336
decision_type=2 2 2 2 2 2 2 2 2 2 2 2 2 2 2 2 2 2 2 2 2 2 2 2 2 2 2 2 2
left_child=-1 2 3 -2 -5 6 23 9 27 -7 -11 18 -13 -14 -10 17 22 -4 19 -8 -20 -16 -17 24 26 -26 -3 -9 -29
right_child=1 5 15 4 -6 7 11 8 14 10 -12 12 13 -15 21 16 -18 -19 20 -21 -22 -23 -24 -25 25 -27 -28 28 -30
leaf_value=-0.030187739084910386 0.01192831534596271 0.014219524099112658 0.0059863868090263821 0.026408278524891197 0.036033699301868824 0.012688955964349002 0.015466842843149167 0.012797685059913723 0.019478254515216169 0.019931720263628435 0.013613829720092209 0.022789204767694943 0.01784918478670118 0.014372789869762721 0.011803910318446747 0.023455799811504439 0.014275374471604492 0.016226376534138304 0.017310977514189564 0.013177140064974207 0.015008133997230598 0.014472948147680005 0.016562781308356748 0.018380959568471703 0.013813788179421197 0.010835625772254626 0.017172058998843855 0.0078473381486837898 0.011584615646499112
leaf_weight=139470.23083783686 191.08620177209377 4755.7128647863865 90.032876506447792 101.13057647645473 226242.04259137809 470.47207479178905 1433.2158375829458 427.57124039530754 95.853753238916397 370.52839297056198 248.7851956486702 120.03943245112896 507.01427870988846 483.65467442572117 385.93997570872307 110.21136581897736 643.47411029040813 99.845333606004715 736.0861319899559 1821.1386761665344 4755.3914806693792 1605.8565041720867 111.14439858496189 101.0422327965498 1889.3622907996178 495.43715105950832 326.25225101411343 251.07286177575588 594.29910963773727
leaf_count=1150674 518 12753 255 249 559898 1276 3809 1159 247 952 668 300 1318 1290 1052 275 1717 264 1928 4920 12681 4297 292 262 5081 1360 855 704 1625
internal_value=0.011005 0.0340352 0.0359128 0.0360094 0.0360296 0.0144987 0.0146942 0.0137238 0.0131541 0.0154414 0.017463 0.0151444 0.0169466 0.0161953 0.0142504 0.0151155 0.0158385 0.0115967 0.0149106 0.0141987 0.0153246 0.0139773 0.0201887 0.0141022 0.0140386 0.0132131 0.0144175 0.0113223 0.0105253
internal_weight=388934 249464 227589 226534 226343 21874.7 17424.3 4450.38 3360.59 1089.79 619.314 9856.54 1110.71 990.669 2087.65 1054.71 864.83 189.878 8745.83 3254.35 5491.48 1991.8 221.356 7567.81 7466.76 2384.8 5081.97 1272.94 845.372
internal_count=1772679 622005 563468 560665 560147 58537 46557 11980 9084 2896 1620 26246 2908 2608 5596 2803 2284 519 23338 8729 14609 5349 567 20311 20049 6441 13608 3488 2329
is_linear=0
shrinkage=0.0259278


Tree=34
num_leaves=26
num_cat=0
split_feature=2 3 13 1 2 3 7 2 14 0 13 8 14 7 7 2 13 13 2 13 2 2 2 6 6
split_gain=530040 13615.1 710.052 153.628 27.005 4.73493 6.65224 5.43089 5.28303 6.49001 4.36119 3.16234 2.89493 2.80136 2.92781 1.87252 1.23285 5.62614 0.819081 10.1328 5.16832 0.780445 7.01235 2.63439 2.50886
threshold=0.066299999132752432 0.28260000050067907 0.010049999691545965 0.45835000276565557 0.68439999222755443 0.89129999279975902 0.032150000333786018 0.99994999170303356 1.0823040604591372 0.26015000045299536 0.02615000028163195 0.47499999403953558 0.43962599337100988 0.1909499987959862 0.22035000473260882 0.52895000576972973 0.022850000299513343 0.016350000165402893 0.47974999248981481 0.02465000003576279 0.40690000355243688 0.57375001907348644 0.50235000252723705 0.22074999660253528 0.030650000087916855
decision_type=2 2 2 2 2 2 2 2 2 2 2 2 2 2 2 2 2 2 2 2 2 2 2 2 2
left_child=-1 2 3 -2 -5 6 -3 13 9 12 -11 -10 -8 18 -15 -16 17 -9 20 -20 -7 22 23 -4 -23
right_child=1 5 21 4 -6 7 8 16 11 10 -12 -13 -14 14 15 -17 -18 -19 19 -21 -22 24 -24 -25 -26
leaf_value=-0.030061047243851287 0.0096498543636797714 0.0069031318433935892 0.016285100788588105 0.021290599413294146 0.035679408639871887 0.013585666732045412 0.015069995675164757 0.016910847957286614 0.015023648726281154 0.012417411250402079 0.0073292798499972013 0.013780356732728063 0.013547766530420424 0.0073322505726108184 0.013038770514971619 0.010127482131993085 0.018654821979678909 0.0093833358895409613 0.016937660658045924 0.0071383123356146532 0.0056315635835831141 0.011692803653243846 0.0063289228337761044 0.010176137288193219 0.017303361052496583
leaf_weight=136520.48958219588 157.12703050673008 103.92757272720337 358.26039715111256 102.51265262067318 222734.14018918574 371.54381532967091 2016.1434864401817 237.14313584566116 8833.2634547501802 923.8577698469162 181.40456557273865 2913.8865619748831 4172.1577739417553 168.26830568909645 617.57703429460526 472.68175010383129 155.64939960837364 140.35420998930931 377.93590031564236 108.23421570658684 88.237951293587685 125.24510690569878 94.394044384360313 105.91511479020119 437.8415906727314
leaf_count=1151135 434 294 942 262 560134 999 5363 622 23487 2507 510 7823 11228 472 1667 1302 403 388 991 304 250 338 266 291 1141
internal_value=0.0109083 0.0336451 0.0355512 0.0356548 0.035673 0.0141209 0.0142883 0.012934 0.0143264 0.0136883 0.0116211 0.0147189 0.0140506 0.01227 0.0112505 0.0118159 0.0155992 0.0142257 0.0135812 0.0148442 0.0121524 0.014908 0.0135977 0.0149835 0.0161316
internal_weight=382518 245998 224115 222994 222837 21882.3 19144.6 2737.63 19040.7 7293.56 1105.26 11747.2 6188.3 2204.48 1258.53 1090.26 533.147 377.497 945.952 486.17 459.782 1121.66 558.57 464.176 563.087
internal_count=1773553 622418 563808 560830 560396 58610 51212 7398 50918 19608 3017 31310 16591 5985 3441 2969 1413 1010 2544 1295 1249 2978 1499 1233 1479
is_linear=0
shrinkage=0.0259278


Tree=35
num_leaves=32
num_cat=0
split_feature=2 3 13 1 2 0 13 6 5 5 13 2 3 3 13 3 6 13 2 13 6 13 13 6 6 14 3 13 13 6 2
split_gain=511808 13595.9 710.851 152.226 27.5455 4.51849 6.63711 6.05455 5.80508 8.73631 4.99401 4.49911 4.56409 4.31844 3.35812 4.81664 3.40225 3.14256 4.18499 3.68841 3.00848 4.83222 3.22899 2.1574 5.04735 2.12463 1.99333 1.18708 0.891913 0.726076 5.60515
threshold=0.066299999132752432 0.28260000050067907 0.010049999691545965 0.45835000276565557 0.68439999222755443 0.24665000289678576 0.025449999608099464 0.030650000087916855 0.073249999433755889 0.046850001439452178 0.027649999596178535 0.84029999375343334 0.89129999279975902 0.36954998970031744 0.028450000099837783 0.93474999070167553 0.1430500000715256 0.027350000105798248 0.44415000081062322 0.017250000499188903 0.27775000035762792 0.015150000341236593 0.014250000007450582 0.099249999970197691 0.22625000029802325 1.3390499949455263 0.54344999790191661 0.010650000069290401 0.016350000165402893 0.21554999798536303 0.72154998779296886
decision_type=2 2 2 2 2 2 2 2 2 2 2 2 2 2 2 2 2 2 2 2 2 2 2 2 2 2 2 2 2 2 2
left_child=-1 2 3 -2 -5 11 8 10 9 26 -8 12 20 -11 15 25 -17 19 -19 -14 21 -3 -22 -9 -25 -13 -7 -10 -29 -4 -31
right_child=1 5 29 4 -6 6 7 23 27 13 -12 14 17 -15 -16 16 -18 18 -20 -21 22 -23 -24 24 -26 -27 -28 28 -30 30 -32
leaf_value=-0.029938632006228323 0.0094111206371102433 0.013047543393551797 0.015186505285021981 0.020810827127526334 0.035337358176608331 0.015227323941406445 0.0095381520991857077 0.0058578928812543472 0.012661572230583425 0.005109160975585004 0.019385097999178022 0.014342736244960366 0.011312574967566817 0.011379531264954596 0.01895964863741988 0.0059541417827345001 0.014114048952165262 0.01237917079145435 0.0036191093563581788 0.01431497600656129 0.018611554453797405 0.014316303581980088 0.014223582848731244 0.012390160019184006 0.0058821496509137705 0.016409044280538469 0.013089471249692888 0.021580242848161017 0.01582011553993844 0.0088595409326149184 0.01783977687948891
leaf_weight=133563.13236810267 156.93824809789658 4580.4630271494389 860.88980656862259 102.16153076291084 219106.590419963 888.89130088686943 91.738364979624748 167.10819572210312 96.890522867441177 109.83621750771999 99.24050535261631 2026.6647399812937 857.21353808045387 836.50846780836582 209.8085982054472 101.18268109858036 87.880409821867943 93.970915764570236 89.483280777931213 735.60496327280998 291.47669699788094 6901.2393946647644 494.62998634576797 279.1597698032856 157.09818758070469 925.84164810180664 1469.4520105272532 107.84757828712463 163.88606427609921 166.62376169860363 92.874970108270645
leaf_count=1151135 434 12345 2276 262 560134 2357 253 474 261 312 255 5413 2339 2281 541 286 234 254 257 1964 750 18424 1317 756 444 2429 3960 272 432 462 240
internal_value=0.0108136 0.0332732 0.0352071 0.0353124 0.0353308 0.0137678 0.0128992 0.0104892 0.0134087 0.0130053 0.0148796 0.0139884 0.0137452 0.010697 0.0149945 0.0147161 0.00997373 0.0122972 0.00833983 0.0127261 0.0139514 0.0138139 0.0159052 0.00902851 0.0101448 0.0150052 0.0139134 0.0169079 0.0182642 0.0145421 0.0122389
internal_weight=375912 242349 220486 219366 219209 21863.1 4467.66 794.345 3673.31 3304.69 190.979 17395.5 14044.1 946.345 3351.38 3141.57 189.063 1776.27 183.454 1592.82 12267.8 11481.7 786.107 603.366 436.258 2952.51 2358.34 368.624 271.734 1120.39 259.499
internal_count=1773553 622418 563808 560830 560396 58610 12057 2182 9875 8910 508 46553 37650 2593 8903 8362 520 4814 511 4303 32836 30769 2067 1674 1200 7842 6317 965 704 2978 702
is_linear=0
shrinkage=0.0259278


Tree=36
num_leaves=30
num_cat=0
split_feature=2 3 13 5 2 12 15 7 7 15 7 1 13 7 3 12 0 0 2 13 0 13 2 12 13 13 2 2 2
split_gain=494234 13437.2 706.616 159.566 11.3801 4.32287 11.9034 10.2368 4.43538 6.68297 5.58762 5.57665 5.1179 4.36029 4.17333 3.52074 2.75025 3.97129 3.29823 3.19935 3.15812 2.934 2.64124 1.77107 2.14506 1.31636 0.616209 3.45343 0.942702
threshold=0.066299999132752432 0.28260000050067907 0.010049999691545965 0.006599999964237214 0.69304999709129345 0.39999999105930334 1.268754303455353 0.30065000057220465 0.30795000493526464 0.7334749996662141 0.28634999692440039 0.45835000276565557 0.0087500000372529047 0.29354999959468847 0.93474999070167553 0.39999999105930334 0.20615000277757647 0.11574999988079072 0.21050000190734866 0.023550000041723255 0.25315000116825109 0.0097500002011656779 0.12880000472068789 0.22500000149011615 0.012749999761581423 0.01544999983161688 0.66589999198913585 0.68895000219345104 0.56700000166893016
decision_type=2 2 2 2 2 2 2 2 2 2 2 2 2 2 2 2 2 2 2 2 2 2 2 2 2 2 2 2 2
left_child=-1 2 3 4 -2 7 8 22 10 11 12 -10 -7 -12 -11 -5 17 18 -9 -19 -18 -22 -3 -4 -25 -26 28 -28 -24
right_child=1 5 23 15 -6 6 -8 16 9 14 13 -13 -14 -15 -16 -17 20 19 -20 -21 21 -23 26 24 25 -27 27 -29 -30
leaf_value=-0.029820313618309537 0.024418520618767807 0.010352525720993452 0.01704336367159788 0.015788436829454102 0.035011974457449142 0.011005670413588856 0.02229283322817718 0.010359396450451844 0.01397675795029896 0.01556884280447653 0.0065174188173902532 0.00962671097736424 0.013204298176582537 0.011653828823288701 0.0093181781724077008 0.007718406941214246 0.015524545528884943 0.0092956382563257993 0.014583921587125917 0.013320412860887962 0.0068624570962519688 0.013052356123340852 0.014639098263439758 0.017663711474822871 0.0086668739108984819 0.013242445942918377 0.0094194088225062703 0.014238604144953983 0.016298190341975563
leaf_weight=130577.41905342042 94.976617142558098 172.83047699928284 221.923110216856 103.78643134236336 215324.37974791229 1104.2342543452978 107.21382109820843 279.47725777328014 611.66215041279793 1594.0980436652899 213.11863934993744 432.41561779379845 6320.8868298381567 440.25981676578522 112.48411823809147 103.94225934147835 544.59123206138611 713.47575224936008 571.67769633233547 254.59622542560101 95.593850135803223 430.86459465324879 3871.5211232602596 118.43216225504875 109.57219305634499 655.95070025324821 159.71689017117023 2986.4050844758749 847.59773926436901
leaf_count=1150458 240 474 576 272 559774 3016 267 766 1635 4209 600 1192 16995 1197 310 290 1438 1970 1519 683 268 1159 10291 306 303 1759 440 7964 2225
internal_value=0.0107318 0.0329249 0.0348793 0.0349855 0.0350075 0.0135496 0.0131165 0.013979 0.0130217 0.0140718 0.0126588 0.0122162 0.0128831 0.010044 0.015182 0.0119568 0.0125412 0.0117548 0.0132472 0.0103984 0.013837 0.0120098 0.0144907 0.0141417 0.0133647 0.0126435 0.0145762 0.0140076 0.0149462
internal_weight=369175 238598 216733 215627 215419 21864.7 10936.4 10928.3 10829.2 2750.66 8078.5 1044.08 7425.12 653.378 1706.58 207.729 2890.28 1819.23 851.155 968.072 1071.05 526.458 8038.07 1105.88 883.955 765.523 7865.24 3146.12 4719.12
internal_count=1772596 622138 563520 560576 560014 58618 29421 29197 29154 7346 21808 2827 20011 1797 4519 562 7803 4938 2285 2653 2865 1427 21394 2944 2368 2062 20920 8404 12516
is_linear=0
shrinkage=0.0259278


Tree=37
num_leaves=31
num_cat=0
split_feature=2 3 13 5 2 14 13 0 3 2 7 7 3 3 13 2 2 3 3 13 2 2 2 2 2 2 2 2 2 2
split_gain=477471 13430.9 707.901 159.071 11.6728 3.76745 5.19341 5.66444 7.1169 9.17871 4.72675 3.86172 3.69689 5.34008 2.6604 2.62599 3.317 1.78134 3.88616 1.52373 1.29831 1.21406 3.12134 2.81979 2.64331 1.76369 1.1238 6.36315 10.015 1.2903
threshold=0.066299999132752432 0.28260000050067907 0.010049999691545965 0.006599999964237214 0.69304999709129345 1.3390499949455263 0.012749999761581423 0.062849998474121108 0.36954998970031744 0.42189998924732214 0.37395000457763677 0.27934999763965612 0.89129999279975902 0.36954998970031744 0.0053499999921768912 0.12880000472068789 0.16194999963045123 0.54344999790191661 0.7173999845981599 0.012749999761581423 0.13925000280141833 0.93665000796318065 0.43394999206066137 0.99189999699592601 0.41335000097751623 0.45434999465942388 0.29314999282360082 0.49100001156330114 0.57375001907348644 0.37144999206066137
decision_type=2 2 2 2 2 2 2 2 2 2 2 2 2 2 2 2 2 2 2 2 2 2 2 2 2 2 2 2 2 2
left_child=-1 2 3 4 -2 6 7 15 11 -10 17 -9 13 -12 -7 -3 -17 20 -19 -4 -8 22 24 -23 -16 -24 -21 29 -29 -28
right_child=1 5 19 -5 -6 14 10 8 9 -11 12 -13 -14 -15 21 16 -18 18 -20 26 -22 23 25 -25 -26 -27 27 28 -30 -31
leaf_value=-0.029705935575525609 0.023978954407525978 0.010359794690959181 0.01735853916194649 0.01166698499354615 0.034699302741711374 0.019198434257419923 0.0097907538715237032 0.010209244578211141 0.0099071109649853731 0.013046806353950204 0.016464568385152575 0.0046613039735619848 0.016430363776612677 0.0089345177188088053 0.013391351680994751 0.021936239522309268 0.01443843114633166 0.012115442012673455 0.013713431566351486 0.010159848343730524 0.014235799712102511 0.0084608165607989658 0.018425997039088454 0.01314890766564167 0.0087293307800095695 0.014479765404480427 0.021569197200959948 0.0036465088477040035 0.013661873876600967 0.015009760025869873
leaf_weight=127718.84853543341 94.220047533512115 97.572298690676689 147.3119660615921 207.46784879267216 211679.05241292715 100.98588542640209 108.64143468439579 354.18923386931419 1009.1186362206936 2664.0388758331537 91.492998793721199 155.69068117439747 97.506394147872925 551.45221193134785 2223.7317218780518 92.504227012395859 220.38440431654453 2408.9082847237587 3720.716563552618 171.97873285412788 3468.2676207572222 151.45476889610291 166.74124898016453 1300.0269269347191 141.99678042531013 2716.899071380496 93.281457409262657 92.962729066610336 461.714454382658 137.20404496788979
leaf_count=1150458 240 267 381 562 559774 258 298 971 2775 7164 239 443 255 1525 5954 232 586 6519 9956 471 9239 419 429 3485 392 7212 234 266 1230 362
internal_value=0.0106433 0.0325794 0.0345644 0.0346724 0.0346947 0.013213 0.0129356 0.0120988 0.0117677 0.0121959 0.0132994 0.00859921 0.0109679 0.0100728 0.0138201 0.0153676 0.0167923 0.0134728 0.0130924 0.013796 0.0141128 0.0137327 0.014013 0.0126893 0.0131296 0.0147228 0.0132029 0.0138149 0.0120605 0.0178507
internal_weight=362646 234928 213085 211981 211773 21842.3 15040.5 4593.5 4183.04 3673.16 10447 509.88 740.452 642.945 6801.84 410.461 312.889 9706.53 6129.62 1104.45 3576.91 6700.85 5249.37 1451.48 2365.73 2883.64 957.141 785.163 554.677 230.486
internal_count=1772596 622138 563520 560576 560014 58618 40469 12438 11353 9939 28031 1414 2019 1764 18149 1085 818 26012 16475 2944 9537 17891 13987 3904 6346 7641 2563 2092 1496 596
is_linear=0
shrinkage=0.0259278


Tree=38
num_leaves=30
num_cat=0
split_feature=2 3 13 2 2 2 0 0 13 12 2 0 7 13 2 2 12 5 7 2 5 8 15 5 13 1 8 5 5
split_gain=461130 13738.7 701.029 160.04 5.8517 7.10391 5.70734 5.64697 6.39132 4.75658 12.4854 5.74043 4.7539 5.93028 4.63007 10.4779 4.6047 3.19594 3.09073 2.88614 2.33907 2.08427 1.3683 2.17922 1.68086 1.69613 1.06509 4.9087 3.73307
threshold=0.066299999132752432 0.28260000050067907 0.010049999691545965 0.67004999518394481 0.33605000376701361 0.34530000388622289 0.24665000289678576 0.11574999988079072 0.0082499999552965182 0.32500000298023229 0.12880000472068789 0.088749997317790999 0.082199998199939742 0.015150000341236593 0.67960000038146984 0.58184999227523815 0.22500000149011615 0.012850000057369472 0.035649999976158149 0.83684998750686657 0.036450000479817397 0.47499999403953558 1.0285270810127261 0.067749999463558211 0.012450000271201135 0.29164999723434454 0.37500000000000006 0.061449998989701278 0.051049999892711646
decision_type=2 2 2 2 2 2 2 2 2 2 2 2 2 2 2 2 2 2 2 2 2 2 2 2 2 2 2 2 2
left_child=-1 2 3 -2 7 20 18 9 -9 10 16 -12 13 -11 15 -8 -3 -16 -7 -20 -6 -14 23 24 -4 -26 27 -10 -28
right_child=1 4 22 -5 5 6 14 8 26 12 11 -13 21 -15 17 -17 -18 -19 19 -21 -22 -23 -24 -25 25 -27 28 -29 -30
leaf_value=-0.029595335629392469 0.008944644408877012 0.0020024596373868692 0.019311245659581977 0.034392149266342341 0.014282048360288228 0.0088924205122216295 0.0095225074870005678 0.003076695934896425 0.0069045082768449525 0.0027654298532234891 0.012963856607906516 0.016893810592231363 0.012396203561556197 0.010703700448851099 0.012818142878390351 0.015429029243167816 0.010892374740746787 0.010724472419498239 0.012901509957627144 0.014033593227200207 0.021643590070005672 0.0099245380855809435 0.010053015504427368 0.010475939149869475 0.01042591563666846 0.015013961132393727 0.013740044381630711 0.014504863602298938 0.0071009992673960404
leaf_weight=124989.83450948447 170.82630027830601 94.718036696314812 104.25533339381218 208049.55300588906 121.70600959658623 173.28629837930202 342.95422768592834 106.58442534506321 277.88624441623688 115.61271873116493 1100.9345356971025 467.91688750684261 1686.2057537734509 205.7221153229475 1024.1642914116383 749.44773989915848 90.02094005048275 2339.2151399105787 8493.2150652706623 3341.1391787976027 107.99918143451214 516.17162561416626 140.80455964803696 166.14789360761642 139.25889717042446 564.56341589987278 267.250264570117 94.099192664027214 113.95402340590954
leaf_count=1151203 473 274 265 559806 323 480 943 306 778 333 2954 1219 4546 561 2754 1976 245 6385 22807 8899 271 1417 385 453 379 1489 713 249 318
internal_value=0.0105264 0.0322202 0.0342615 0.0343715 0.0126436 0.0129075 0.0128348 0.0117774 0.00961197 0.0122027 0.0133874 0.0141633 0.0113625 0.00798089 0.0119333 0.0136139 0.00656628 0.0113748 0.0131658 0.0132247 0.01793 0.0118364 0.0136939 0.0141761 0.0148839 0.0141671 0.0104799 0.00894239 0.0118678
internal_weight=356155 231166 209335 208220 21830.2 16693.1 16463.4 5137.08 859.774 4277.3 1753.59 1568.85 2523.71 321.335 4455.78 1092.4 184.739 3363.38 12007.6 11834.4 229.705 2202.38 1115.03 974.226 808.078 703.822 753.19 371.985 381.204
internal_count=1773204 622001 563250 560279 58751 44838 44244 13913 2364 11549 4692 4173 6857 894 12058 2919 519 9139 32186 31706 594 5963 2971 2586 2133 1868 2058 1027 1031
is_linear=0
shrinkage=0.0259278


Tree=39
num_leaves=29
num_cat=0
split_feature=2 3 13 2 2 2 0 0 13 12 2 0 8 15 2 2 12 13 5 7 2 5 15 5 13 1 13 5
split_gain=445690 13731.8 703.03 159.087 5.50916 6.74465 5.39728 5.32213 6.05544 4.50033 11.8286 5.43109 4.52228 5.6571 4.37849 9.93701 4.35537 3.82503 3.05527 2.90759 2.70981 2.18148 1.27069 2.04385 1.56759 1.57542 1.01758 2.1051
threshold=0.066299999132752432 0.28260000050067907 0.010049999691545965 0.67004999518394481 0.33605000376701361 0.34530000388622289 0.24665000289678576 0.11574999988079072 0.0082499999552965182 0.32500000298023229 0.12880000472068789 0.088749997317790999 0.47499999403953558 1.0285270810127261 0.67960000038146984 0.58184999227523815 0.22500000149011615 0.023349999450147155 0.03024999983608723 0.035649999976158149 0.83684998750686657 0.036450000479817397 1.0285270810127261 0.067749999463558211 0.012450000271201135 0.29164999723434454 0.027150000445544723 0.0059499999042600402
decision_type=2 2 2 2 2 2 2 2 2 2 2 2 2 2 2 2 2 2 2 2 2 2 2 2 2 2 2 2
left_child=-1 2 3 -2 7 21 19 9 -9 10 16 -12 17 -14 15 -8 -3 -11 -16 -7 -21 -6 23 24 -4 -26 27 -10
right_child=1 4 22 -5 5 6 14 8 26 12 11 -13 13 -15 18 -17 -18 -19 -20 20 -22 -23 -24 -25 25 -27 -28 -29
leaf_value=-0.029488366386064651 0.008721574370726683 0.001950849405899707 0.018856390620616829 0.034105290069446403 0.013929279465536114 0.008667218084987138 0.0092833763527966229 0.0029976889725275872 0.0069465978057910906 0.010901603969070476 0.012642860383100271 0.016482380081561519 0.0075767804133649854 0.015386041113569201 0.012077033974169491 0.015049862260048447 0.010619109252926974 0.013955751108803384 0.010183312142472702 0.012581854007086002 0.013687288803719539 0.021124971922566436 0.0098017096755704195 0.010214434400610897 0.010166925741149623 0.014648329125681994 0.0062586501944057182 0.011584012251261482
leaf_weight=122226.79761453718 170.65546990931034 94.703390896320343 104.00529868900776 204407.37500543892 121.55495250225067 173.1807132512331 342.67119391262531 106.55773881077766 136.30991280078888 1398.082757383585 1099.6344164758921 467.17196178436279 506.99336029589176 87.556280553340912 1587.9062338322401 748.42186297476292 89.944537371397018 528.61996731162071 1772.2322234362364 8483.3195811659098 3336.9093476086855 107.78458343446255 140.67219233512878 165.9856838285923 139.10586504638195 563.66399610042572 89.856626123189926 526.34553116559982
leaf_count=1151203 473 274 265 559806 323 480 943 306 381 3806 2954 1219 1414 230 4288 1976 245 1407 4851 22807 8899 271 385 453 379 1489 252 1425
internal_value=0.0104438 0.0318982 0.0339724 0.0340843 0.0123308 0.012588 0.0125169 0.0114867 0.00937572 0.0119011 0.0130583 0.0138151 0.0110801 0.00879894 0.0116367 0.0132781 0.00640526 0.0117618 0.011091 0.01284 0.0128976 0.0174982 0.0133622 0.0138331 0.0145244 0.0138223 0.010222 0.0106947
internal_weight=349724 227497 205691 204578 21805.8 16674 16444.6 5131.78 859.07 4272.71 1751.45 1566.81 2521.25 594.55 4451.23 1091.09 184.648 1926.7 3360.14 11993.4 11820.2 229.34 1113.43 972.761 806.775 702.77 752.512 662.655
internal_count=1773204 622001 563250 560279 58751 44838 44244 13913 2364 11549 4692 4173 6857 1644 12058 2919 519 5213 9139 32186 31706 594 2971 2586 2133 1868 2058 1806
is_linear=0
shrinkage=0.0259278


Tree=40
num_leaves=31
num_cat=0
split_feature=2 3 13 5 2 12 13 13 2 2 14 12 2 6 8 18 18 7 7 7 8 2 12 5 2 12 13 5 6 6
split_gain=431039 13472.2 723.943 148.821 26.0542 4.78359 3.77954 5.47134 10.0515 5.24508 7.66111 4.35032 3.92976 2.9491 2.90542 3.96803 5.60149 4.05937 3.45248 3.62492 5.45123 3.90304 1.84882 4.27826 1.62553 1.62242 1.47465 1.13001 0.931354 0.543297
threshold=0.066299999132752432 0.28260000050067907 0.010049999691545965 0.006599999964237214 0.69304999709129345 0.39999999105930334 0.0066499998793005952 0.0063499999232590207 0.58570000529289257 0.41754999756813055 0.86233633756637584 0.39999999105930334 0.2391999959945679 0.030650000087916855 0.52500000596046459 0.6213606894016267 0.70548808574676525 0.34465000033378607 0.034150000661611564 0.27934999763965612 0.32500000298023229 0.99189999699592601 0.39999999105930334 0.042749999091029174 0.55120000243186962 0.22500000149011615 0.0058500000741332778 0.065650001168251051 0.21004999428987506 0.019949999637901786
decision_type=2 2 2 2 2 2 2 2 2 2 2 2 2 2 2 2 2 2 2 2 2 2 2 2 2 2 2 2 2 2
left_child=-1 2 3 4 -2 -5 7 9 -9 10 -3 26 -12 -13 18 -16 25 -18 24 21 -21 -20 23 -4 -8 -17 -11 -25 29 -24
right_child=1 6 22 5 -6 -7 14 8 -10 11 12 13 -14 -15 15 16 17 -19 19 20 -22 -23 28 27 -26 -27 -28 -29 -30 -31
