tree
version=v4
num_class=1
num_tree_per_iteration=1
label_index=0
max_feature_idx=18
objective=binary sigmoid:1
feature_names=Column_0 Column_1 Column_2 Column_3 Column_4 Column_5 Column_6 Column_7 Column_8 Column_9 Column_10 Column_11 Column_12 Column_13 Column_14 Column_15 Column_16 Column_17 Column_18
feature_infos=[0.0010000000474974513:1] [0.083300001919269562:1] [0.05000000074505806:1] [0:0.95649999380111694] [0:1] [-1:0.49930000305175781] [-1:1] [0:1] [0.05000000074505806:1] [0:1] [0:1] [0:1] [0.15000000596046448:0.85000002384185791] [0.0020000000949949026:0.05000000074505806] [0:9.9275074005126953] [0:2.3912832736968994] [0:0.24780228734016418] [0.96881061792373657:1] [0.23978953063488007:0.92104405164718628]
tree_sizes=1109 1120 1128 698 1124 700 801 701 700 801 700 701 803 908 1234 699 804 702 807 804 1128 909 1233 696 805 799 694 1337 694 1316 907 908 800 692 1427 908 1015 802 906 904 801 908 800 1013 1010 1768 797 1219 1760 1868

Tree=0
num_leaves=9
num_cat=0
split_feature=7 17 0 14 5 6 0 0
split_gain=3.54394e+06 35361.4 17605.3 2529.29 1608 1311.96 307.894 252.587
threshold=0.049949999898672111 0.99724829196929943 0.062849998474121108 0.1097335033118725 0.006599999964237214 0.030650000087916855 0.19614999741315844 0.040850000455975539
decision_type=2 2 2 2 2 2 2 2
left_child=2 3 5 -2 6 -1 -3 -5
right_child=1 4 -4 7 -6 -7 -8 -9
leaf_value=-0.73291050941723601 -0.732293767642476 -0.6461046231124693 -0.64546306559677591 -0.68147142292802232 -0.64419393367946698 -0.64752511796243706 -0.61621727342668642 -0.64487180778994946
leaf_weight=294695.46198903024 223.26699279248714 256.16770723462105 1555.721775919199 137.60765717923641 1415.0405712425709 119.53480429947376 443554.02168308198 29012.513515874743
leaf_count=1326465 1005 569 3448 431 3089 268 645517 63918
internal_value=-0.66207 -0.618141 -0.732416 -0.645708 -0.616323 -0.732875 -0.616234 -0.64504
internal_weight=770969 474599 296371 29373.4 445225 294815 443810 29150.1
internal_count=2044710 714529 1330181 65354 649175 1326733 646086 64349
is_linear=0
shrinkage=1


Tree=1
num_leaves=9
num_cat=0
split_feature=7 16 0 0 13 1 5 14
split_gain=3.2875e+06 31566.7 17274.3 2384.26 1495.8 1319.69 288.49 158.486
threshold=0.049949999898672111 0.07391583546996118 0.062849998474121108 0.039950000122189529 0.010049999691545965 0.29164999723434454 0.006599999964237214 0.14080559462308886
decision_type=2 2 2 2 2 2 2 2
left_child=2 4 5 -3 6 -1 -2 -5
right_child=1 3 -4 7 -6 -7 -8 -9
leaf_value=-0.03837734169363189 0.0739398007625513 -0.037916024598490784 0.047227003740474525 0.02042044810388018 0.048022536372643247 0.045776576877745986 0.046629746312164232 0.047033831395591273
leaf_weight=290683.45946165919 454526.9000607878 222.76417195796967 1593.2955932617188 169.85785323381424 1534.8820499330759 123.81496807932854 287.8608962148428 29327.307938635349
leaf_count=1325920 645348 1012 3449 491 3281 274 624 63672
internal_value=0.0308232 0.0721493 -0.0378743 0.046245 0.073836 -0.038341 0.0739228 0.0468853
internal_weight=778470 486070 292401 29719.9 456350 290807 454815 29497.2
internal_count=2044071 714428 1329643 65175 649253 1326194 645972 64163
is_linear=0
shrinkage=0.0259281


Tree=2
num_leaves=9
num_cat=0
split_feature=7 3 0 0 13 1 0 15
split_gain=3.06432e+06 28303.4 16275.2 2248.91 1361.72 1208.27 234.711 130.563
threshold=0.049949999898672111 0.28260000050067907 0.062849998474121108 0.039950000122189529 0.010049999691545965 0.29164999723434454 0.19614999741315844 0.13173467665910724
decision_type=2 2 2 2 2 2 2 2
left_child=2 4 5 -3 6 -1 -2 -5
right_child=1 3 -4 7 -6 -7 -8 -9
leaf_value=-0.037907857167987544 0.041165911309649132 -0.037444244474706505 0.044879509126107754 0.021184289572469549 0.045890635186329569 0.043219256340853773 0.070515457979774626 0.045301026978182182
leaf_weight=286732.39799338579 206.09653283655643 221.32562427222729 1605.1476648896933 173.55799576640129 1548.805944904685 121.86144682765007 464500.89813323319 29934.385960206389
leaf_count=1326053 457 1019 3445 492 3272 268 645947 63967
internal_value=0.0297995 0.068842 -0.0374119 0.0445592 0.0704213 -0.0378729 0.0705027 0.0451666
internal_weight=785044 496585 288459 30329.3 466256 286854 464707 30107.9
internal_count=2044920 715154 1329766 65478 649676 1326321 646404 64459
is_linear=0
shrinkage=0.0259281


Tree=3
num_leaves=5
num_cat=0
split_feature=2 3 13 5
split_gain=2.88347e+06 25382 1216.44 250.957
threshold=0.066299999132752432 0.28260000050067907 0.010049999691545965 0.006599999964237214
decision_type=2 2 2 2
left_child=-1 2 3 -2
right_child=1 -3 -4 -5
leaf_value=-0.037471794959199015 0.067481390734463437 0.043514770862149561 0.044981979294543235 0.042405953684582658
leaf_weight=282886.16607648134 472308.08760593832 31995.396494567394 1660.6631672084332 298.42793381214142
leaf_count=1327089 645377 67575 3429 631
internal_value=0.0288306 0.065879 0.0673874 0.0674659
internal_weight=789149 506263 474267 472607
internal_count=2044101 717012 649437 646008
is_linear=0
shrinkage=0.0259281


Tree=4
num_leaves=9
num_cat=0
split_feature=7 16 0 14 6 12 0 0
split_gain=2.68291e+06 23831 15397.5 1957.12 1144.87 941.948 267.044 179.855
threshold=0.049949999898672111 0.07391583546996118 0.062849998474121108 0.1097335033118725 0.030650000087916855 0.62500000000000011 0.19614999741315844 0.040850000455975539
decision_type=2 2 2 2 2 2 2 2
left_child=2 5 4 -3 -1 -2 -7 -5
right_child=1 3 -4 7 -6 6 -8 -9
leaf_value=-0.037037814251644041 0.042815174553669504 -0.036715038174955021 0.0419108037688583 0.011216849724026926 0.04164119966866827 0.041303906824863831 0.064762652708600682 0.041860105045432347
leaf_weight=278510.34695492685 1358.0391465127468 213.45539644360542 1670.5410667657852 141.80099077522755 122.71605360507965 359.30426587164402 479085.18412220478 30533.419587239623
leaf_count=1325827 2781 1006 3485 435 262 750 645294 63781
internal_value=0.0279446 0.0632649 -0.0365319 0.0411764 -0.0370027 0.0646837 0.0647454 0.041723
internal_weight=791995 511691 280304 30888.7 278633 480803 479444 30675.2
internal_count=2043621 714047 1329574 65222 1326089 648825 646044 64216
is_linear=0
shrinkage=0.0259281


Tree=5
num_leaves=5
num_cat=0
split_feature=2 3 13 5
split_gain=2.54228e+06 21699.1 1098.19 219.833
threshold=0.066299999132752432 0.28260000050067907 0.010049999691545965 0.006599999964237214
decision_type=2 2 2 2
left_child=-1 2 3 -2
right_child=1 -3 -4 -5
leaf_value=-0.036643056008328019 0.062333540051968797 0.040413345155970296 0.041006974924868302 0.039492251061895321
leaf_weight=274730.06297126412 485050.27442097664 32695.552366241813 1669.3980152606964 316.78259463608265
leaf_count=1327770 645490 67598 3401 654
internal_value=0.0271511 0.060873 0.0622462 0.0623189
internal_weight=794462 519732 487036 485367
internal_count=2044913 717143 649545 646144
is_linear=0
shrinkage=0.0259281


Tree=6
num_leaves=6
num_cat=0
split_feature=2 3 2 1 12
split_gain=2.39441e+06 20245.2 880.982 281.189 77.8471
threshold=0.066299999132752432 0.28260000050067907 0.67004999518394481 0.45835000276565557 0.62500000000000011
decision_type=2 2 2 2 2
left_child=-1 2 -2 -4 -5
right_child=1 -3 3 4 -6
leaf_value=-0.03625750075842895 0.038477817675240958 0.039054725556915644 0.039596162656361837 0.042827331759469428 0.060133796077094112
leaf_weight=270295.1574062258 1305.3958732038736 32991.228434085846 488.7668245434761 230.82251630723476 489787.45263685286
leaf_count=1326728 2673 67569 979 442 645609
internal_value=0.0264381 0.0587291 0.0600486 0.0601058 0.0601259
internal_weight=795099 524804 491812 490507 490018
internal_count=2044000 717272 649703 647030 646051
is_linear=0
shrinkage=0.0259281


Tree=7
num_leaves=5
num_cat=0
split_feature=2 3 13 5
split_gain=2.26142e+06 19072.7 945.639 189.661
threshold=0.066299999132752432 0.28260000050067907 0.010049999691545965 0.006599999964237214
decision_type=2 2 2 2
left_child=-1 2 3 -2
right_child=1 -3 -4 -5
leaf_value=-0.035889667112099392 0.058136907939848569 0.037763050526058578 0.038496273281500279 0.036922802186663058
leaf_weight=266118.10687331855 493525.68237482011 33265.726185068488 1698.1026730239391 319.53689993917942
leaf_count=1327113 645745 67577 3391 648
internal_value=0.0257569 0.0567802 0.0580565 0.0581235
internal_weight=794927 528809 495543 493845
internal_count=2044474 717361 649784 646393
is_linear=0
shrinkage=0.0259281


Tree=8
num_leaves=5
num_cat=0
split_feature=2 16 13 5
split_gain=2.13771e+06 18155.7 969.312 182.733
threshold=0.066299999132752432 0.07391583546996118 0.010049999691545965 0.006599999964237214
decision_type=2 2 2 2
left_child=-1 2 3 -2
right_child=1 -3 -4 -5
leaf_value=-0.035538480243760134 0.056317641750657961 0.036474113487271753 0.036617827872011913 0.035401807502598796
leaf_weight=261780.27392973006 495570.45654913783 33390.974232718349 1727.8136893063784 316.8981993496418
leaf_count=1326831 644896 67412 3455 641
internal_value=0.0250998 0.054994 0.0562365 0.0563046
internal_weight=792786 531006 497615 495887
internal_count=2043235 716404 648992 645537
is_linear=0
shrinkage=0.0259281


Tree=9
num_leaves=6
num_cat=0
split_feature=2 16 5 2 6
split_gain=2.02689e+06 17506.7 893.414 165.218 1.68166
threshold=0.066299999132752432 0.07391583546996118 0.006599999964237214 0.66589999198913585 0.26645000278949743
decision_type=2 2 2 2 2
left_child=-1 2 3 -2 -3
right_child=1 4 -4 -5 -6
leaf_value=-0.035202903396613944 0.034525120610651119 0.035037536370199907 0.035258454033018909 0.05465060701757684 0.036957129661918005
leaf_weight=257690.82967945933 312.03388229012489 30312.224600866437 1645.106721162796 497762.54240754247 3294.7656313329935
leaf_count=1327920 619 61049 3282 645427 6466
internal_value=0.0245059 0.053356 0.0545748 0.0546383 0.0352299
internal_weight=791018 533327 499720 498075 33607
internal_count=2044763 716843 649328 646046 67515
is_linear=0
shrinkage=0.0259281


Tree=10
num_leaves=5
num_cat=0
split_feature=2 3 13 2
split_gain=1.92257e+06 16733.7 828.821 159.74
threshold=0.066299999132752432 0.28260000050067907 0.010049999691545965 0.65810000896453869
decision_type=2 2 2 2
left_child=-1 2 3 -2
right_child=1 -3 -4 -5
leaf_value=-0.034882058044990352 0.031432357417966052 0.034208063453349043 0.034997100548712037 0.053124094843206002
leaf_weight=253097.48579709232 259.83447590470314 33873.221538618207 1748.9514077454805 498863.95417748392
leaf_count=1326468 527 67635 3427 645504
internal_value=0.0239915 0.0518568 0.0530501 0.0531131
internal_weight=787843 534746 500873 499124
internal_count=2043561 717093 649458 646031
is_linear=0
shrinkage=0.0259281


Tree=11
num_leaves=5
num_cat=0
split_feature=2 3 13 5
split_gain=1.82805e+06 16127.6 760.252 147.974
threshold=0.066299999132752432 0.28260000050067907 0.010049999691545965 0.006599999964237214
decision_type=2 2 2 2
left_child=-1 2 3 -2
right_child=1 -3 -4 -5
leaf_value=-0.034575089943005566 0.051718298635942239 0.033166514582825372 0.034261759759444413 0.033170630838181565
leaf_weight=248926.12855049968 499137.09645707905 33942.338610976934 1732.8209637850523 331.2945322394371
leaf_count=1327245 645454 67475 3367 650
internal_value=0.0234727 0.0504744 0.0516462 0.0517063
internal_weight=784070 535144 501201 499468
internal_count=2044191 716946 649471 646104
is_linear=0
shrinkage=0.0259281


Tree=12
num_leaves=6
num_cat=0
split_feature=2 3 5 2 6
split_gain=1.74009e+06 15559.7 748.206 172.356 0.91313
threshold=0.066299999132752432 0.28260000050067907 0.006599999964237214 0.66589999198913585 0.1430500000715256
decision_type=2 2 2 2 2
left_child=-1 2 3 -2 -3
right_child=1 4 -4 -5 -6
leaf_value=-0.034281186396304605 0.029789073404907978 0.031753314839248557 0.032728247005349174 0.050415208580885079 0.032819083843949763
leaf_weight=244653.10933992267 305.57069905102253 18718.947530508041 1660.577217772603 499038.61424252391 15407.065871074796
leaf_count=1327496 611 37290 3242 645903 30247
internal_value=0.0230013 0.0491902 0.0503446 0.0504029 0.0322386
internal_weight=779784 535131 501005 499344 34126
internal_count=2044789 717293 649756 646514 67537
is_linear=0
shrinkage=0.0259281


Tree=13
num_leaves=7
num_cat=0
split_feature=2 3 5 12 2 2
split_gain=1.65709e+06 15320.4 769.639 142.833 2.98359 1.30383
threshold=0.066299999132752432 0.28260000050067907 0.006599999964237214 0.62500000000000011 0.69804999232292186 0.29314999282360082
decision_type=2 2 2 2 2 2
left_child=-1 2 3 -2 -5 -4
right_child=1 -3 5 4 -6 -7
leaf_value=-0.033999671842454775 0.031775455626958132 0.031209578350255587 0.025829961506934711 0.041275755455982957 0.049215619807588755 0.032290912875070348
leaf_weight=240266.68151839077 361.20970796048641 34275.849575430155 275.28010129928589 249.6065184623003 497552.04352852702 1389.0422912836075
leaf_count=1327094 688 67704 578 389 645230 2682
internal_value=0.0225504 0.0479898 0.0491403 0.0491996 0.0492119 0.031306
internal_weight=774370 534103 499827 498163 497802 1664.32
internal_count=2044365 717271 649567 646307 645619 3260
is_linear=0
shrinkage=0.0259281


Tree=14
num_leaves=10
num_cat=0
split_feature=7 3 0 14 6 5 1 0 3
split_gain=1.56775e+06 14929.1 10769.7 1108.52 745.655 663.902 145.833 76.1423 1.11906
threshold=0.049949999898672111 0.28260000050067907 0.062849998474121108 0.1097335033118725 0.030650000087916855 0.006599999964237214 0.45835000276565557 0.041149999946355827 0.45655000209808355
decision_type=2 2 2 2 2 2 2 2 2
left_child=2 5 4 -3 -1 6 -2 -5 -4
right_child=1 3 8 7 -6 -7 -8 -9 -10
leaf_value=-0.033720327915668612 0.028075994985694241 -0.033208173023267694 0.033873920965462267 0.012087872242868024 0.028520036104342218 0.031139372531999755 0.048092456271851762 0.030436270216572154 0.028936447845750165
leaf_weight=235790.99291048944 278.30648440122604 183.48275502026081 553.35278554260731 178.126125395298 127.04251798987389 1606.7575493007898 496259.57522463799 32538.334545195103 1211.3980996161699
leaf_count=1326033 547 1017 1034 507 258 3109 645731 64004 2427
internal_value=0.0221376 0.0469095 -0.0332086 0.029982 -0.0336862 0.0480272 0.0480815 0.0303406 0.0305637
internal_weight=768727 531045 237683 32899.9 235918 498145 496538 32716.5 1764.75
internal_count=2044667 714915 1329752 65528 1326291 649387 646278 64511 3461
is_linear=0
shrinkage=0.0259281


Tree=15
num_leaves=5
num_cat=0
split_feature=2 3 13 2
split_gain=1.50942e+06 14533.8 770.247 138.07
threshold=0.066299999132752432 0.28260000050067907 0.010049999691545965 0.65810000896453869
decision_type=2 2 2 2
left_child=-1 2 3 -2
right_child=1 -3 -4 -5
leaf_value=-0.033471223767548713 0.027108358393088488 0.029564812856325798 0.029656338196418389 0.047052916578201383
leaf_weight=231812.34422191978 266.4533212184906 34499.573754891753 1762.6417208611965 493599.96280272305
leaf_count=1327835 531 67756 3426 645027
internal_value=0.0217156 0.0458478 0.0469809 0.0470424
internal_weight=761941 530129 495629 493866
internal_count=2044575 716740 648984 645558
is_linear=0
shrinkage=0.0259281


Tree=16
num_leaves=6
num_cat=0
split_feature=2 16 12 2 2
split_gain=1.44277e+06 14276.7 607.378 182.861 0.780118
threshold=0.066299999132752432 0.07391583546996118 0.62500000000000011 0.66589999198913585 0.29314999282360082
decision_type=2 2 2 2 2
left_child=-1 2 4 -4 -2
right_child=1 -3 3 -5 -6
leaf_value=-0.033222903212661845 0.024174953364007056 0.028736239997841983 0.027781032076131324 0.046078029404263109 0.030463029791197041
leaf_weight=227453.93226547539 267.1810544282198 34447.476862624288 405.89426210522652 491709.22479060292 1264.8407085090876
leaf_count=1327301 552 67567 797 646061 2395
internal_value=0.0213711 0.0448853 0.046012 0.0460632 0.0294574
internal_weight=755549 528095 493647 492115 1532.02
internal_count=2044673 717372 649805 646858 2947
is_linear=0
shrinkage=0.0259281


Tree=17
num_leaves=5
num_cat=0
split_feature=2 16 13 2
split_gain=1.38006e+06 14095.9 726.086 142.034
threshold=0.066299999132752432 0.07391583546996118 0.010049999691545965 0.65810000896453869
decision_type=2 2 2 2
left_child=-1 2 3 -2
right_child=1 -3 -4 -5
leaf_value=-0.032984468282656755 0.024867443564466445 0.027947502761749114 0.028364290918622255 0.045173913701454418
leaf_weight=223230.76804077625 262.23303754627705 34508.851005762815 1780.6874742209911 488573.22257620096
leaf_count=1327408 527 67629 3438 645925
internal_value=0.0210186 0.0439755 0.0451026 0.0451633
internal_weight=748356 525125 490616 488835
internal_count=2044927 717519 649890 646452
is_linear=0
shrinkage=0.0259281


Tree=18
num_leaves=6
num_cat=0
split_feature=2 16 13 5 14
split_gain=1.32069e+06 13987 703.741 148.86 0.867415
threshold=0.066299999132752432 0.07391583546996118 0.010049999691545965 0.006599999964237214 1.5570414066314699
decision_type=2 2 2 2 2
left_child=-1 2 3 -2 -3
right_child=1 4 -4 -5 -6
leaf_value=-0.032755503843701184 0.044325108820936369 0.02688852608947169 0.027648588456387339 0.025855640451181182 0.028056508075390937
leaf_weight=218971.79168896377 484832.60552674532 26788.581123992801 1754.4089856892824 329.80455709993839 7689.3641878962517
leaf_count=1327127 645563 52695 3385 648 14877
internal_value=0.0206806 0.0431226 0.0442531 0.0443128 0.0271531
internal_weight=740367 521395 486917 485162 34477.9
internal_count=2044295 717168 649596 646211 67572
is_linear=0
shrinkage=0.0259281


Tree=19
num_leaves=6
num_cat=0
split_feature=2 3 13 5 2
split_gain=1.26535e+06 13837.7 709.029 141.124 2.40565
threshold=0.066299999132752432 0.28260000050067907 0.010049999691545965 0.006599999964237214 0.69804999232292186
decision_type=2 2 2 2 2
left_child=-1 2 3 4 -2
right_child=1 -3 -4 -5 -6
leaf_value=-0.03253547381917675 0.035500366124843571 0.026453426105437713 0.026968443823969769 0.025394893476402801 0.043530022834769762
leaf_weight=214816.64101710916 213.39049252867699 34532.814613699913 1791.910211071372 325.69178177416325 480750.0983196497
leaf_count=1327282 333 67653 3456 638 645229
internal_value=0.0203651 0.0423198 0.0434537 0.0435148 0.0435268
internal_weight=732431 517614 483081 481289 480963
internal_count=2044591 717309 649656 646200 645562
is_linear=0
shrinkage=0.0259281


Tree=20
num_leaves=9
num_cat=0
split_feature=7 3 0 14 1 5 1 0
split_gain=1.20234e+06 13652.7 8506.66 836.274 660.212 632.694 119.022 58.5267
threshold=0.049949999898672111 0.28260000050067907 0.062849998474121108 0.1097335033118725 0.29164999723434454 0.006599999964237214 0.45835000276565557 0.040850000455975539
decision_type=2 2 2 2 2 2 2 2
left_child=2 5 4 -3 -1 6 -2 -5
right_child=1 3 -4 7 -6 -7 -8 -9
leaf_value=-0.032313665035361053 0.024769586147228146 -0.031711221722696359 0.025051328354298977 0.0077699962525028662 0.024467999853245603 0.02615202639668425 0.042774536017851292 0.025818465898658667
leaf_weight=210470.93387959898 283.76460441946983 169.02299356460571 1751.8305986821651 143.43067562580109 134.95443506538868 1589.7315326929092 476351.89259403944 32645.160511657596
leaf_count=1325933 549 1046 3460 443 271 3076 645056 63918
internal_value=0.0200536 0.0415964 -0.031803 0.0254449 -0.0322766 0.0427092 0.0427641 0.0257438
internal_weight=723541 511183 212358 32957.6 210606 478225 476636 32788.6
internal_count=2043752 714088 1329664 65407 1326204 648681 645605 64361
is_linear=0
shrinkage=0.0259281


Tree=21
num_leaves=7
num_cat=0
split_feature=2 3 13 5 6 2
split_gain=1.16404e+06 13460.6 655.105 139.776 0.63832 0.243836
threshold=0.066299999132752432 0.28260000050067907 0.010049999691545965 0.006599999964237214 0.1430500000715256 0.69804999232292186
decision_type=2 2 2 2 2 2
left_child=-1 2 3 5 -3 -2
right_child=1 4 -4 -5 -6 -7
leaf_value=-0.032120601273304135 0.03447141284083137 0.02478568646491611 0.025999257478998918 0.024075682607331828 0.02572014197348858 0.04207458944726139
leaf_weight=206589.73705208302 205.82076163589954 18935.253765299916 1759.3924694061279 326.58118917047977 15546.357652336359 471839.86668658257
leaf_count=1327449 323 37294 3379 641 30212 644957
internal_value=0.0197806 0.0408622 0.0420001 0.0420594 0.025211 0.0420716
internal_weight=715203 508613 474132 472372 34481.6 472046
internal_count=2044255 716806 649300 645921 67506 645280
is_linear=0
shrinkage=0.0259281


Tree=22
num_leaves=10
num_cat=0
split_feature=7 3 0 0 13 6 5 14 13
split_gain=1.10713e+06 13509.8 8221.03 743.997 667.737 648.666 133.911 28.3256 9.82216
threshold=0.049949999898672111 0.28260000050067907 0.062849998474121108 0.039950000122189529 0.010049999691545965 0.030650000087916855 0.006599999964237214 0.14080559462308886 0.026349999941885475
decision_type=2 2 2 2 2 2 2 2 2
left_child=2 4 5 -3 6 -1 -2 -5 -4
right_child=1 3 8 7 -6 -7 -8 -9 -10
leaf_value=-0.031914590939659065 0.041406364064722249 -0.03135867273416143 0.025218390477747529 0.012032345616601839 0.024770478380903769 0.024671603531615755 0.023136582381091873 0.024450677867267848 0.01711661446251278
leaf_weight=202296.92234396935 467475.12259145081 159.53717824816704 1534.2678886055946 168.4161439538002 1671.9314784109592 133.5002303570509 304.4736694842577 32480.200701504946 234.31905661523342
leaf_count=1325893 645579 1018 2976 483 3239 263 600 63741 501
internal_value=0.019515 0.0402113 -0.03139 0.0241155 0.0413359 -0.0318766 0.0413948 0.0243909 0.0242238
internal_weight=706459 502260 204199 32808.2 469452 202430 467780 32648.6 1768.59
internal_count=2044293 714660 1329633 65242 649418 1326156 646179 64224 3477
is_linear=0
shrinkage=0.0259281


Tree=23
num_leaves=5
num_cat=0
split_feature=2 3 13 2
split_gain=1.07293e+06 13381.6 735.898 150.928
threshold=0.066299999132752432 0.28260000050067907 0.010049999691545965 0.65810000896453869
decision_type=2 2 2 2
left_child=-1 2 3 -2
right_child=1 -3 -4 -5
leaf_value=-0.031736535528297131 0.019994688538632437 0.02396993140272979 0.023843627147423965 0.040776419402233463
leaf_weight=198398.44720412791 261.39226360619068 34572.165204524994 1774.1840669512749 462531.53115502
leaf_count=1326795 533 67806 3458 645747
internal_value=0.0192684 0.0395421 0.0407007 0.040765
internal_weight=697538 499139 464567 462793
internal_count=2044339 717544 649738 646280
is_linear=0
shrinkage=0.0259281


Tree=24
num_leaves=6
num_cat=0
split_feature=2 17 13 2 14
split_gain=1.03134e+06 13383 671.429 129.747 1.35049
threshold=0.066299999132752432 0.99724829196929943 0.010350000113248827 0.64434999227523815 1.5570414066314699
decision_type=2 2 2 2 2
left_child=-1 4 3 -3 -2
right_child=1 2 -4 -5 -6
leaf_value=-0.031555047474815363 0.023103136999840325 0.021256205322530655 0.023838103497021298 0.04018315537366856 0.024216778924950486
leaf_weight=194496.85162092745 26802.218089967966 274.9104427844286 1740.3408831804991 457048.62704007328 7697.0381322205067
leaf_count=1327336 52840 549 3371 645439 14932
internal_value=0.0190124 0.0389396 0.0401105 0.0401721 0.0233556
internal_weight=688060 493563 459064 457324 34499.3
internal_count=2044467 717131 649359 645988 67772
is_linear=0
shrinkage=0.0259281


Tree=25
num_leaves=6
num_cat=0
split_feature=2 16 5 13 2
split_gain=991877 13346.7 702.488 146.711 2.96078
threshold=0.066299999132752432 0.07391583546996118 0.006599999964237214 0.010049999691545965 0.69804999232292186
decision_type=2 2 2 2 2
left_child=-1 2 3 4 -2
right_child=1 -3 -4 -5 -6
leaf_value=-0.031380210821432386 0.031664266053244801 0.022774390824126887 0.022563769834375729 0.023348758271998126 0.039625963190001508
leaf_weight=190545.5666398406 205.74701038002968 34353.612302452326 1669.722323089838 414.47852917015553 451802.3196079731
leaf_count=1327232 335 67600 3275 796 645691
internal_value=0.0187932 0.0383664 0.0395457 0.039608 0.0396226
internal_weight=678991 488446 454092 452423 452008
internal_count=2044929 717697 650097 646822 646026
is_linear=0
shrinkage=0.0259281


Tree=26
num_leaves=5
num_cat=0
split_feature=2 3 13 0
split_gain=953875 13429.2 662.596 150.726
threshold=0.066299999132752432 0.28260000050067907 0.010049999691545965 0.19614999741315844
decision_type=2 2 2 2
left_child=-1 2 3 -2
right_child=1 -3 -4 -5
leaf_value=-0.031211764671703168 0.017057787374206445 0.022189420981371735 0.022959766191985104 0.03908857225347135
leaf_weight=186641.93815599382 231.33085106313229 34379.16512824595 1763.4893424510956 446114.35876119137
leaf_count=1327118 481 67803 3419 645701
internal_value=0.0185616 0.0378158 0.0390143 0.0390775
internal_weight=669130 482488 448109 446346
internal_count=2044522 717404 649601 646182
is_linear=0
shrinkage=0.0259281


Tree=27
num_leaves=11
num_cat=0
split_feature=7 16 0 13 15 6 0 0 1 13
split_gain=910394 13344.5 7055.61 628.818 596.677 578.668 120.882 27.4029 1.33509 2.75489
threshold=0.049949999898672111 0.07391583546996118 0.062849998474121108 0.010049999691545965 0.10411990061402322 0.030650000087916855 0.19614999741315844 0.040850000455975539 0.54164999723434459 0.027150000445544723
decision_type=2 2 2 2 2 2 2 2 2 2
left_child=2 3 5 6 -3 -1 -2 -6 9 -4
right_child=1 4 8 -5 7 -7 -8 -9 -10 -11
leaf_value=-0.031039321325719984 0.017953681264785356 -0.030341861360750632 0.022997062962045005 0.022456181536398841 0.0085147300026596519 0.021340463571994872 0.038583403319524902 0.021601337175623913 0.016983967961971651 0.015469368147753243
leaf_weight=182804.6182436049 216.31585535407066 147.43467727303505 1281.4654952287674 1674.9971655160189 143.25400504469872 138.74395643174648 440677.93635638058 32287.355462789536 297.27624973654747 159.58426949381828
leaf_count=1327030 443 1042 2483 3252 442 276 646243 63850 620 338
internal_value=0.018346 0.0373336 -0.0305045 0.0385129 0.0213087 -0.0309988 0.0385736 0.0215478 0.021438 0.0222601
internal_weight=659829 475147 184682 442569 32578 182943 440894 32430.6 1738.33 1441.05
internal_count=2046019 715272 1330747 649938 65334 1327306 646686 64292 3441 2821
is_linear=0
shrinkage=0.0259281


Tree=28
num_leaves=5
num_cat=0
split_feature=2 3 13 2
split_gain=884389 13367.8 663.977 138.446
threshold=0.066299999132752432 0.28260000050067907 0.010049999691545965 0.65810000896453869
decision_type=2 2 2 2
left_child=-1 2 3 -2
right_child=1 -3 -4 -5
leaf_value=-0.03089288536203846 0.017894820381102235 0.021167088824673684 0.021977440939085623 0.038104566093041636
leaf_weight=179111.55123303831 254.02005541324615 34121.346986934543 1766.6680279970169 434338.1973323226
leaf_count=1327810 519 67555 3438 645652
internal_value=0.0181389 0.0368056 0.0380281 0.0380931
internal_weight=649592 470480 436359 434592
internal_count=2044974 717164 649609 646171
is_linear=0
shrinkage=0.0259281


Tree=29
num_leaves=11
num_cat=0
split_feature=7 3 0 13 1 0 5 0 0 0
split_gain=843456 13335.5 6817.87 669.583 558.9 461.499 139.927 43.1099 6.48533 1.4441
threshold=0.049949999898672111 0.28260000050067907 0.062849998474121108 0.010350000113248827 0.29164999723434454 0.040249999612569816 0.006599999964237214 0.035749999806284911 0.049249999225139625 0.048049999400973327
decision_type=2 2 2 2 2 2 2 2 2 2
left_child=2 3 4 6 -1 7 -2 -3 9 -7
right_child=1 5 -4 -5 -6 8 -8 -9 -10 -11
leaf_value=-0.030729760174200409 0.037650546222499921 -0.029930589306299434 0.020567880262379195 0.020867193737489385 0.021073202982116967 0.018312153239448098 0.019652252407118324 0 0.020637744224253282 0.011265713658389026
leaf_weight=175205.25226259232 428024.92075458169 123.95982554554939 1758.8627521842718 1644.0971937328577 136.9304113984108 1003.0159214735031 323.01587058603764 44.919084787368774 31072.209639027715 133.74008159339428
leaf_count=1326421 645255 905 3491 3233 273 2155 642 177 61679 307
internal_value=0.0179354 0.0363648 -0.0301787 0.0375735 -0.0306885 0.0203087 0.0376373 -0.0220446 0.0205351 0.0176057
internal_weight=639471 462370 177101 429992 175342 32377.8 428348 168.879 32209 1136.76
internal_count=2044538 714353 1330185 649130 1326694 65223 645897 1082 64141 2462
is_linear=0
shrinkage=0.0259281


Tree=30
num_leaves=7
num_cat=0
split_feature=2 3 13 5 2 6
split_gain=820465 13432.7 697.767 145.628 5.30753 2.14018
threshold=0.066299999132752432 0.28260000050067907 0.010049999691545965 0.006599999964237214 0.69804999232292186 0.26645000278949743
decision_type=2 2 2 2 2 2
left_child=-1 2 3 4 -2 -3
right_child=1 5 -4 -5 -6 -7
leaf_value=-0.030596224359923846 0.028683270418161905 0.020027125066957679 0.020553822470286122 0.018682608177949464 0.037220697112436023 0.02156316444711873
leaf_weight=171590.70291046798 191.37438164651394 30652.323478356004 1736.5822123289108 315.40621161460876 421731.58938115835 3316.9666878432035
leaf_count=1327027 329 61112 3418 633 645017 6470
internal_value=0.0177594 0.0358784 0.0371358 0.0372036 0.0372172 0.0201812
internal_weight=629535 457944 423975 422238 421923 33969.3
internal_count=2044006 716979 649397 645979 645346 67582
is_linear=0
shrinkage=0.0259281


Tree=31
num_leaves=7
num_cat=0
split_feature=2 17 5 13 2 8
split_gain=790992 13619.7 684.639 157.288 0.616004 0.47342
threshold=0.066299999132752432 0.99724829196929943 0.006599999964237214 0.010950000025331976 0.69804999232292186 0.47499999403953558
decision_type=2 2 2 2 2 2
left_child=-1 5 3 4 -3 -2
right_child=1 2 -4 -5 -6 -7
leaf_value=-0.030455513971105339 0.01983725026051102 0.029572121409908062 0.019935313078828183 0.019455903802192694 0.036808046735964349 0.018882114217675449
leaf_weight=168070.35047645867 25361.896611005068 203.95637865364552 1663.0157014578581 385.73695512115955 415210.57352544367 8445.8487800061703
leaf_count=1327891 50506 347 3292 762 644592 17027
internal_value=0.0175578 0.03544 0.0367223 0.0367891 0.0368048 0.0196028
internal_weight=619341 451271 417463 415800 415415 33807.7
internal_count=2044417 716526 648993 645701 644939 67533
is_linear=0
shrinkage=0.0259281


Tree=32
num_leaves=6
num_cat=0
split_feature=2 16 13 5 2
split_gain=762695 13562.7 750.484 152.307 4.82301
threshold=0.066299999132752432 0.07391583546996118 0.010049999691545965 0.006599999964237214 0.69804999232292186
decision_type=2 2 2 2 2
left_child=-1 2 3 4 -2
right_child=1 -3 -4 -5 -6
leaf_value=-0.030319663021301877 0.028124862758966845 0.0192315440643306 0.019103105415042367 0.017532792885602187 0.036414878210797814
leaf_weight=164377.46467112005 194.95769284665585 33805.008577570319 1728.0289420932531 316.00128738582134 409393.26760177314
leaf_count=1326961 340 67641 3445 640 645376
internal_value=0.017413 0.0350279 0.0363248 0.0363971 0.0364113
internal_weight=609815 445437 411632 409904 409588
internal_count=2044403 717442 649801 646356 645716
is_linear=0
shrinkage=0.0259281


Tree=33
num_leaves=5
num_cat=0
split_feature=2 3 5 2
split_gain=735801 13669.9 670.264 150.495
threshold=0.066299999132752432 0.28260000050067907 0.006599999964237214 0.66589999198913585
decision_type=2 2 2 2
left_child=-1 2 3 -2
right_child=1 -3 -4 -5
leaf_value=-0.030188485975718399 0.016510159842686684 0.018739000918313136 0.019185334235732553 0.036033745234533655
leaf_weight=160892.75447182357 291.97494038939476 33624.479536816478 1631.874439239502 403173.64186818898
leaf_count=1327252 596 67516 3244 645685
internal_value=0.0172398 0.0346335 0.0359525 0.03602
internal_weight=599615 438722 405097 403466
internal_count=2044293 717041 649525 646281
is_linear=0
shrinkage=0.0259281


Tree=34
num_leaves=12
num_cat=0
split_feature=7 3 18 13 1 18 18 18 14 14 13
split_gain=702730 13570.1 5648.82 691.051 433.168 360.439 126.061 45.2117 6.2678 1.69157 0.70342
threshold=0.049949999898672111 0.28260000050067907 0.64449253678321849 0.010049999691545965 0.29164999723434454 0.60001757740974437 0.75819745659828197 0.5890260934829713 0.14080559462308886 1.3390499949455263 0.026349999941885475
decision_type=2 2 2 2 2 2 2 2 2 2 2
left_child=2 3 4 6 -1 7 -2 -3 -7 -10 -4
right_child=1 5 10 -5 -6 8 -8 -9 9 -11 -12
leaf_value=-0.030048274526735988 0.014614315598609292 -0.029143260556919522 0.018195296769293535 0.018558503437058328 0.016184416799882105 0.010770471298150751 0.035676379463433903 0 0.017945894972723943 0.018901096432963199 0.013123054475009808
leaf_weight=157173.08540881425 213.55919456481934 115.89233457297087 1450.5264800041914 1628.0454576462507 132.43623860180378 166.86659030616283 396373.65002270043 40.039152950048447 21661.53146289289 9952.9442908763885 242.83158564567566
leaf_count=1324986 447 938 2921 3252 275 484 645071 155 43847 19876 519
internal_value=0.0170749 0.0342912 -0.0295011 0.0355958 -0.0300085 0.0180208 0.0356654 -0.0208887 0.0182161 0.018251 0.0175502
internal_weight=589151 430153 158999 398215 157306 31937.3 396587 155.931 31781.3 31614.5 1693.36
internal_count=2042771 714070 1328701 648770 1325261 65300 645518 1093 64207 63723 3440
is_linear=0
shrinkage=0.0259281


Tree=35
num_leaves=7
num_cat=0
split_feature=2 3 13 5 2 6
split_gain=685406 13711.7 727.804 158.066 3.98137 2.21979
threshold=0.066299999132752432 0.28260000050067907 0.010049999691545965 0.006599999964237214 0.69804999232292186 0.26645000278949743
decision_type=2 2 2 2 2 2
left_child=-1 2 3 4 -2 -3
right_child=1 5 -4 -5 -6 -7
leaf_value=-0.029939397165069513 0.027024636544482058 0.017806065801543123 0.018199840728433943 0.016134442109110369 0.035339712615722559 0.019290735465936851
leaf_weight=154017.66147732735 181.25492925941944 30229.878218531609 1710.0839666724205 315.15457844734192 390104.88882401586 3264.7117065489292
leaf_count=1327238 326 61142 3426 646 645341 6467
internal_value=0.0169326 0.0338869 0.0352468 0.0353211 0.0353362 0.0179549
internal_weight=579824 425806 392311 390601 390286 33494.6
internal_count=2044586 717348 649739 646313 645667 67609
is_linear=0
shrinkage=0.0259281


Tree=36
num_leaves=8
num_cat=0
split_feature=2 17 13 5 7 15 2
split_gain=661432 13779.6 696.605 165.595 1.1298 0.53541 0.224856
threshold=0.066299999132752432 0.99724829196929943 0.010049999691545965 0.006599999964237214 0.037149999290704734 1.0285270810127261 0.69804999232292186
decision_type=2 2 2 2 2 2 2
left_child=-1 4 3 6 -2 -6 -3
right_child=1 2 -4 -5 5 -7 -8
leaf_value=-0.029821046297215357 0.014584603241178769 0.027535650307988071 0.01827785396231129 0.015569079692265486 0.017438596291897018 0.018616328982232307 0.035013166421182733
leaf_weight=150528.90513493121 633.04574790596962 177.31978504359722 1718.3706039786339 320.61725796759129 28367.501021116972 4380.8558178842068 383746.97464306653
leaf_count=1326051 1331 318 3433 661 57523 8739 645547
internal_value=0.0168015 0.0335375 0.0349202 0.0349942 0.0175474 0.0176004 0.0350101
internal_weight=569874 419345 385963 384245 33381.4 32748.4 383924
internal_count=2043603 717552 649959 646526 67593 66262 645865
is_linear=0
shrinkage=0.0259281


Tree=37
num_leaves=6
num_cat=0
split_feature=2 16 13 2 6
split_gain=639080 13680.7 718.461 138.532 1.95548
threshold=0.066299999132752432 0.07391583546996118 0.010049999691545965 0.65810000896453869 0.26645000278949743
decision_type=2 2 2 2 2
left_child=-1 2 3 -2 -3
right_child=1 4 -4 -5 -6
leaf_value=-0.029706615146302535 0.014504493323340131 0.01709215085858572 0.017679209002720731 0.034695035586190456 0.018535577322389942
leaf_weight=147333.11510329694 252.33037000894547 29939.154098361731 1711.8369727581739 377098.53978535533 3255.3104510009289
leaf_count=1326949 527 60871 3441 645318 6486
internal_value=0.0166427 0.0332074 0.0346055 0.0346819 0.0172379
internal_weight=559590 412257 379063 377351 33194.5
internal_count=2043592 716643 649286 645845 67357
is_linear=0
shrinkage=0.0259281


Tree=38
num_leaves=7
num_cat=0
split_feature=2 3 5 1 2 3
split_gain=617464 13856.3 741.239 150.631 36.6878 1.19957
threshold=0.066299999132752432 0.28260000050067907 0.006599999964237214 0.45835000276565557 0.68439999222755443 0.54344999790191661
decision_type=2 2 2 2 2 2
left_child=-1 2 3 -2 -5 -3
right_child=1 5 -4 4 -6 -7
leaf_value=-0.029596005983245782 0.014465028638708931 0.017327894569417922 0.016580005932301044 0.019728349861020313 0.034399842284520914 0.016487746173158978
leaf_weight=144170.76143600792 279.30505460500717 12445.077437907457 1610.014104411006 159.18334709107876 370496.57138599455 20729.420362263918
leaf_count=1327670 582 25179 3280 312 645105 42398
internal_value=0.0164942 0.0328725 0.0343027 0.0343793 0.0343939 0.0168071
internal_weight=549890 405720 372545 370935 370656 33174.5
internal_count=2044526 716856 649279 645999 645417 67577
is_linear=0
shrinkage=0.0259281


Tree=39
num_leaves=7
num_cat=0
split_feature=2 3 13 5 2 0
split_gain=596372 13948 693.978 161.889 5.66425 1.59717
threshold=0.066299999132752432 0.28260000050067907 0.010049999691545965 0.006599999964237214 0.69804999232292186 0.26015000045299536
decision_type=2 2 2 2 2 2
left_child=-1 2 3 4 -2 -3
right_child=1 5 -4 -5 -6 -7
leaf_value=-0.029488982298936983 0.025354052697404757 0.016556802793323815 0.017306863802013472 0.014564472439448427 0.034114324014732592 0.015404849035423624
leaf_weight=140889.82701414824 173.59327088296413 27894.047870799899 1696.9727136492729 309.99938245117664 363897.93417946994 5012.9179556816816
leaf_count=1326786 327 56921 3419 645 644913 10375
internal_value=0.0163692 0.032563 0.0340168 0.0340943 0.0341105 0.0163856
internal_weight=539875 398985 366078 364382 364072 32907
internal_count=2043386 716600 649304 645885 645240 67296
is_linear=0
shrinkage=0.0259281


Tree=40
num_leaves=6
num_cat=0
split_feature=2 3 12 2 6
split_gain=576477 14010.9 616.815 195.862 3.18333
threshold=0.066299999132752432 0.28260000050067907 0.62500000000000011 0.66589999198913585 0.21554999798536303
decision_type=2 2 2 2 2
left_child=-1 2 -2 -4 -3
right_child=1 4 3 -5 -6
leaf_value=-0.029385446224539317 0.016646701485744358 0.015809422999988949 0.014844101463529394 0.033828574988186817 0.016852005481035444
leaf_weight=137801.53684876114 1445.6919825673103 24903.509934574366 391.90945532917976 357711.19213345647 8056.5539947152138
leaf_count=1327179 2938 51245 812 645480 16347
internal_value=0.0162382 0.032256 0.0337396 0.0338082 0.0160685
internal_weight=530310 392509 359549 358103 32960.1
internal_count=2044001 716822 649230 646292 67592
is_linear=0
shrinkage=0.0259281


Tree=41
num_leaves=7
num_cat=0
split_feature=2 16 13 5 2 15
split_gain=557150 14199.8 784.443 147.929 13.4199 0.202467
threshold=0.066299999132752432 0.07391583546996118 0.010049999691545965 0.006599999964237214 0.69804999232292186 1.0285270810127261
decision_type=2 2 2 2 2 2
left_child=-1 2 3 4 -2 -3
right_child=1 5 -4 -5 -6 -7
leaf_value=-0.029285313371897298 0.02336172093570716 0.015497380197671664 0.015533231128081729 0.014811926929398946 0.033576563325153963 0.016588070542805415
leaf_weight=134715.7035805136 176.22879220545292 28514.018488302827 1660.1015581935644 309.41927714645863 351116.39704470336 4355.8380699157715
leaf_count=1327053 346 58840 3415 641 645173 8856
internal_value=0.0161147 0.0319544 0.0334714 0.0335557 0.0335718 0.0156462
internal_weight=520848 386132 353262 351602 351293 32869.9
internal_count=2044324 717271 649575 646160 645519 67696
is_linear=0
shrinkage=0.0259281


Tree=42
num_leaves=6
num_cat=0
split_feature=2 3 13 5 2
split_gain=538828 14218.5 771.81 175.507 12.8943
threshold=0.066299999132752432 0.28260000050067907 0.010049999691545965 0.006599999964237214 0.69804999232292186
decision_type=2 2 2 2 2
left_child=-1 2 3 4 -2
right_child=1 -3 -4 -5 -6
leaf_value=-0.029188346209491924 0.022961293553923439 0.015316942931323697 0.015334695960198111 0.012795699157698581 0.033324145300662501
leaf_weight=131734.78745079041 167.27993126213551 32673.045844092965 1643.7421850264072 302.40103191137314 344611.86997130513
leaf_count=1327429 332 67509 3388 642 645026
internal_value=0.0159891 0.031676 0.0332172 0.0333019 0.0333195
internal_weight=511133 379398 346725 345082 344779
internal_count=2044326 716897 649388 646000 645358
is_linear=0
shrinkage=0.0259281


Tree=43
num_leaves=8
num_cat=0
split_feature=2 3 13 5 2 14 7
split_gain=520685 14506.9 781.007 170.654 10.3851 4.63919 1.21099
threshold=0.066299999132752432 0.28260000050067907 0.010049999691545965 0.006599999964237214 0.69804999232292186 1.5570414066314699 0.15444999933242801
decision_type=2 2 2 2 2 2 2
left_child=-1 2 3 4 -2 -3 -4
right_child=1 5 6 -5 -6 -7 -8
leaf_value=-0.029094526082052281 0.023086216559166855 0.014588859774706081 0.017327781493259791 0.013094461005073254 0.033081201555314285 0.015720321948580151 0.013680778213357499
leaf_weight=128701.60593057424 162.24833577871323 25249.437240257859 576.16695149242878 310.6770598590374 338243.42417015135 7307.0714597404003 1076.6264384686947
leaf_count=1326704 324 52615 1155 657 645073 15001 2263
internal_value=0.0158712 0.0313899 0.0329718 0.0330589 0.0330768 0.0148471 0.0150365
internal_weight=501627 372926 340369 338716 338406 32556.5 1652.79
internal_count=2043792 717088 649472 646054 645397 67616 3418
is_linear=0
shrinkage=0.0259281


Tree=44
num_leaves=8
num_cat=0
split_feature=2 3 12 2 15 7 7
split_gain=503937 14549.3 654.582 207.118 2.51871 0.763409 4.31058
threshold=0.066299999132752432 0.28260000050067907 0.62500000000000011 0.66589999198913585 0.93885087966918956 0.15444999933242801 0.24994999915361407
decision_type=2 2 2 2 2 2 2
left_child=-1 2 5 -4 -3 -2 -7
right_child=1 4 3 -5 -6 6 -8
leaf_value=-0.029003654531392673 0.017364158903267007 0.014290102572615501 0.012895017515989394 0.032836871741969038 0.015302124233091954 0.010090845412261525 0.015591113200356874
leaf_weight=125860.03735100478 501.72021333873272 25137.121381595731 373.54458110034466 332280.96911127865 7209.7475050538778 363.95043928921223 556.49124446511269
leaf_count=1327391 1006 52545 791 645844 14871 798 1142
internal_value=0.0157567 0.0311315 0.0327395 0.0328149 0.01452 0.015005 0.0135676
internal_weight=492284 366424 334077 332655 32346.9 1422.16 920.442
internal_count=2044388 716997 649581 646635 67416 2946 1940
is_linear=0
shrinkage=0.0259281


Tree=45
num_leaves=15
num_cat=0
split_feature=0 17 7 14 13 1 8 7 7 5 6 6 5 13
split_gain=482792 14850.7 2998.1 809.893 752.559 367.053 138.511 62.6857 56.5306 49.045 2.42325 2.34873 1.82251 1.20513
threshold=0.049850000068545348 0.99724829196929943 0.082199998199939742 0.1097335033118725 0.010049999691545965 0.29164999723434454 0.37500000000000006 0.031549999490380294 0.030250000767409805 0.006599999964237214 0.24374999850988391 0.1430500000715256 0.061449998989701278 0.029450000263750557
decision_type=2 2 2 2 2 2 2 2 2 2 2 2 2 2
left_child=2 3 5 -2 6 -1 -3 8 -5 -8 12 13 -4 -9
right_child=1 4 10 7 -6 -7 9 11 -10 -11 -12 -13 -14 -15
leaf_value=-0.028907474406188727 -0.028450293399539511 0.0089026465327194781 0.015432486612729465 -0.021508110891881004 0.014344964227277612 0.010809868435243531 0.032623951606119979 0.014068913933397844 0.0096246370287204983 0.015677368060732489 0.0082434443921064748 0.014851187351205173 0.009482190770836495 0.010457982146481476
leaf_weight=122603.52647401392 298.60801537334919 181.83781525492668 773.25621415674686 60.459361687302589 1552.026405364275 151.51557336747646 326037.28254452348 16758.581581175327 109.08474881947041 146.52485390007496 165.32964885234833 13979.110316112638 182.5372122079134 369.14408352971077
leaf_count=1322795 3222 406 1590 536 3236 328 645949 35240 256 298 368 28991 401 901
internal_value=0.0156711 0.0308824 -0.0284715 0.0138919 0.032518 -0.0288573 0.032604 0.0143006 -0.000656271 0.0326168 0.0136521 0.0143866 0.0144419 0.0139992
internal_weight=483369 359493 123876 31575 327918 122755 326366 31276.4 169.544 326184 1121.12 31106.8 955.793 17127.7
internal_count=2044517 719035 1325482 69146 649889 1323123 646653 65924 792 646247 2359 65132 1991 36141
is_linear=0
shrinkage=0.0259281


Tree=46
num_leaves=6
num_cat=0
split_feature=2 3 13 2 6
split_gain=471713 14571.9 778.239 148.874 4.95686
threshold=0.066299999132752432 0.28260000050067907 0.010049999691545965 0.65810000896453869 0.26645000278949743
decision_type=2 2 2 2 2
left_child=-1 2 3 -2 -3
right_child=1 4 -4 -5 -6
leaf_value=-0.028830554607582323 0.01106574967024529 0.013825880557930013 0.014278740067503333 0.032402700552932123 0.015418589827871735
leaf_weight=120194.07280686498 239.83787152171135 29018.026070907712 1631.2253875732422 319426.33053323627 3159.942150592804
leaf_count=1327208 520 60954 3404 645265 6501
internal_value=0.015541 0.0306293 0.0322956 0.0323871 0.0139866
internal_weight=473669 353475 321297 319666 32178
internal_count=2043852 716644 649189 645785 67455
is_linear=0
shrinkage=0.0259281


Tree=47
num_leaves=10
num_cat=0
split_feature=2 3 12 1 0 2 14 0 0
split_gain=456623 14820.2 662.761 216.738 88.6087 5.87026 2.33524 3.6404 1.61629
threshold=0.066299999132752432 0.28260000050067907 0.62500000000000011 0.45835000276565557 0.19614999741315844 0.54330000281333934 1.3390499949455263 0.049249999225139625 0.088749997317790999
decision_type=2 2 2 2 2 2 2 2 2
left_child=-1 2 -2 5 -5 -4 8 -8 -3
right_child=1 6 3 4 -6 -7 7 -9 -10
leaf_value=-0.028748010385586741 0.014163319717502209 0.014268470266372417 0.015223109638761327 0.0098264323741299644 0.032199110071950227 0.0063175997947411142 0.010014649862619534 0.014329063086332474 0.013077762253428863
leaf_weight=117522.52200933546 1408.5504971295595 4168.7592961192131 185.23982788622379 136.9891400039196 313332.81213755906 170.96049483120441 356.4128981679678 9688.2785836011171 17898.005902022123
leaf_count=1328032 2949 8708 379 299 645464 391 781 20212 37931
internal_value=0.0154293 0.0303769 0.0320866 0.0321666 0.0321898 0.01134 0.0135889 0.0141898 0.013309
internal_weight=464869 347346 315235 313826 313470 356.2 32111.5 10044.7 22066.8
internal_count=2045146 717114 649482 646533 645763 770 67632 20993 46639
is_linear=0
shrinkage=0.0259281


Tree=48
num_leaves=15
num_cat=0
split_feature=7 3 0 5 6 14 12 1 6 12 1 0 3 3
split_gain=437390 14426.3 4043.95 746.378 369.681 184.945 163.88 79.0725 50.6078 6.38847 11.5537 5.34477 0.515763 3.31338
threshold=0.049949999898672111 0.28260000050067907 0.062849998474121108 0.006599999964237214 0.030650000087916855 0.12588687241077426 0.62500000000000011 0.29164999723434454 0.019949999637901786 0.32500000298023229 0.54164999723434459 0.041149999946355827 0.45655000209808355 0.63044998049736034
decision_type=2 2 2 2 2 2 2 2 2 2 2 2 2 2
left_child=2 3 4 6 7 8 -2 -1 -3 12 -11 -7 -4 -14
right_child=1 5 9 -5 -6 11 -8 -9 -10 10 -12 -13 13 -15
leaf_value=-0.02866559086795439 0.011986756026963799 -0.027424850586137937 0.018774853847552141 0.013353697039845364 0.014353074822599917 0.0065601423342494473 0.031996824839789599 0.010257928275144738 0.0054972432988704932 0.012056996181279901 0.0031522391071941765 0.013340784420294023 0.007726543317037645 0.015375143486225332
leaf_weight=114627.93678444624 297.69459076225758 94.385849513113499 210.36700822412968 1479.2897923737764 130.20129965245724 159.62667866051197 307278.94980882108 29.823597013950348 37.59398464858532 794.78682763874531 162.97463051974773 30150.355951249599 149.4682631790638 301.87239526212215
leaf_count=1325791 642 1032 411 3124 270 507 645668 64 85 1702 384 63708 334 618
internal_value=0.0153402 0.0302115 -0.0280299 0.0318892 -0.0286043 0.0131737 0.0319779 -0.0286543 -0.0169921 0.0125965 0.0106872 0.0133097 0.0151495 0.0131509
internal_weight=455905 339498 116407 309056 114788 30442 307577 114658 131.98 1619.47 957.761 30310 661.708 451.341
internal_count=2044340 714766 1329574 649434 1326125 65332 646310 1325855 1117 3449 2086 64215 1363 952
is_linear=0
shrinkage=0.0259281


Tree=49
num_leaves=16
num_cat=0
split_feature=0 3 7 5 14 1 0 7 7 3 14 5 0 14 5
split_gain=423531 15089.1 2771.07 731.274 681.883 326.114 160.36 63.5706 40.8861 4.03386 3.2176 1.66023 2.28629 0.561522 0.299912
threshold=0.049850000068545348 0.28260000050067907 0.082199998199939742 0.006599999964237214 0.1097335033118725 0.29164999723434454 0.19614999741315844 0.031549999490380294 0.030250000767409805 0.89129999279975902 1.5570414066314699 0.03024999983608723 0.04474999941885472 0.23658198863267901 0.051049999892711646
decision_type=2 2 2 2 2 2 2 2 2 2 2 2 2 2 2
left_child=2 3 5 6 -3 -1 -2 8 -6 11 13 12 -4 -9 -13
right_child=1 4 9 -5 7 -7 -8 10 -10 -11 -12 14 -14 -15 -16
leaf_value=-0.028582419531640927 0.010571224364657046 -0.028078768178215523 0.018833552200814428 0.013363318481454544 -0.020546741430392534 0.0098476641251335068 0.03180278528541064 0.014624158592682608 0.0062076565546121754 0.0061144852240819017 0.013971718453839993 0.0073690537475287034 0.011761115903832345 0.012818331221933977 0.012730884481797683
leaf_weight=111817.97343920171 259.02207674086094 270.96502662450075 235.75074437260628 1481.9300171583891 57.481201820075512 143.24578383564949 301147.06517489254 1289.3394623994827 106.45711688697338 131.48113651573658 6799.4303830862045 173.94999198615551 231.98742140829563 22526.644859373569 328.60980527102947
leaf_count=1323387 566 3206 461 3130 552 313 645562 2693 257 299 14247 391 496 48108 696
internal_value=0.0152447 0.0299304 -0.028129 0.0316953 0.012709 -0.028532 0.031785 0.0130726 -0.0023241 0.0127023 0.0131596 0.0134514 0.0156237 0.0129219 0.0111522
internal_weight=447001 333938 113063 302888 31050.3 111961 301406 30779.4 163.938 1101.78 30615.4 970.298 467.738 23816 502.56
internal_count=2044364 718321 1326043 649258 69063 1323700 646128 65857 809 2343 65048 2044 957 50801 1087
is_linear=0
shrinkage=0.0259281


end of trees

feature_importances:
Column_2=69
Column_3=38
Column_13=38
Column_0=36
Column_5=35
Column_7=21
Column_6=17
Column_14=17
Column_1=15
Column_16=12
Column_12=9
Column_15=5
Column_17=5
Column_18=4
Column_8=2

parameters:
[boosting: gbdt]
[objective: binary]
[metric: custom]
[tree_learner: serial]
[device_type: cpu]
[data_sample_strategy: bagging]
[data: ]
[valid: ]
[num_iterations: 50]
[learning_rate: 0.0259281]
[num_leaves: 24]
[num_threads: 0]
[seed: 42]
[deterministic: 0]
[force_col_wise: 0]
[force_row_wise: 0]
[histogram_pool_size: -1]
[max_depth: 6]
[min_data_in_leaf: 280]
[min_sum_hessian_in_leaf: 0.001]
[bagging_fraction: 0.851764]
[pos_bagging_fraction: 1]
[neg_bagging_fraction: 1]
[bagging_freq: 1]
[bagging_seed: 42]
[bagging_by_query: 0]
[feature_fraction: 0.745415]
[feature_fraction_bynode: 1]
[feature_fraction_seed: 42]
[extra_trees: 0]
[extra_seed: 12879]
[early_stopping_round: 0]
[early_stopping_min_delta: 0]
[first_metric_only: 0]
[max_delta_step: 0]
[lambda_l1: 5.37132]
[lambda_l2: 0.00619624]
[linear_lambda: 0]
[min_gain_to_split: 0.139979]
[drop_rate: 0.1]
[max_drop: 50]
[skip_drop: 0.5]
[xgboost_dart_mode: 0]
[uniform_drop: 0]
[drop_seed: 17869]
[top_rate: 0.2]
[other_rate: 0.1]
[min_data_per_group: 100]
[max_cat_threshold: 32]
[cat_l2: 10]
[cat_smooth: 10]
[max_cat_to_onehot: 4]
[top_k: 20]
[monotone_constraints: ]
[monotone_constraints_method: basic]
[monotone_penalty: 0]
[feature_contri: ]
[forcedsplits_filename: ]
[refit_decay_rate: 0.9]
[cegb_tradeoff: 1]
[cegb_penalty_split: 0]
[cegb_penalty_feature_lazy: ]
[cegb_penalty_feature_coupled: ]
[path_smooth: 0]
[interaction_constraints: ]
[verbosity: -1]
[saved_feature_importance_type: 0]
[use_quantized_grad: 0]
[num_grad_quant_bins: 4]
[quant_train_renew_leaf: 0]
[stochastic_rounding: 1]
[linear_tree: 0]
[max_bin: 255]
[max_bin_by_feature: ]
[min_data_in_bin: 3]
[bin_construct_sample_cnt: 200000]
[data_random_seed: 42]
[is_enable_sparse: 1]
[enable_bundle: 1]
[use_missing: 1]
[zero_as_missing: 0]
[feature_pre_filter: 1]
[pre_partition: 0]
[two_round: 0]
[header: 0]
[label_column: ]
[weight_column: ]
[group_column: ]
[ignore_column: ]
[categorical_feature: ]
[forcedbins_filename: ]
[precise_float_parser: 0]
[parser_config_file: ]
[objective_seed: 16083]
[num_class: 1]
[is_unbalance: 0]
[scale_pos_weight: 3.09354]
[sigmoid: 1]
[boost_from_average: 1]
[reg_sqrt: 0]
[alpha: 0.9]
[fair_c: 1]
[poisson_max_delta_step: 0.7]
[tweedie_variance_power: 1.5]
[lambdarank_truncation_level: 30]
[lambdarank_norm: 1]
[label_gain: ]
[lambdarank_position_bias_regularization: 0]
[eval_at: ]
[multi_error_top_k: 1]
[auc_mu_weights: ]
[num_machines: 1]
[local_listen_port: 12400]
[time_out: 120]
[machine_list_filename: ]
[machines: ]
[gpu_platform_id: -1]
[gpu_device_id: -1]
[gpu_use_dp: 0]
[num_gpu: 1]

end of parameters

pandas_categorical:null
