tree
version=v4
num_class=1
num_tree_per_iteration=1
label_index=0
max_feature_idx=18
objective=binary sigmoid:1
feature_names=Column_0 Column_1 Column_2 Column_3 Column_4 Column_5 Column_6 Column_7 Column_8 Column_9 Column_10 Column_11 Column_12 Column_13 Column_14 Column_15 Column_16 Column_17 Column_18
feature_infos=[0.0010000000474974513:1] [0.083300001919269562:1] [0.05000000074505806:1] [0:0.95649999380111694] [0:1] [-1:0.49930000305175781] [-1:1] [0:1] [0.05000000074505806:1] [0:1] [0:1] [0:1] [0.15000000596046448:0.85000002384185791] [0.0020000000949949026:0.05000000074505806] [0:9.9275074005126953] [0:2.3912832736968994] [0:0.24780228734016418] [0.96881061792373657:1] [0.23978953063488007:0.92104405164718628]
tree_sizes=4195 3786 3261 4193 3456 3566 3879 4402 3766 3765 3882 3973 2925 2623 3141 4017 4199 3791 4102 3559 3571 4315 3881 3992 3768 3774 3893 4000 3871 3971 2722 3479 3555 4082 3249 3583 3455 4319 3145 3037 3360 4188 3478 3893 4417 4445 2843 2959 3791 2956

Tree=0
num_leaves=38
num_cat=0
split_feature=2 16 13 5 2 6 2 13 5 2 5 0 8 0 0 5 5 0 13 12 2 2 7 16 8 13 14 5 13 13 2 2 13 13 13 2 6
split_gain=2.74487e+06 44361.5 2274.66 480.011 40.9752 11.5391 9.96334 8.25508 10.5502 6.16161 5.0059 4.73399 4.66649 6.23678 4.35707 7.21241 9.54644 8.53307 7.19274 15.8001 12.3964 5.02133 4.63743 12.7208 5.96559 4.33642 4.26053 3.7215 3.70549 5.00421 3.58933 3.00194 2.96307 2.78366 2.30042 0.910194 0.690406
threshold=0.066299999132752432 0.07391583546996118 0.010049999691545965 0.006599999964237214 0.69804999232292186 0.26645000278949743 0.84029999375343334 0.013650000095367433 0.071150001138448729 0.31239999830722814 0.067749999463558211 0.19614999741315844 0.27500000596046453 0.22694999724626544 0.24665000289678576 0.073249999433755889 0.061449998989701278 0.28114999830722814 0.0059500001370906839 0.62500000000000011 0.41335000097751623 0.73544999957084667 0.049949999898672111 0.11923819035291673 0.32500000298023229 0.020750000141561035 1.5570414066314699 0.012850000057369472 0.021949999965727333 0.010950000025331976 0.50964999198913585 0.55535000562667858 0.0094499997794628161 0.0084500000812113302 0.017849999479949478 0.5166500210762025 0.12115000188350679
decision_type=2 2 2 2 2 2 2 2 2 2 2 2 2 2 2 2 2 2 2 2 2 2 2 2 2 2 2 2 2 2 2 2 2 2 2 2 2
left_child=-1 2 3 4 -2 14 10 12 9 25 26 -5 32 33 18 16 21 -18 19 20 -3 -16 23 -20 -24 -9 27 -4 29 -17 -10 -11 -7 -14 -8 -21 -36
right_child=1 5 6 11 -6 7 34 8 30 31 -12 -13 13 -15 15 28 17 -19 22 35 -22 -23 24 -25 -26 -27 -28 -29 -30 -31 -32 -33 -34 -35 36 -37 -38
leaf_value=-0.73653456967993314 -0.62537694100841246 -0.65778592394975921 -0.65294025269228528 -0.65674451334149631 -0.60897037645514462 -0.63892917222986656 -0.64179610688287425 -0.65894530739776636 -0.66229119999903496 -0.64649473207813912 -0.65779109269947278 -0.64739043350162084 -0.64992505535861356 -0.65382939907245086 -0.65099396625081796 -0.65310155796224578 -0.66028613577469031 -0.65151232646312551 -0.64769305843159619 -0.66486340166062063 -0.64730906317621439 -0.65357228982425208 -0.65227392431207287 -0.65617071981030983 -0.65099348485495634 -0.65064473472687456 -0.65522803961736631 -0.64755593987356574 -0.65378196700779312 -0.64414693399335377 -0.65386252631201658 -0.65023768498261747 -0.64709929271078559 -0.6444029491007992 -0.65045494301069551 -0.65969932950881827 -0.64533141980938524
leaf_weight=278182.67539581656 126.50508098304272 168.48706164956093 196.72307394444942 115.8079267591238 270485.41815415025 92.924649089574814 110.70704486966133 104.47004088759422 80.906832158565521 333.22162087261677 111.58379110693932 86.47261606156826 155.15887680649757 146.7078338265419 1027.8640512228012 84.913167089223862 287.84552825987339 142.04215742647648 203.62139916419983 89.351539880037308 221.1832225471735 2066.3607162237167 5198.1801695674658 559.7033323943615 8713.5037788301706 130.03938673436642 162.4884479790926 326.99491168558598 108.91950038075447 179.84038971364498 113.14284412562847 594.84836065769196 89.362626582384109 234.5256617218256 86.915344670414925 81.130572184920311 88.252241477370262
leaf_count=1252194 321 524 595 358 608238 258 313 327 258 970 347 253 461 446 3074 257 908 426 597 289 647 6274 15664 1725 26060 388 498 958 331 516 344 1771 261 674 259 255 255
internal_value=-0.672771 -0.612254 -0.609175 -0.609011 -0.608978 -0.651731 -0.650164 -0.649666 -0.651025 -0.649976 -0.651853 -0.652713 -0.64711 -0.648554 -0.651955 -0.652864 -0.65328 -0.657372 -0.651723 -0.65502 -0.651822 -0.652714 -0.651597 -0.653901 -0.651471 -0.654314 -0.650897 -0.649566 -0.648955 -0.646994 -0.657343 -0.648887 -0.642897 -0.646585 -0.645473 -0.662368 -0.647835
internal_weight=571289 293106 271898 270814 270612 21208.3 1083.66 2075.31 1356.63 1162.58 797.79 202.281 718.68 536.392 19132.9 3897.79 3524.11 429.888 15235.2 560.152 389.67 3094.22 14675 763.325 13911.7 234.509 686.206 523.718 373.673 264.754 194.05 928.07 182.287 389.685 285.875 170.482 175.168
internal_count=1928294 676100 612395 609170 608559 63705 3225 6158 4058 3456 2398 611 2100 1581 57547 11786 10682 1334 45761 1715 1171 9348 44046 2322 41724 715 2051 1553 1104 773 602 2741 519 1135 827 544 514
is_linear=0
shrinkage=1


Tree=1
num_leaves=34
num_cat=0
split_feature=2 16 13 5 2 6 11 8 2 5 7 7 7 8 6 5 0 7 13 2 13 8 7 2 5 13 13 2 14 13 13 13 13
split_gain=2.54253e+06 39202.1 2006.97 423.753 35.8055 10.4245 10.0389 9.34328 8.97044 6.949 6.84139 5.61744 10.0851 8.43086 4.9484 4.51004 4.25728 3.93567 7.82335 7.23417 4.34383 4.10377 7.19134 10.3739 7.45487 5.9315 6.35499 6.18894 3.91964 3.06974 2.55802 2.02706 0.680039
threshold=0.066299999132752432 0.07391583546996118 0.010049999691545965 0.006599999964237214 0.69804999232292186 0.26645000278949743 1.0000000180025095e-35 0.52500000596046459 0.84029999375343334 0.059350000694394119 0.35915000736713415 0.22035000473260882 0.29354999959468847 0.32500000298023229 0.27214999496936804 0.067749999463558211 0.19614999741315844 0.037149999290704734 0.023149999789893631 0.69304999709129345 0.014849999919533731 0.32500000298023229 0.1909499987959862 0.98925000429153453 0.075350001454353346 0.013349999673664572 0.013050000183284284 0.87774997949600231 1.7969430685043337 0.012749999761581423 0.017849999479949478 0.017849999479949478 0.023750000633299354
decision_type=2 2 2 2 2 2 2 2 2 2 2 2 2 2 2 2 2 2 2 2 2 2 2 2 2 2 2 2 2 2 2 2 2
left_child=-1 2 3 4 -2 17 9 10 15 11 14 13 -13 -7 -8 28 -5 18 19 20 -3 22 23 -19 -24 26 -23 -27 29 -4 -11 -10 -33
right_child=1 5 8 16 -6 6 7 -9 31 30 -12 12 -14 -15 -16 -17 -18 21 -20 -21 -22 25 24 -25 -26 27 -28 -29 -30 -31 -32 32 -34
leaf_value=-0.041907607262914696 0.065251645083671414 0.038624423841235003 0.047795903009693892 0.035793164956097849 0.080441320952195083 0.044898536831720133 0.049634426432693834 0.037128335053704893 0.049902162234107338 0.039204522424444679 0.052853353236098188 0.050014560764843237 0.040077072374090597 0.035860119292588602 0.04352862146325618 0.034800417778741204 0.044637341101966634 0.040035742457539207 0.030556134827147301 0.033215848021891162 0.048317673518320482 0.040006963206309518 0.03863124146678254 0.044301184469106615 0.043332992069213642 0.041670217515162172 0.033439734712769939 0.039740339897507519 0.035903351363034533 0.041358228445964894 0.03324820850781654 0.041639557700437597 0.046647871863591671
leaf_weight=274155.73343619704 129.30080209672451 86.709428459405899 84.777918577194214 117.22189676761627 277823.26790106297 144.86339658498764 147.28444391489029 132.79937578737736 112.58543062210083 153.55725985765457 99.219403520226479 161.28843551874161 192.83077637851238 231.14142595231533 710.12476615607738 112.90868338942528 87.78665691614151 2397.8735104948282 108.54228301346302 92.112567767500877 85.583968102931976 3794.2205739766359 3766.9619098305702 610.75232954323292 318.21531923115253 6046.4813252687454 134.78001925349236 1953.6055471748114 106.24833655357361 504.83653530478477 132.20460350811481 87.550306439399719 90.252039104700089
leaf_count=1252194 321 260 240 358 608238 417 412 401 313 458 272 450 572 703 2064 347 253 7129 341 285 242 11278 11293 1770 927 17789 416 5817 324 1487 409 257 257
internal_value=0.0205139 0.0774141 0.0802532 0.0804042 0.0804343 0.0405404 0.0424921 0.0444416 0.042022 0.0403949 0.0454499 0.0419213 0.0446221 0.03936 0.0445853 0.0404255 0.0396127 0.0403282 0.0372179 0.0399278 0.043478 0.0403889 0.0398079 0.0409038 0.0389991 0.0407338 0.0397833 0.0411998 0.0413287 0.0422952 0.0364719 0.0464456 0.0442192
internal_weight=574914 300758 279257 278158 277953 21501.2 2105.31 1089.43 1099.16 1015.89 956.629 730.124 354.119 376.005 857.409 808.771 205.009 19395.8 372.948 264.406 172.293 19022.9 7093.8 3008.63 4085.18 11929.1 3929 8000.09 695.863 589.614 285.762 290.388 177.802
internal_count=1928294 676100 612395 609170 608559 63705 6158 3149 3225 3009 2748 2142 1022 1120 2476 2398 611 57547 1128 787 502 56419 21119 8899 12220 35300 11694 23606 2051 1727 867 827 514
is_linear=0
shrinkage=0.0283395


Tree=2
num_leaves=29
num_cat=0
split_feature=7 3 0 13 0 1 5 14 14 5 13 0 3 1 5 0 8 12 0 14 0 12 12 5 14 13 12 0
split_gain=2.35157e+06 35610.2 8959.98 1736.5 1607.54 673.823 352.422 131.953 17.5216 14.6649 14.6514 12.1017 9.0823 8.58437 7.70756 6.84279 6.29219 6.12487 5.48111 4.81747 8.73644 4.51062 3.47223 4.16397 3.44303 4.26691 4.64472 2.38954
threshold=0.049949999898672111 0.28260000050067907 0.062849998474121108 0.010049999691545965 0.039950000122189529 0.29164999723434454 0.006599999964237214 0.14080559462308886 1.3390499949455263 0.079549998044967665 0.02784999925643206 0.049249999225139625 0.45655000209808355 0.54164999723434459 0.071150001138448729 0.19614999741315844 0.32500000298023229 0.17500000447034839 0.043250000104308135 1.5570414066314699 0.14164999872446063 0.39999999105930334 0.32500000298023229 0.034350000321865089 1.7969430685043337 0.012749999761581423 0.32500000298023229 0.049850000068545348
decision_type=2 2 2 2 2 2 2 2 2 2 2 2 2 2 2 2 2 2 2 2 2 2 2 2 2 2 2 2
left_child=2 3 5 6 -3 27 -2 -6 9 16 12 18 22 19 -13 -11 -9 -5 -10 20 -14 -8 -4 -24 25 -19 -27 -1
right_child=1 4 10 17 7 -7 21 8 11 15 -12 14 13 -15 -16 -17 -18 24 -20 -21 -22 -23 23 -25 -26 26 -28 -29
leaf_value=-0.041349740428861623 0.076408833031527346 -0.041318219805790202 0.048387029461431225 0.046846613065015759 0.010164025700067959 0.037252460006652832 0.043185006298674104 0.037237549519034491 0.039068946279907799 0.040067420289738066 0.028118666810286273 0.04063812446745959 0.032212347085473526 0.031344344102249774 0.036890480289649343 0.046710009217100681 0.038563292795581003 0.04568501371244655 0.029740257100804645 0.045090675667334552 0.041079095878827736 0.0340899502577953 0.036803349359918164 0.04589035539694606 0.034674988478561444 0.035808626775548649 0.040968362690102747 -0.039642850598882694
leaf_weight=268683.09230579436 284344.40280990303 203.78689102828503 126.74473255872726 110.74864259362221 130.34999762475491 87.541130587458611 98.521264255046844 5009.2579324543476 93.10420548915863 330.94600236415863 90.010604798793793 5671.1119433492422 136.01770120859146 121.68851719796658 521.46795874834061 233.82464374601841 8504.9959313124418 111.42351271212101 137.36179038882256 127.05982458591461 320.62002354860306 100.56354458630085 87.230161741375923 101.81932000815868 125.16548298299313 235.89310921728611 488.00168028473854 843.48416323959827
leaf_count=1245930 608834 945 349 308 461 259 281 14822 272 961 281 16411 415 373 1545 651 24934 311 424 358 928 303 258 285 376 702 1408 3881
internal_value=0.0198723 0.0736375 -0.0409879 0.0762468 0.0378701 -0.0413189 0.0763824 0.0386526 0.0388334 0.0382637 0.0393169 0.0400811 0.0402976 0.0384406 0.0403236 0.0428294 0.0380724 0.0402199 0.0335374 0.0399088 0.0384524 0.038624 0.0444245 0.0417325 0.0394488 0.0401563 0.0392961 -0.0413444
internal_weight=577176 306451 270725 285615 20836.2 269614 284543 20632.4 20502.1 14079 1111.19 6423.05 1021.18 705.386 6192.58 564.771 13514.3 1071.23 230.466 583.698 456.638 199.085 315.794 189.049 960.484 835.318 723.895 269527
internal_count=1927266 673949 1253317 612523 61426 1250070 609418 60481 60020 41368 3247 18652 2966 2074 17956 1612 39756 3105 696 1701 1343 584 892 543 2797 2421 2110 1249811
is_linear=0
shrinkage=0.0283395


Tree=3
num_leaves=38
num_cat=0
split_feature=2 3 13 5 2 14 5 0 5 13 1 0 13 8 0 13 12 12 6 12 1 0 2 2 3 0 0 6 7 12 14 2 8 0 3 2 6
split_gain=2.20601e+06 31794 1653.71 329.521 22.0007 14.9601 11.4284 11.3139 8.51173 7.94582 14.2159 6.7464 6.55773 12.0712 10.4484 6.04901 6.95258 6.02901 6.09561 8.11291 9.24387 5.81188 15.7341 6.7281 6.04082 10.3323 7.09685 5.23542 4.71937 4.01615 3.9156 3.58945 10.3514 3.81258 2.85486 2.3981 1.11213
threshold=0.066299999132752432 0.28260000050067907 0.010049999691545965 0.006599999964237214 0.69804999232292186 1.3390499949455263 0.069099999964237227 0.049249999225139625 0.071150001138448729 0.017549999989569191 0.37500000000000006 0.043250000104308135 0.020049999468028549 0.47499999403953558 0.2396500036120415 0.024349999614059929 0.39999999105930334 0.22500000149011615 0.21004999428987506 0.32500000298023229 0.45835000276565557 0.088749997317790999 0.35424999892711645 0.17255000025033954 0.54344999790191661 0.16845000535249713 0.24665000289678576 0.12115000188350679 0.20564999431371692 0.39999999105930334 0.43962599337100988 0.17255000025033954 0.32500000298023229 0.11574999988079072 0.54344999790191661 0.70195001363754284 0.1430500000715256
decision_type=2 2 2 2 2 2 2 2 2 2 2 2 2 2 2 2 2 2 2 2 2 2 2 2 2 2 2 2 2 2 2 2 2 2 2 2 2
left_child=-1 2 3 4 -2 6 21 11 31 34 -11 -7 13 35 -15 16 -14 36 19 -19 -21 22 23 -3 25 -23 -26 -24 -20 -5 -17 32 -9 -33 -10 -8 -4
right_child=1 5 17 29 -6 7 12 8 9 10 -12 -13 15 14 -16 30 -18 18 28 20 -22 24 27 -25 26 -27 -28 -29 -30 -31 -32 33 -34 -35 -36 -37 -38
leaf_value=-0.040823927002336481 0.060819463295823557 0.038709327601075053 0.040659719033988712 0.04176454488717158 0.072877268271282714 0.038311803096576308 0.040055824085570776 0.027605878299295589 0.034687897810373972 0.0233730041815923 0.036960475243998134 0.028376247632247456 0.04692690229935919 0.029789347381095396 0.041360928063585697 0.042655760139477646 0.039315007014824897 0.033270980949635952 0.03794789893428159 0.037486097831872262 0.045429549044958349 0.035163956563625878 0.044019113351117037 0.035133839980114011 0.036205560075101062 0.038278266189509469 0.033958458750192988 0.037055048285931293 0.029322009902590495 0.033428002233490413 0.036813340415976462 0.040571469606667541 0.040031941170719447 0.038733183417758665 0.041107573995365562 0.03691649332430437 0.04575070653063279
leaf_weight=265564.97210133076 128.17514584958553 775.5769285261631 123.23439970612526 105.29628521203995 289489.57773324847 98.074297279119492 689.75922353565693 91.37625578045845 111.20257812738419 106.44206635653973 160.58885207772255 148.44492314755917 218.09778033196926 260.92217768728733 87.947115555405617 148.03183990716934 206.07785895466805 165.7744557261467 105.42278303205967 308.78749738633633 212.66735219955444 1440.3032359629869 387.23384317755699 1126.1221097409725 4835.5181418657303 2431.6425226479769 1629.7771925330162 131.00169795751572 122.43555253744125 108.02525851130486 380.24581284821033 1385.6926116198301 149.82556766271591 4414.2497753202915 172.57253603637218 382.45663301646709 101.8722287863493
leaf_count=1250949 302 2228 348 296 608541 282 1964 280 327 335 467 455 594 790 248 415 589 491 304 890 583 4226 1076 3306 14102 7003 4821 380 372 321 1104 3926 426 12649 488 1109 279
internal_value=0.0192502 0.0702299 0.072712 0.072846 0.072872 0.0373553 0.036848 0.0384766 0.0387046 0.0352109 0.0315687 0.0323556 0.038699 0.0374206 0.0327254 0.0405994 0.0432445 0.0386371 0.0375582 0.0389467 0.0407385 0.0365031 0.0378138 0.0365955 0.0361956 0.0371215 0.0356401 0.0422715 0.0333417 0.0375739 0.038463 0.039022 0.0353516 0.0391735 0.0386151 0.0389422 0.0429932
internal_weight=578505 312940 290971 289831 289618 21969.2 15130.7 6838.47 6591.95 550.806 267.031 246.519 2373.54 1421.09 348.869 952.453 424.176 1140.19 915.088 687.229 521.455 12757.2 2419.93 1901.7 10337.2 3871.95 6465.3 518.236 227.858 213.322 528.278 6041.14 241.202 5799.94 283.775 1072.22 225.107
internal_count=1927266 676317 612727 609460 608843 63590 43955 19635 18898 1617 802 737 6813 4111 1038 2702 1183 3267 2640 1964 1473 37142 6990 5534 30152 11229 18923 1456 676 617 1519 17281 706 16575 815 3073 627
is_linear=0
shrinkage=0.0283395


Tree=4
num_leaves=31
num_cat=0
split_feature=2 16 13 2 0 6 8 6 7 0 2 8 12 13 13 14 7 16 12 2 2 7 6 13 2 2 6 8 13 8
split_gain=2.06559e+06 29135.9 1517.48 274.234 8.42279 8.6855 10.4263 8.65025 6.74516 6.40993 5.88617 5.77152 5.11469 7.71086 7.40065 4.65484 4.36762 4.21999 8.64956 8.18842 5.48563 7.95483 5.38874 5.02152 4.19805 3.99146 3.95955 2.7952 2.67101 5.75267
threshold=0.066299999132752432 0.07391583546996118 0.010049999691545965 0.65810000896453869 0.049550000578165061 0.24374999850988391 0.47499999403953558 0.19385000318288806 0.035949999466538436 0.04474999941885472 0.84029999375343334 0.42499999701976782 0.39999999105930334 0.029649999924004081 0.0065500000491738328 1.0823040604591372 0.11744999885559083 0.14179307967424395 0.82500001788139354 0.93395000696182262 0.21050000190734866 0.1909499987959862 0.28865000605583196 0.012450000271201135 0.17255000025033954 0.54704999923706066 0.12115000188350679 0.37500000000000006 0.022850000299513343 0.37500000000000006
decision_type=2 2 2 2 2 2 2 2 2 2 2 2 2 2 2 2 2 2 2 2 2 2 2 2 2 2 2 2 2 2
left_child=-1 2 3 -2 5 6 9 8 27 24 11 16 13 -10 -14 -11 -4 18 19 -9 21 -19 -22 -20 -3 -18 -13 -6 29 -12
right_child=1 4 10 -5 7 -7 -8 17 12 15 28 26 14 -15 -16 -17 25 20 23 -21 22 -23 -24 -25 -26 -27 -28 -29 -30 -31
leaf_value=-0.040324527268929183 0.03391581374927647 0.042267815290134785 0.04251794263127133 0.069739772326252322 0.02706392824695885 0.025896436446562844 0.027887933823681987 0.039479900702004057 0.036451331743578855 0.028799445666078637 0.032835104653649846 0.035948476608723176 0.031505206016283295 0.027816280874444679 0.035462576213748445 0.036814532388897238 0.038204744068324387 0.037840371121450452 0.038423889848041078 0.035209142246421937 0.036295096901452058 0.028350886198956291 0.039897669999659845 0.029468783472251323 0.034214892254111715 0.031765537124614517 0.029154500549931475 0.033788768834522191 0.044279133557070111 0.043223958417059935
leaf_weight=261372.91130979359 172.42038328945637 174.29751092195511 128.28679877519608 294077.91534689069 107.23517629504204 122.72345624864101 162.80357445776463 1740.5575877577066 7227.8119049668312 124.60729040205479 91.505015090107918 156.14291630685329 433.81178958714008 90.391126319766045 6928.1798773556948 134.71577978134155 270.01745195686817 134.93360790610313 86.299126550555229 498.64932744204998 3357.4416809678078 171.64729607105255 415.32803571224213 155.34029842913151 91.021661087870598 131.50812518596649 155.38678881525993 127.67511637508869 119.21688328683376 98.070605620741844
leaf_count=1251319 495 480 352 609081 325 375 490 4869 20655 373 265 446 1280 272 19922 385 762 382 243 1433 9582 514 1157 462 264 386 464 372 322 266
internal_value=0.018685 0.0672345 0.0695918 0.0697188 0.0359873 0.0330556 0.0343243 0.0360976 0.0357078 0.0363091 0.0370911 0.0357969 0.0357867 0.0363456 0.0352303 0.0329884 0.0376757 0.0369829 0.0379658 0.0385318 0.0363836 0.0325488 0.0366934 0.0326942 0.03953 0.0361121 0.0325807 0.0307467 0.0405957 0.0382442
internal_weight=579059 317686 295400 294250 22285.5 810.169 687.446 21475.3 14915.1 524.642 1150.13 841.342 14680.2 7318.2 7361.99 259.323 529.812 6560.2 2480.85 2239.21 4079.35 306.581 3772.77 241.639 265.319 401.526 311.53 234.91 308.793 189.576
internal_count=1927993 676674 612839 609576 63835 2367 1992 61468 42826 1502 3263 2410 42129 20927 21202 758 1500 18642 7007 6302 11635 896 10739 705 744 1148 910 697 853 531
is_linear=0
shrinkage=0.0283395


Tree=5
num_leaves=32
num_cat=0
split_feature=2 3 13 5 2 2 0 6 6 2 2 3 13 13 0 2 2 12 13 13 7 6 2 2 12 2 2 13 13 13 13
split_gain=1.93866e+06 26939 1402.81 259.666 21.3365 8.04253 7.72192 8.03852 8.00896 8.06003 6.75657 8.66788 10.8229 7.45488 6.28531 7.79432 5.3989 5.42672 5.37822 10.5726 7.28653 4.67143 3.54399 3.46109 3.29124 2.97288 6.69806 2.41258 4.09706 2.08068 3.80544
threshold=0.066299999132752432 0.28260000050067907 0.010049999691545965 0.006599999964237214 0.69804999232292186 0.48745000362396246 0.049550000578165061 0.23785000294446948 0.1430500000715256 0.15879999846220019 0.2230000048875809 0.7173999845981599 0.012450000271201135 0.021949999965727333 0.24665000289678576 0.93665000796318065 0.84029999375343334 0.22500000149011615 0.0089499996975064295 0.0093499999493360537 0.082199998199939742 0.22074999660253528 0.27769999206066137 0.47294999659061437 0.77500000596046459 0.10545000061392786 0.17255000025033954 0.022850000299513343 0.017250000499188903 0.018649999983608726 0.011549999937415125
decision_type=2 2 2 2 2 2 2 2 2 2 2 2 2 2 2 2 2 2 2 2 2 2 2 2 2 2 2 2 2 2 2
left_child=-1 2 3 4 -2 -5 7 24 9 29 11 13 -13 -10 22 -16 17 -4 20 -20 -11 23 -12 -19 25 -3 -27 28 -18 30 -8
right_child=1 6 16 5 -6 -7 8 -9 10 18 14 12 -14 -15 15 -17 27 21 19 -21 -22 -23 -24 -25 -26 26 -28 -29 -30 -31 -32
leaf_value=-0.03985084929197634 0.055332661375533963 0.027423057626378946 0.039278263486010948 0.028849950174042582 0.066957863690918912 0.040397372520767034 0.040785546094819838 0.025346924530735809 0.032588458123705082 0.037170621399447323 0.03830124238098323 0.036676324463876676 0.025056930651877175 0.039973837418983429 0.035872413454521711 0.032252971817789501 0.040967280257658389 0.03686052541768569 0.040772456860040163 0.034236144696576203 0.031794225378252966 0.02850138145953348 0.035825328037368306 0.031961591844185594 0.037120449685069425 0.036794196488436785 0.02939930828268086 0.042552076524901505 0.03208710063088642 0.041356164665351101 0.032041539930487598
leaf_weight=257046.22132016718 133.33716824650764 107.22048355638981 166.16109758615494 90.093426331877708 297424.18845011294 122.07630349695683 89.330178201198578 135.75831761956215 351.23690584301949 253.93861192464828 590.15512914955616 99.960993304848671 204.06488624215126 177.64413794875145 1086.3197435438633 965.29557725787163 101.0443219691515 283.96097216010094 213.64583130180836 9627.4346484392881 1482.885417625308 144.3901387155056 6276.7358214110136 254.44004118442535 149.65926963090897 213.63367906212807 210.7509159296751 120.52081669867039 90.311230391263962 158.54383406043053 94.990778297185898
leaf_count=1251319 308 318 456 266 608672 330 244 411 1009 711 1634 280 614 487 3056 2780 272 793 584 27419 4291 428 17654 733 419 599 620 322 259 431 274
internal_value=0.0181634 0.0645587 0.0668091 0.0669303 0.0669527 0.0355249 0.0346461 0.0318465 0.0347514 0.0342416 0.0353739 0.0328326 0.0288988 0.0350816 0.0356105 0.0341726 0.0357041 0.0344669 0.0341101 0.0343787 0.0325841 0.0332864 0.0360391 0.0345575 0.0331322 0.031997 0.0331373 0.0390506 0.0368106 0.0386654 0.036315
internal_weight=578466 321420 298931 297770 297558 212.17 22489.2 817.023 21672.2 11920.8 9751.41 832.907 304.026 528.881 8918.51 2051.62 1160.83 848.952 11577.9 9841.08 1736.82 682.791 6866.89 538.401 681.264 531.605 424.385 311.876 191.356 342.865 184.321
internal_count=1927993 676674 612839 609576 608980 596 63835 2367 61468 33954 27514 2390 894 1496 25124 5836 3263 2410 33005 28003 5002 1954 19288 1526 1956 1537 1219 853 531 949 518
is_linear=0
shrinkage=0.0283395


Tree=6
num_leaves=35
num_cat=0
split_feature=2 3 13 2 7 7 14 13 2 8 13 7 3 0 2 13 13 2 8 13 2 2 8 12 13 12 12 8 3 13 3 2 13 7
split_gain=1.82353e+06 25077.3 1252.27 249.081 6.45011 6.90117 5.68282 5.64295 5.27275 8.37091 5.24763 4.41321 5.85773 4.26959 5.79232 20.6943 7.8644 3.96502 7.14956 3.93443 3.90857 5.48248 3.90028 6.43232 5.31965 3.1288 4.21697 2.56951 10.0421 5.34552 2.43882 2.43411 1.60465 0.568661
threshold=0.066299999132752432 0.28260000050067907 0.010049999691545965 0.65810000896453869 0.15444999933242801 0.24994999915361407 1.3390499949455263 0.027150000445544723 0.3949000090360642 0.47499999403953558 0.01925000082701445 0.034749999642372138 0.63044998049736034 0.062849998474121108 0.42189998924732214 0.0059500001370906839 0.024349999614059929 0.17810000479221347 0.27500000596046453 0.028050000779330734 0.49440000951290136 0.84029999375343334 0.22500000149011615 0.22500000149011615 0.024149999953806404 0.62500000000000011 0.27500000596046453 0.42499999701976782 0.7173999845981599 0.020350000821053985 0.63044998049736034 0.28155000507831579 0.024349999614059929 0.33005000650882726
decision_type=2 2 2 2 2 2 2 2 2 2 2 2 2 2 2 2 2 2 2 2 2 2 2 2 2 2 2 2 2 2 2 2 2 2
left_child=-1 2 3 -2 10 25 11 17 31 19 -4 12 -3 27 15 -15 -16 18 -8 -10 33 -22 24 -24 -19 26 -6 29 -29 -13 -20 -9 -12 -7
right_child=1 6 4 -5 5 20 7 8 9 -11 32 13 -14 14 16 -17 -18 22 30 -21 21 -23 23 -25 -26 -27 -28 28 -30 -31 -32 -33 -34 -35
leaf_value=-0.039401134664379535 0.030070082223909923 0.03334822120214908 0.041764825540324964 0.064448597828811807 0.032558590682179894 0.04093973402800774 0.024434264015619728 0.030676745407704587 0.030770643690379192 0.026973476134058812 0.031821586152328607 0.037716640976398562 0.023280078392693138 0.02132336940973073 0.033774648452900326 0.032402656569640996 0.0318379470191597 0.037512961949096632 0.036313139893053091 0.037203058209237132 0.029378078005099482 0.037977950368522417 0.036328538050326598 0.033738205944523897 0.029844872360940546 0.034638043074259883 0.024180915257328243 0.036126139096092441 0.027649992602452531 0.032855350105885708 0.030710212952347563 0.024370820445558595 0.037517305263642928 0.036527919274286932
leaf_weight=252629.20664715767 170.05737966299057 106.46658234298229 183.34733913838863 300271.74352122843 96.976638793945312 105.36957313120365 95.039777532219887 136.54429104924202 123.67587505280972 135.52850930392742 100.908925101161 506.87569476664066 94.252761617302895 144.18341180682182 7933.9014180600643 3651.9527571946383 2323.6464300900698 670.33970949053764 158.26303851604462 296.42364177107811 144.99261249601841 118.69239947199821 1053.7250748574734 4025.0199307054281 91.627948254346848 93.836541622877121 118.38714969158173 316.59019821882248 188.37433551251888 333.1198273152113 146.40979054570198 101.12969979643822 113.59240633249283 91.814615771174431
leaf_count=1251093 484 301 486 608946 273 282 284 391 353 396 286 1390 284 439 22301 10352 6611 1833 438 813 419 321 2904 11279 263 261 352 877 550 941 421 300 310 253
internal_value=0.0176813 0.0621563 0.0643153 0.0644292 0.035015 0.0334316 0.0333851 0.0340841 0.0317263 0.0332996 0.0380632 0.0330695 0.0286528 0.0331267 0.0329716 0.0319835 0.0333366 0.0343828 0.031469 0.035325 0.0357035 0.033274 0.034581 0.0342769 0.0365994 0.0300242 0.0279835 0.0347429 0.0329771 0.0357966 0.0336422 0.0280209 0.0348684 0.038919
internal_weight=576872 324243 301610 300442 1167.92 770.07 22633.1 7033.73 793.302 555.628 397.849 15599.4 200.719 15398.6 14053.7 3796.14 10257.5 6240.43 399.713 420.1 460.869 263.685 5840.71 5078.75 761.968 309.2 215.364 1344.96 504.965 839.996 304.673 237.674 214.501 197.184
internal_count=1927487 676394 612673 609430 3243 2161 63721 19675 2253 1562 1082 44046 585 43461 39703 10791 28912 17422 1143 1166 1275 740 16279 14183 2096 886 625 3758 1427 2331 859 691 596 535
is_linear=0
shrinkage=0.0283395


Tree=7
num_leaves=40
num_cat=0
split_feature=2 3 13 5 2 6 7 7 13 13 2 13 13 0 0 2 7 5 7 2 13 2 5 3 14 13 5 3 7 2 2 3 8 11 2 5 5 13 7
split_gain=1.71916e+06 23554.9 1177.1 244.397 20.1592 6.70175 5.93348 6.35548 4.81342 4.34883 9.97793 10.6265 9.41825 11.4464 8.35362 8.07167 12.1697 6.30376 6.23978 5.65199 5.09228 6.01521 5.00532 4.0254 4.37949 4.15696 4.14093 4.43743 4.03006 3.5762 5.06341 3.4292 3.38274 3.26267 2.81323 2.78219 2.09509 1.46071 0.498175
threshold=0.066299999132752432 0.28260000050067907 0.010049999691545965 0.006599999964237214 0.69804999232292186 0.26645000278949743 0.15444999933242801 0.24994999915361407 0.01925000082701445 0.015150000341236593 0.44799999892711645 0.0059500001370906839 0.020750000141561035 0.26704999804496771 0.11574999988079072 0.4837500005960465 0.1909499987959862 0.051049999892711646 0.035649999976158149 0.27769999206066137 0.019849999807775024 0.20664999634027484 0.006599999964237214 0.6739499866962434 2.4703083038330083 0.026950000785291198 0.071150001138448729 0.63044998049736034 0.21294999867677691 0.49440000951290136 0.84029999375343334 0.5000000149011613 0.27500000596046453 1.0000000180025095e-35 0.82615000009536754 0.042749999091029174 0.038549998775124557 0.024349999614059929 0.33005000650882726
decision_type=2 2 2 2 2 2 2 2 2 2 2 2 2 2 2 2 2 2 2 2 2 2 2 2 2 2 2 2 2 2 2 2 2 2 2 2 2 2 2
left_child=-1 2 3 4 -2 9 8 34 -4 10 11 19 20 18 -13 16 -12 -15 -14 -3 21 -11 -17 26 25 33 27 32 -28 38 -31 -22 -7 -25 35 -8 -5 -10 -9
right_child=1 5 6 36 -6 23 7 29 37 12 15 14 13 17 -16 22 -18 -19 -20 -21 31 -23 -24 24 -26 -27 28 -29 -30 30 -32 -33 -34 -35 -36 -37 -38 -39 -40
leaf_value=-0.038973765380817933 0.051062065061879602 0.02944270562500674 0.040218068019404092 0.03543939676928317 0.062201940056066232 0.038033579178102794 0.029871711613890402 0.039423125472119978 0.03070322919427225 0.029304080240732024 0.042597101010506559 0.031894695546304544 0.024821674751473243 0.027189581446989523 0.028477548259826683 0.033541438419070625 0.031688247541570326 0.032337219781595226 0.032288303596087163 0.021096246830068194 0.038649950489855707 0.03333595247073063 0.031382926956978079 0.030020553746201165 0.036999113688847236 0.02542663115705308 0.035105940560267286 0.040958784937026482 0.026344645630160774 0.028356598016490524 0.036606889375182659 0.034251268252754513 0.033817554290134805 0.034124362443193557 0.033544188358879137 0.022915065714634111 0.029134752060158781 0.036157579509651726 0.035206811334455815
leaf_weight=248224.42995789647 137.06009802222252 124.72696556150913 184.97898660600185 92.022097676992416 302126.31093280017 236.01510500907898 133.23017431795597 106.30854141712189 101.61059829592705 355.20001010596752 154.82195584475994 1751.2139683365822 98.68908029794693 660.23803879320621 931.39383234083652 1287.984299749136 193.7294362783432 297.01520182192326 6587.1196627765894 157.78917559981346 238.9668972492218 3566.8176463991404 3622.2725152522326 348.19613930583 147.23491275310516 93.409923642873764 93.557098880410194 121.87556421756744 95.460635244846344 145.94485874474049 119.63455204665661 541.9857744127512 722.12576070427895 372.21818993985653 89.227019131183624 88.763917624950409 122.42589236795902 114.51062153279781 92.549722790718079
leaf_count=1251093 312 357 486 250 608523 631 378 282 286 1012 404 4907 291 1906 2665 3573 543 830 18402 475 640 9895 10176 984 397 272 257 320 277 419 321 1495 1989 1023 245 263 345 310 253
internal_value=0.017238 0.0599794 0.0620654 0.0621754 0.0621969 0.0321981 0.0337647 0.032248 0.0366812 0.0320319 0.031498 0.0301501 0.0323869 0.0317559 0.0307107 0.0322567 0.0365527 0.0287936 0.0321791 0.024804 0.0334111 0.0329725 0.0319504 0.0337286 0.032253 0.0313862 0.034841 0.035557 0.0307157 0.0344224 0.0320977 0.0356057 0.0348629 0.03215 0.0289823 0.0271193 0.0318707 0.0336235 0.037494
internal_weight=574679 326455 303655 302478 302263 22800.1 1176.76 775.659 401.1 20570 8223.93 2965.12 12346 7643.06 2682.61 5258.81 348.551 957.253 6685.81 282.516 4702.97 3922.02 4910.26 2230.09 961.059 813.824 1269.03 1080.02 189.018 464.438 265.579 780.953 958.141 720.414 311.221 221.994 214.448 216.121 198.858
internal_count=1927487 676394 612673 609430 608835 63721 3243 2161 1082 57571 23100 8404 34471 21429 7572 14696 947 2736 18693 832 13042 10907 13749 6150 2676 2279 3474 2940 534 1275 740 2135 2620 2007 886 641 595 596 535
is_linear=0
shrinkage=0.0283395


Tree=8
num_leaves=34
num_cat=0
split_feature=2 3 13 5 2 12 6 5 3 2 7 7 13 8 12 5 7 3 7 0 0 2 13 2 1 6 2 13 5 3 13 7 5
split_gain=1.62288e+06 22385 1161.89 246.854 17.7284 6.52684 6.26685 8.53029 6.10688 5.9221 4.55121 4.19863 6.0535 4.18912 4.05903 11.7132 6.4792 6.1863 5.4413 4.12109 3.98672 9.2012 6.3935 3.16196 3.32462 4.42398 3.18503 4.74527 3.67668 1.89542 1.72785 1.37092 1.26606
threshold=0.066299999132752432 0.28260000050067907 0.010049999691545965 0.006599999964237214 0.69804999232292186 0.39999999105930334 0.26064999401569372 0.079549998044967665 0.7608499825000764 0.17255000025033954 0.037149999290704734 0.30795000493526464 0.015749999321997169 0.37500000000000006 0.22500000149011615 0.026049999520182613 0.1909499987959862 0.36954998970031744 0.24994999915361407 0.14164999872446063 0.11574999988079072 0.33605000376701361 0.022149999625980858 0.93395000696182262 0.37500000000000006 0.12115000188350679 0.37144999206066137 0.018949999473989013 0.040650000795722015 0.63044998049736034 0.017849999479949478 0.1909499987959862 0.042749999091029174
decision_type=2 2 2 2 2 2 2 2 2 2 2 2 2 2 2 2 2 2 2 2 2 2 2 2 2 2 2 2 2 2 2 2 2
left_child=-1 2 3 4 -2 -5 7 10 11 -8 13 12 -9 -3 15 -11 17 -16 -18 -17 22 -22 -12 24 25 -4 27 -26 -28 -15 -25 -10 -27
right_child=1 6 23 5 -6 -7 9 8 31 14 20 -13 -14 29 16 19 18 -19 -20 -21 21 -23 -24 30 26 32 28 -29 -30 -31 -32 -33 -34
leaf_value=-0.038567272063586767 0.049838853108940456 0.024000905811733926 0.032115325529779221 0.035008903378430302 0.060159712407655969 0.024882608168025479 0.026452956564506122 0.029534862507221656 0.026805694498023693 0.02747664065140247 0.030757275121558292 0.040845710845779461 0.037495405945551737 0.03333304328209364 0.036429329118430671 0.041439451149677099 0.036724660932247938 0.029102302460858709 0.032181367410843979 0.034984077592004122 0.027375826455094007 0.030668662165447926 0.03288675681523829 0.038195038853046641 0.040190171505416553 0.028109063766689524 0.027989706603666838 0.030953229254679897 0.034181194043884852 0.027115021306136369 0.03266377025002045 0.032146796028801966 0.022773883191488212
leaf_weight=243825.70300403237 141.08125546574593 171.57100412249565 173.68328312039375 110.70174096524715 303169.93529072404 108.66138444840908 141.00970834493637 142.19308967888355 91.648884400725365 127.55180282890797 3839.4905114769936 117.47923922538757 202.91884188354015 102.03520815074444 115.41793712973595 154.19464358687401 329.09831376373768 730.55542799830437 791.14397776126862 221.91011717915535 759.58828377723694 12883.961098313332 1789.4825015068054 97.858015164732933 98.121529191732407 96.149273470044136 200.69493059813976 101.85962900519371 154.22953879833221 95.575924694538116 154.32002010941505 119.63313782215118 92.232205867767334
leaf_count=1251250 318 501 477 296 607845 312 405 398 261 360 10688 305 539 280 308 398 877 2046 2172 598 2161 35878 4912 255 255 272 567 282 419 274 420 329 270
internal_value=0.0167926 0.0579926 0.0600245 0.0601332 0.0601549 0.0300225 0.0309866 0.0308119 0.0340352 0.0323436 0.030701 0.0359277 0.0342345 0.0274215 0.0326773 0.0350852 0.0320571 0.0301097 0.0335219 0.0376482 0.0307635 0.0304858 0.0314354 0.0318157 0.0309778 0.0287076 0.0324473 0.0355182 0.0306986 0.0303586 0.0348363 0.0298608 0.0255313
internal_weight=571452 327626 304700 303530 303311 219.363 22926.5 20315.6 673.873 2610.88 19641.7 462.591 345.112 369.182 2469.87 503.657 1966.22 845.973 1120.24 376.105 19272.5 13643.5 5628.97 1169.15 916.97 362.065 554.906 199.981 354.924 197.611 252.178 211.282 188.381
internal_count=1926928 675678 611988 608771 608163 608 63690 56526 1832 7164 54694 1242 937 1055 6759 1356 5403 2354 3049 996 53639 38039 15600 3217 2542 1019 1523 537 986 554 675 590 542
is_linear=0
shrinkage=0.0283395


Tree=9
num_leaves=34
num_cat=0
split_feature=2 16 13 5 2 12 6 5 16 2 7 12 7 13 14 18 5 12 5 7 16 7 18 13 2 1 6 2 13 5 13 7 5
split_gain=1.53554e+06 21291.3 1105.6 234.355 17.0286 6.05658 5.84072 7.91529 5.64026 5.4968 4.21748 4.08088 3.86198 5.59033 3.84103 5.54054 3.83068 3.7477 10.835 5.99259 5.72292 5.02221 3.78781 3.71649 2.93592 3.06994 4.09828 2.93972 4.37667 3.39311 1.58887 1.2565 1.1642
threshold=0.066299999132752432 0.07391583546996118 0.010049999691545965 0.006599999964237214 0.69804999232292186 0.39999999105930334 0.26064999401569372 0.079549998044967665 0.19787227362394336 0.17255000025033954 0.037149999290704734 0.62500000000000011 0.30795000493526464 0.015749999321997169 0.23658198863267901 0.78369623422622692 0.04474999941885472 0.22500000149011615 0.026049999520182613 0.1909499987959862 0.096595544368028655 0.24994999915361407 0.72566497325897228 0.014849999919533731 0.93395000696182262 0.37500000000000006 0.12115000188350679 0.37144999206066137 0.018949999473989013 0.040650000795722015 0.017849999479949478 0.1909499987959862 0.042749999091029174
decision_type=2 2 2 2 2 2 2 2 2 2 2 2 2 2 2 2 2 2 2 2 2 2 2 2 2 2 2 2 2 2 2 2 2
left_child=-1 2 3 4 -2 -5 7 10 12 -8 11 23 13 -9 15 -12 -16 18 -11 20 -19 -21 -20 -3 25 26 -4 28 -27 -29 -26 -10 -28
right_child=1 6 24 5 -6 -7 9 8 31 17 14 -13 -14 -15 16 -17 -18 19 22 21 -22 -23 -24 -25 30 27 32 29 -30 -31 -32 -33 -34
leaf_value=-0.038180326801448485 0.048207267947979235 0.023668147401638147 0.031018234407518795 0.033807273956784602 0.058301768529426978 0.024065178660290308 0.025568128267809402 0.028536521433906753 0.025912377034844645 0.026561998833892816 0.032750069474574123 0.02156503780483706 0.039386322292545878 0.036176993988439883 0.029929709933793357 0.026445289645728336 0.029015079966752136 0.035158497950825908 0.039958153729294031 0.03544113270929837 0.028123121271256313 0.031081704131285061 0.033772138999491129 0.031088372075838974 0.036870748361400973 0.038764815562689091 0.027164568828960664 0.027051816374206346 0.029901328969119411 0.032998109065074083 0.031551567582542461 0.031046465516803835 0.022029804807273946
leaf_weight=239380.36991605163 141.71335628628731 94.540329292416573 174.71517051756382 111.37802550196648 303952.99018079042 109.1612690538168 141.74462679028511 142.98561497032642 92.115065649151802 128.19554042816162 712.12827207148075 106.52601592242718 118.36668203771114 204.33299349248409 12317.618957400322 147.34264381229877 6208.4164801090956 116.18956884741783 155.36196978390217 331.31988015770912 734.50892825424671 795.85100159049034 223.3381370306015 170.111024081707 98.490860432386398 98.836138725280762 96.665469825267792 201.75294367969036 102.44640366733074 155.21732807159424 155.21932652592659 120.35228376090527 92.639671131968498
leaf_count=1251250 318 273 477 296 607845 312 405 398 261 360 1935 312 305 539 34033 417 17254 308 398 877 2046 2172 598 470 255 255 272 567 282 419 420 329 270
internal_value=0.0164121 0.0561877 0.0581699 0.0582759 0.0582971 0.0290147 0.0299299 0.0297615 0.03286 0.0312377 0.0296548 0.0265001 0.034675 0.0330503 0.0297149 0.0316768 0.0296236 0.0315585 0.0338705 0.0309627 0.0290917 0.0323689 0.0363274 0.0284621 0.0307329 0.0299255 0.027743 0.0313369 0.0342862 0.0296556 0.0336424 0.0288512 0.0246859
internal_weight=567933 328553 305491 304315 304095 220.539 23061.3 20434.8 678.153 2626.51 19756.7 371.177 465.685 347.319 19385.5 859.471 18526 2484.77 506.896 1977.87 850.698 1127.17 378.7 264.651 1175.98 922.273 364.02 558.253 201.283 356.97 253.71 212.467 189.305
internal_count=1926928 675678 611988 608771 608163 608 63690 56526 1832 7164 54694 1055 1242 937 53639 2352 51287 6759 1356 5403 2354 3049 996 743 3217 2542 1019 1523 537 986 675 590 542
is_linear=0
shrinkage=0.0283395


Tree=10
num_leaves=35
num_cat=0
split_feature=2 3 13 5 2 6 3 14 12 13 0 5 12 6 6 13 5 13 13 13 13 0 6 5 12 13 5 12 8 8 6 13 2 2
split_gain=1.45682e+06 20181 1035.91 228.192 14.4684 7.27741 4.93799 4.66913 8.50032 5.55468 7.30426 4.524 4.00545 3.6571 6.10167 7.9723 4.92511 4.59078 3.66798 2.95885 3.23081 4.34979 3.41286 4.17225 3.7124 2.60676 7.09045 7.37052 6.10083 4.7019 3.67509 2.26582 2.1038 2.73301
threshold=0.066299999132752432 0.28260000050067907 0.010049999691545965 0.006599999964237214 0.69804999232292186 0.26645000278949743 0.84784999489784252 0.23658198863267901 0.22500000149011615 0.026549999602139 0.088749997317790999 0.063549999147653594 0.32500000298023229 0.1430500000715256 0.23785000294446948 0.0083499997854232805 0.081599999219179167 0.026349999941885475 0.0063499999232590207 0.012149999849498274 0.025649999268352989 0.14164999872446063 0.076150000095367446 0.012850000057369472 0.39999999105930334 0.013650000095367433 0.036450000479817397 0.32500000298023229 0.27500000596046453 0.47499999403953558 0.29404999315738684 0.018150000832974914 0.45434999465942388 0.7681500017642976
decision_type=2 2 2 2 2 2 2 2 2 2 2 2 2 2 2 2 2 2 2 2 2 2 2 2 2 2 2 2 2 2 2 2 2 2
left_child=-1 2 3 4 -2 7 25 8 31 10 -10 32 -5 16 18 -16 17 -9 -15 -4 22 -22 23 -21 -24 28 29 -28 -7 -27 -30 -3 -8 -34
right_child=1 5 19 12 -6 6 11 13 9 -11 -12 -13 -14 14 15 -17 -18 -19 -20 20 21 -23 24 -25 -26 26 27 -29 30 -31 -32 -33 33 -35
leaf_value=-0.037811686483574532 0.047376394068889702 0.021861971770542287 0.034564812819860485 0.032824784544544627 0.056604497472390075 0.037714528291045664 0.032725579305986782 0.028655478986719368 0.037281063216263843 0.038001992433136296 0.029626547898525073 0.021914527369292003 0.02471364671909328 0.032801146972613708 0.022916133888373824 0.028563363917192261 0.034449793575158059 0.026968027142963927 0.029570360572550282 0.028050989185124688 0.036826777097903322 0.029081977648198615 0.024315855950268937 0.035389498545483712 0.02943527315555481 0.034695973265494839 0.032098223968288146 0.025965459935421775 0.029871709273856302 0.028187261746015206 0.036556177524841145 0.028585787537867866 0.023529748197013242 0.030878880718652225
leaf_weight=235068.64991618693 145.14823661744595 91.843930393457413 117.19966265559196 91.141312062740326 304587.19715774059 167.94614619016647 114.1629447042942 10070.688666731119 133.46097609400749 123.21862900257111 536.71290153264999 93.173346281051636 134.3063188791275 336.45146867632866 243.44943548738956 1631.5879992246628 119.85842280089855 1655.2164662629366 5951.3019771724939 168.86564801633358 111.42915116250515 156.58040376007557 244.453298792243 118.29457685351372 263.52737861871719 384.86602030694485 283.84806616604328 405.71081912517548 387.693613499403 133.41631311178207 92.88193216919899 97.73346172273159 91.625516787171364 96.729262158274651
leaf_count=1252000 323 264 307 241 608643 431 305 27750 347 319 1470 267 378 903 694 4487 316 4612 16275 464 290 428 689 309 720 1012 760 1133 1053 367 241 269 259 261
internal_value=0.0160816 0.0545435 0.0564764 0.056579 0.0566001 0.0290851 0.0306635 0.0289155 0.0309133 0.0322315 0.0311607 0.0276483 0.0280216 0.028817 0.0293062 0.0278336 0.0284794 0.0284178 0.0297443 0.0299671 0.0294541 0.0323264 0.0284778 0.0310968 0.0269844 0.0313027 0.0304502 0.0284994 0.0328804 0.0330331 0.0311773 0.0253624 0.0293929 0.0273383
internal_weight=564450 329382 306138 304958 304732 23243.6 2252.05 20991.5 982.97 793.393 670.174 395.691 225.448 20008.6 8162.79 1875.04 11845.8 11725.9 6287.75 1180.35 1063.15 268.01 795.141 287.16 507.981 1856.36 1207.84 689.559 648.522 518.282 480.576 189.577 302.518 188.355
internal_count=1928587 676587 612792 609585 608966 63795 6089 57706 2669 2136 1817 1092 619 55037 22359 5181 32678 32362 17178 3207 2900 718 2182 773 1409 4997 3272 1893 1725 1379 1294 533 825 520
is_linear=0
shrinkage=0.0283395


Tree=11
num_leaves=36
num_cat=0
split_feature=2 3 13 5 2 6 7 12 5 8 7 3 7 7 14 12 0 13 2 13 13 3 12 0 14 13 8 0 5 8 7 5 5 12 6
split_gain=1.38249e+06 19394.9 996.489 218.9 14.1259 6.82056 6.47667 7.3228 8.39999 8.43731 5.88216 8.48792 5.6484 5.62442 4.73143 7.32589 4.66913 4.11922 7.62881 4.00176 7.31377 3.81237 3.7295 3.68598 3.63459 3.55751 3.43158 8.49386 5.14748 3.23375 3.32496 2.92289 2.75411 1.25714 1.17931
threshold=0.066299999132752432 0.28260000050067907 0.010049999691545965 0.006599999964237214 0.69804999232292186 0.26645000278949743 0.1909499987959862 0.22500000149011615 0.026049999520182613 0.37500000000000006 0.039349999278783805 0.45655000209808355 0.15444999933242801 0.24994999915361407 0.23658198863267901 0.22500000149011615 0.220150001347065 0.021650000475347046 0.52895000576972973 0.014849999919533731 0.021650000475347046 0.89129999279975902 0.32500000298023229 0.25315000116825109 1.0823040604591372 0.018150000832974914 0.47499999403953558 0.04474999941885472 0.051049999892711646 0.22500000149011615 0.24994999915361407 0.040650000795722015 0.023950000293552879 0.62500000000000011 0.28335000574588781
decision_type=2 2 2 2 2 2 2 2 2 2 2 2 2 2 2 2 2 2 2 2 2 2 2 2 2 2 2 2 2 2 2 2 2 2 2
left_child=-1 2 3 4 -2 10 7 31 34 -10 11 -3 17 24 15 25 33 18 -4 -13 -21 29 -5 -17 -14 -12 28 -28 -16 -8 -31 -7 -26 -15 -9
right_child=1 5 12 22 -6 6 21 8 9 -11 14 19 13 16 26 23 -18 -19 -20 20 -22 -23 -24 -25 32 -27 27 -29 -30 30 -32 -33 -34 -35 -36
leaf_value=-0.037460214454211438 0.04594111010536741 0.030984135809800192 0.028361271263462776 0.031743248890169856 0.055048906484709184 0.028855132918068811 0.027320397320932759 0.028832219378341017 0.028075380598116994 0.020779973037022181 0.020532487686630057 0.018564680545102717 0.028226465388874005 0.032682022818242715 0.027805220740698727 0.032264074618746016 0.024735740895729736 0.028254760021916465 0.03905132995864579 0.030347810337145856 0.020094457579334091 0.026641505720028061 0.023918684005347107 0.026841922467382422 0.01794713957639682 0.02880130130536749 0.018489985726072442 0.027416022211766051 0.029007052288028325 0.034939756203623523 0.031077142046505725 0.036276920238973415 0.025341529326424365 0.028240861209873874 0.033739593133883569
leaf_weight=230613.59346617758 145.43671220541 138.14066749811172 102.44942060112953 91.569684967398643 304321.24788117409 96.221154317259789 143.63256067037582 116.6993420124054 271.0195759087801 261.70401921868324 89.738701239228249 138.23487450182438 130.10624213516712 236.8955240547657 10248.915523245931 639.94928951561451 129.93471747636795 171.54641246795654 130.78408515453339 110.18233139812946 126.38486233353615 160.28342771530151 134.83003178238869 139.06341162323952 90.362973347306252 95.991351023316383 91.664650663733482 4806.7933285832405 4464.4474098086357 291.12892401218414 710.09056827425957 104.9075743407011 91.477127224206924 102.24801082909107 106.97755496203899
leaf_count=1252000 323 371 277 241 608643 260 391 316 738 748 258 404 354 625 28073 1700 361 466 328 298 367 440 378 384 263 261 267 13195 12128 754 1893 269 255 278 280
internal_value=0.0157504 0.0530224 0.0549229 0.0550238 0.0550446 0.0281277 0.0296535 0.0278175 0.0264949 0.0245036 0.0279637 0.0248552 0.0289829 0.0275133 0.0280409 0.0300668 0.0295405 0.0318024 0.0343837 0.0225789 0.0248974 0.0309955 0.0271121 0.0313045 0.0244441 0.0248409 0.0279409 0.0272503 0.0281703 0.0315995 0.0322068 0.0327588 0.0217023 0.0313623 0.0312085
internal_weight=559845 329231 305879 304693 304467 23352.2 2262.66 957.529 756.4 532.724 21089.5 512.943 1185.8 781.025 20576.6 964.743 469.078 404.78 233.234 374.802 236.567 1305.14 226.4 779.013 311.946 185.73 19611.8 4898.46 14713.4 1144.85 1001.22 201.129 181.84 339.144 223.677
internal_count=1928587 676587 612792 609585 608966 63795 6089 2611 2082 1486 57706 1440 3207 2136 56266 2603 1264 1071 605 1069 665 3478 619 2084 872 519 53663 13462 40201 3038 2647 529 518 903 596
is_linear=0
shrinkage=0.0283395


Tree=12
num_leaves=26
num_cat=0
split_feature=2 3 5 2 2 7 2 5 8 14 12 1 0 3 12 14 12 11 2 12 14 7 2 7 5
split_gain=1.31278e+06 18788.9 970.806 215.998 8.44424 6.73619 6.72035 6.27269 6.04071 4.98946 5.18628 4.39897 10.9844 4.93681 7.14111 4.3155 6.33242 5.74934 4.0471 3.53927 3.41608 2.66924 2.16642 1.87618 0.92562
threshold=0.066299999132752432 0.28260000050067907 0.006599999964237214 0.66589999198913585 0.3949000090360642 0.031549999490380294 0.54330000281333934 0.042749999091029174 0.47499999403953558 2.4703083038330083 0.32500000298023229 0.29164999723434454 0.088749997317790999 0.6739499866962434 0.17500000447034839 0.43962599337100988 0.22500000149011615 1.0000000180025095e-35 0.70195001363754284 0.17500000447034839 0.65805739164352428 0.20564999431371692 0.87430000305175792 0.23525000363588336 0.026049999520182613
decision_type=2 2 2 2 2 2 2 2 2 2 2 2 2 2 2 2 2 2 2 2 2 2 2 2 2
left_child=-1 2 3 21 7 -3 23 -4 9 15 -11 12 24 20 -15 16 -7 -17 -8 -14 -13 -2 -20 -6 -10
right_child=1 5 4 -5 6 8 18 -9 11 10 -12 13 19 14 -16 17 -18 -19 22 -21 -22 -23 -24 -25 -26
leaf_value=-0.037124868609457178 0.028299738154133718 0.019314322747635344 0.027713351929030093 0.053611787845269661 0.03083013470121302 0.025454435199006142 0.023872556239812992 0.019831279228326022 0.024175917542474189 0.026313899477670707 0.034779271792874329 0.024723595042866597 0.034558739558062566 0.029947911353028295 0.024280576843754759 0.026631443555457671 0.029417636859496336 0.027779441590813241 0.032425914964263065 0.028654143356045898 0.027363597935827853 0.021480036987059851 0.027604037981364491 0.036943375264065478 0.019698734697074324
leaf_weight=225950.37102627754 105.2198158800602 93.369944244623184 167.94002987444401 303797.21048782766 113.28949491679668 433.57202656567097 184.87476123869419 175.87369446456432 99.027835518121719 105.24848394095898 161.39788356423378 563.22444143891335 103.526521936059 209.94246456027031 1832.2042455077171 7468.3035363405943 1736.2388303279877 7595.2788278907537 134.10284771025181 843.15381690859795 2062.4810792058706 106.24899184703827 280.93267877399921 95.426802814006805 104.63740701973438
leaf_count=1250808 280 269 454 609109 301 1195 514 501 275 286 414 1558 268 561 5084 20396 4658 20583 351 2273 5604 295 751 243 299
internal_value=0.0154571 0.0516163 0.0534934 0.0535918 0.0275206 0.027149 0.029137 0.0237001 0.0271801 0.0274521 0.0314623 0.0263612 0.0280023 0.0259553 0.0248664 0.0273896 0.0286287 0.0272107 0.0275536 0.0293068 0.0267998 0.0249038 0.0291778 0.0336566 0.0219072
internal_weight=554523 328573 305161 304009 1152.44 23411.6 808.627 343.814 23318.2 17500 266.646 5818.2 1150.35 4667.85 2042.15 17233.4 2169.81 15063.6 599.91 946.68 2625.71 211.469 415.036 208.716 203.665
internal_count=1927330 676522 612799 609684 3115 63723 2160 955 63454 47532 700 15922 3115 12807 5645 46832 5853 40979 1616 2541 7162 575 1102 544 574
is_linear=0
shrinkage=0.0283395


Tree=13
num_leaves=23
num_cat=0
split_feature=2 3 5 2 2 5 7 8 13 13 14 13 12 14 14 12 14 12 11 7 13 13
split_gain=1.24887e+06 18204.2 941.002 208.354 7.97201 15.0436 6.2928 5.63127 7.40036 6.35059 11.7436 6.91404 5.02456 5.64772 4.67082 4.82836 4.0109 5.90227 5.35909 2.48601 2.4608 2.17521
threshold=0.066299999132752432 0.28260000050067907 0.006599999964237214 0.66589999198913585 0.29314999282360082 0.042749999091029174 0.031549999490380294 0.47499999403953558 0.0054500000551342973 0.014250000007450582 0.65805739164352428 0.026349999941885475 0.22500000149011615 1.7969430685043337 2.4703083038330083 0.32500000298023229 0.43962599337100988 0.22500000149011615 1.0000000180025095e-35 0.20564999431371692 0.0099499998614192026 0.023550000041723255
decision_type=2 2 2 2 2 2 2 2 2 2 2 2 2 2 2 2 2 2 2 2 2 2
left_child=-1 2 3 19 5 -4 -3 14 -9 10 -10 -11 -6 21 16 -16 17 -8 -18 -2 -5 -14
right_child=1 6 4 20 12 -7 7 8 9 11 -12 -13 13 -15 15 -17 18 -19 -20 -21 -22 -23
leaf_value=-0.036804691990441001 0.027412467840724888 0.01871350768248865 0.02913145844248392 0.052299555485658025 0.032074145666236252 0.013561260737424214 0.024646526642177868 0.033132719381569184 0.019789586222740924 0.026787668340154641 0.025182889097530692 0.023774942360678578 0.026607333520954297 0.020533934249746442 0.02548409347389384 0.033651281363617544 0.025783846225503067 0.02847077176429659 0.026891656131035349 0.020823048430133037 0.051153805445466285 0.030627418851610032
leaf_weight=221520.21889726818 105.54262970387936 93.63310880959034 102.48472610116005 300619.19505733252 188.43401892483234 101.30830262601376 435.07250434160233 106.21265298128128 421.69232869148254 2848.8510107845068 1622.7520670890808 839.18438293039799 475.0450384914875 110.44337633252144 105.59098692238331 162.07094655930996 7494.8111287951469 1743.0401583462954 7623.256427899003 106.49193009734154 2035.0322559177876 178.7091037184
leaf_count=1250808 280 269 272 604951 487 298 1195 276 1195 7700 4435 2316 1278 311 286 414 20396 4658 20583 295 4158 469
internal_value=0.0151663 0.0503173 0.0521747 0.0522722 0.0266481 0.0214228 0.0262834 0.0263134 0.0255231 0.0253809 0.0240736 0.0261039 0.0277591 0.0266866 0.0265758 0.0304537 0.0265154 0.0277099 0.0263429 0.0241334 0.0522919 0.0277162
internal_weight=549039 327519 304023 302866 1156.42 203.793 23496.2 23402.5 5838.69 5732.48 2044.44 3688.04 952.632 764.198 17563.8 267.662 17296.2 2178.11 15118.1 212.035 302654 653.754
internal_count=1927330 676522 612799 609684 3115 570 63723 63454 15922 15646 5630 10016 2545 2058 47532 700 46832 5853 40979 575 609109 1747
is_linear=0
shrinkage=0.0283395


Tree=14
num_leaves=28
num_cat=0
split_feature=7 3 0 13 14 6 5 0 13 3 6 13 3 13 13 1 0 3 6 0 12 13 12 13 13 5 12
split_gain=1.18257e+06 17697.9 5574.98 865.826 788.139 436.59 180.473 67.1389 11.2984 7.87184 5.61943 7.30883 7.11252 6.42119 6.25902 5.1579 7.48368 7.9824 6.36645 4.589 4.12023 3.53607 3.17106 2.99191 5.97661 2.17279 1.23085
threshold=0.049949999898672111 0.28260000050067907 0.062849998474121108 0.010049999691545965 0.1097335033118725 0.030650000087916855 0.006599999964237214 0.040850000455975539 0.02784999925643206 0.45655000209808355 0.1430500000715256 0.029649999924004081 0.89129999279975902 0.0053499999921768912 0.014250000007450582 0.54164999723434459 0.21305000036954883 0.7173999845981599 0.076150000095367446 0.062849998474121108 0.17500000447034839 0.026950000785291198 0.32500000298023229 0.012450000271201135 0.014849999919533731 0.040650000795722015 0.39999999105930334
decision_type=2 2 2 2 2 2 2 2 2 2 2 2 2 2 2 2 2 2 2 2 2 2 2 2 2 2 2
left_child=2 3 5 6 -3 -1 -2 -6 9 22 11 14 13 -12 -9 16 18 -18 -11 -14 -5 23 -4 -22 -25 -24 -8
right_child=1 4 8 20 7 -7 26 10 -10 15 12 -13 19 -15 -16 -17 17 -19 -20 -21 21 -23 25 24 -26 -27 -28
leaf_value=-0.036492920955355515 0.051073706334119048 -0.036555659865206598 0.032587206864471654 0.03167203693378394 0.0032646199435997568 0.025883415247151664 0.027384206733511166 0.024289394691539769 0.015045359085638544 0.017432771778762894 0.032756705669751147 0.019078394203662408 0.0180936884388142 0.026208076970070299 0.025668175827842931 0.018707868695118906 0.023510830119512161 0.034025825029946374 0.02519914480887191 0.024496653081355103 0.029284834404892147 0.029829365759509844 0.023626069368677258 0.017684527894806016 0.025230263573776595 0.030042726396469391 0.022433857446614094
leaf_weight=217003.98809324205 301037.68219690025 166.09662939608097 137.79352566599846 111.50603647530079 110.2644764482975 90.03369577229023 105.1020540446043 4456.7406922280788 95.273834347724915 141.89325748383999 129.94756492972374 169.64368249475956 106.293815985322 8637.1517557948828 7618.7862389832735 142.61123326420784 121.3765661418438 123.81249219179153 241.98639976978302 1147.4355050474405 121.6761698871851 153.81458856165409 109.2086815237999 104.16556793451309 644.37481231987476 94.198762640357018 107.72301875054836
leaf_count=1250140 608893 951 353 286 413 245 277 12165 277 406 334 485 302 23196 20585 405 333 317 657 3118 317 402 298 294 1739 246 298
internal_value=0.0148835 0.0491563 -0.0361292 0.0509621 0.024932 -0.036467 0.0510552 0.0253887 0.0245759 0.025386 0.025498 0.0250761 0.0260129 0.0263059 0.0251598 0.0237556 0.0248897 0.0288471 0.0223452 0.0239589 0.0262509 0.0256542 0.0290546 0.0249088 0.0241888 0.0266295 0.0249089
internal_weight=543231 324928 218302 302386 22542.4 217094 301251 22376.3 1208.15 1112.88 22266 12245.2 10020.8 8767.1 12075.5 771.68 629.069 245.189 383.88 1253.73 1135.54 1024.03 341.201 870.217 748.54 203.407 212.825
internal_count=1927732 674055 1253677 612506 61549 1250385 609468 60598 3292 3015 60185 33235 26950 23530 32750 2118 1713 650 1063 3420 3038 2752 897 2350 2033 544 575
is_linear=0
shrinkage=0.0283395


Tree=15
num_leaves=36
num_cat=0
split_feature=2 3 13 2 6 6 13 13 0 13 3 2 0 13 2 0 0 7 14 2 3 2 6 12 0 13 13 7 2 13 0 13 13 13 13
split_gain=1.13407e+06 17260.4 894.596 179.078 5.44795 6.07272 6.38739 8.97554 9.31109 8.38296 5.84871 8.14686 10.0175 6.77211 5.57741 7.84202 5.53492 6.5596 5.17231 4.89623 4.48908 4.45961 4.43176 3.93287 3.62922 3.49768 5.98547 3.43475 5.35382 4.42978 3.2516 2.8207 3.59258 5.43327 2.20977
threshold=0.066299999132752432 0.28260000050067907 0.010049999691545965 0.65810000896453869 0.1430500000715256 0.052850000560283668 0.010350000113248827 0.02615000028163195 0.25315000116825109 0.0099499998614192026 0.89129999279975902 0.96215000748634349 0.2396500036120415 0.025449999608099464 0.93125000596046459 0.25315000116825109 0.20615000277757647 0.30795000493526464 1.0823040604591372 0.44124999642372137 0.84784999489784252 0.19004999846220019 0.24374999850988391 0.17500000447034839 0.2396500036120415 0.029450000263750557 0.027649999596178535 0.22794999927282336 0.36005000770092016 0.010049999691545965 0.062849998474121108 0.026950000785291198 0.012749999761581423 0.014849999919533731 0.017549999989569191
decision_type=2 2 2 2 2 2 2 2 2 2 2 2 2 2 2 2 2 2 2 2 2 2 2 2 2 2 2 2 2 2 2 2 2 2 2
left_child=-1 2 3 -2 5 20 9 19 -9 30 11 16 34 -14 15 21 18 -18 -6 -8 25 -12 24 -4 -16 26 -3 28 -22 -29 -7 32 -25 -34 -13
right_child=1 4 23 -5 10 6 7 8 -10 -11 14 12 13 -15 22 -17 17 -19 -20 -21 27 -23 -24 31 -26 -27 -28 29 -30 -31 -32 -33 33 -35 -36
leaf_value=-0.036206482133333141 0.021877118789711044 0.024317458842171697 0.030544995981657521 0.049938792280547997 0.027919758992427105 0.027452719127406412 0.02325847124208031 0.02290681045648776 0.015518690164992202 0.013440337848922176 0.017378393539456503 0.024251233246969945 0.022752052572583864 0.016329888330855035 0.033561729815369049 0.014803707429333315 0.026221009225356591 0.030116565490092232 0.025046467673697531 0.025453214575762616 0.020606480001171705 0.023886016666706346 0.021693743106359978 0.02842908733460137 0.02532848702112165 0.019255002580763254 0.027997505111842305 0.032966868477544549 0.026406948163405643 0.026740834195923692 0.021892747380562193 0.028479454803545322 0.016730932777814914 0.024235267970284805 0.027196125174263022
leaf_weight=212805.17222969234 183.56338629126549 5118.5377688258886 116.79006242752075 299211.42926497757 611.35977628827095 102.91483488678932 1361.3220717608929 737.1283195912838 175.82567866146564 94.504517912864685 102.76079422235489 467.59368835389614 765.74111215770245 169.04552318155766 97.311827406287193 104.24744339287281 1500.1386425793171 490.91899122297764 4784.6966411620378 2498.7481366842985 183.59137257933617 833.87392292916775 95.867504462599754 145.82262489199638 96.773143246769905 111.77802538871765 408.06900444626808 125.17344081401825 542.66648954153061 521.04824554920197 1037.1935852766037 161.44735427200794 94.190212309360504 679.03312216699123 502.94413335621357
leaf_count=1251280 500 13847 299 609012 1613 273 3708 2014 504 274 292 1261 2089 481 247 299 3994 1273 12845 6707 509 2258 263 379 260 313 1078 320 1449 1387 2855 422 266 1830 1331
internal_value=0.0146266 0.0479901 0.0498238 0.0499216 0.0246744 0.0242719 0.0235897 0.0240721 0.0214909 0.0217196 0.0251671 0.0254265 0.0237334 0.0215975 0.0233507 0.0223462 0.0258624 0.0271848 0.0253732 0.0246809 0.0248556 0.0231789 0.0269346 0.0253651 0.0294901 0.0244857 0.0245904 0.0263702 0.0249495 0.0279569 0.0224003 0.0247992 0.0241456 0.0233294 0.025784
internal_weight=537039 324234 300592 299395 23641.8 13018.5 6007.64 4773.02 912.954 1234.61 10623.3 9292.44 1905.32 934.787 1330.83 1040.88 7387.11 1991.06 5396.06 3860.07 7010.86 936.635 289.952 1197.28 194.085 5638.38 5526.61 1372.48 726.258 646.222 1140.11 1080.49 919.046 773.223 970.538
internal_count=1927732 676452 612708 609512 63744 35238 16335 12933 2518 3402 28506 24887 5162 2570 3619 2849 19725 5267 14458 10415 18903 2550 770 3196 507 15238 14925 3665 1958 1707 3128 2897 2475 2096 2592
is_linear=0
shrinkage=0.0283395


Tree=16
num_leaves=38
num_cat=0
split_feature=2 3 5 2 6 5 0 5 3 1 5 3 14 5 1 5 0 0 7 8 14 5 8 2 1 0 12 12 5 8 12 12 8 8 7 6 5
split_gain=1.08116e+06 16774.8 894.195 208.651 5.81915 5.22358 4.68649 8.98442 8.72274 9.97916 7.88037 6.9722 11.6203 6.46058 5.18797 4.7908 6.49846 5.67526 8.83252 7.34036 5.24061 5.01264 6.58776 6.42625 4.34194 4.29655 3.99958 6.56762 4.88278 3.55311 3.95599 3.22673 3.17837 4.7762 3.15434 2.4233 1.53265
threshold=0.066299999132752432 0.28260000050067907 0.006599999964237214 0.66589999198913585 0.16920000314712527 0.019749999977648262 0.24665000289678576 0.079549998044967665 0.54344999790191661 0.45835000276565557 0.0052499999292194852 0.80434998869895946 0.86233633756637584 0.048949999734759338 0.29164999723434454 0.019749999977648262 0.062849998474121108 0.049550000578165061 0.30065000057220465 0.42499999701976782 1.0823040604591372 0.073249999433755889 0.47499999403953558 0.75494998693466198 0.54164999723434459 0.19614999741315844 0.17500000447034839 0.39999999105930334 0.034350000321865089 0.32500000298023229 0.62500000000000011 0.82500001788139354 0.32500000298023229 0.42499999701976782 0.21294999867677691 0.23785000294446948 0.040650000795722015
decision_type=2 2 2 2 2 2 2 2 2 2 2 2 2 2 2 2 2 2 2 2 2 2 2 2 2 2 2 2 2 2 2 2 2 2 2 2 2
left_child=-1 2 3 34 5 -4 15 8 9 13 -11 12 -10 -8 -13 16 17 19 -19 -3 31 26 24 -24 -23 -22 28 -28 -17 36 35 -18 -7 -34 -2 -31 -6
right_child=1 6 4 -5 29 32 7 -9 11 10 -12 14 -14 -15 -16 21 20 18 -20 -21 25 22 23 -25 -26 -27 27 -29 -30 30 -32 -33 33 -35 -36 -37 -38
leaf_value=-0.035926746330595748 0.024710960467378081 0.026348725897056335 0.031450740155734895 0.048884420663406807 0.027429091594485446 0.021299847427824273 0.027716464456040719 0.029601217018986107 0.016941731072648351 0.027278325660498811 0.020025446213910312 0.027564948302957332 0.022208867305090935 0.022791772755300022 0.022667439268888985 0.026223611465925088 0.020686244777458625 0.025526719775008852 0.034276550479682914 0.017099912337640286 0.023080899647874461 0.023259278411644331 0.018134008961938258 0.026159680304807684 0.027282695341123611 0.025002226944591102 0.02585626960193721 0.02427643468136852 0.021689762069951879 0.018563306198153585 0.014669024884125326 0.026219520646394264 0.030368238426933515 0.023186918331068326 0.017586763776791293 0.025005903035678533 0.021969516972540376
leaf_weight=208335.1678353548 113.90581467747688 195.67147612571716 112.60794694721699 296614.06266327202 96.602712482213974 185.45392288267612 751.49167974293232 173.45973291993141 480.00085005164146 165.2433947622776 522.39131183922291 232.45700846612453 1237.170769572258 326.57776971161366 935.16106417775154 287.97538660466671 884.63104994595051 338.65715257823467 136.52692644298077 114.67830738425255 3710.5598631650209 1112.5694348365068 347.04022634029388 110.91893082857132 296.7395566701889 1398.4500980228186 4053.8778440505266 5006.8176016956568 710.46567817032337 108.53893065452576 99.446167826652527 104.43370418250561 138.69560830295086 193.64898478984833 107.10802754759789 105.52041754126549 111.25948061048985
leaf_count=1250610 301 519 286 608185 253 504 1971 447 1354 435 1441 611 3367 885 2540 762 2433 902 342 324 10037 3001 970 294 779 3733 10760 13435 1937 301 284 277 355 520 297 281 302
internal_value=0.0143663 0.0469444 0.0487672 0.0488639 0.0238343 0.0257187 0.0239624 0.0231429 0.0229007 0.0245002 0.0217778 0.0219194 0.0207403 0.0262306 0.023648 0.0241722 0.0235533 0.0260467 0.0280544 0.0229518 0.023231 0.0245288 0.0231288 0.0200919 0.024111 0.0236081 0.0247881 0.024984 0.0230039 0.0215433 0.0195373 0.021277 0.0244596 0.0262034 0.0212875 0.0217692 0.0245379
internal_weight=529956 321621 297987 296835 1151.77 630.406 23634 4823.95 4650.49 1765.7 687.635 2884.79 1717.17 1078.07 1167.62 18810 6883.61 785.534 475.184 310.35 6098.07 11926.4 1867.27 457.959 1409.31 5109.01 10059.1 9060.7 998.441 521.368 313.506 989.065 517.799 332.345 221.014 214.059 207.862
internal_count=1926035 675425 611869 608783 3086 1665 63556 13051 12604 4732 1876 7872 4721 2856 3151 50505 18567 2087 1244 843 16480 31938 5044 1264 3780 13770 26894 24195 2699 1421 866 2710 1379 875 598 582 555
is_linear=0
shrinkage=0.0283395


Tree=17
num_leaves=34
num_cat=0
split_feature=2 16 13 0 2 0 5 16 1 5 16 14 13 5 13 12 2 2 13 5 12 6 0 14 2 13 14 13 13 9 12 1 0
split_gain=1.03251e+06 16451.2 915.698 188.239 6.73224 4.39288 8.43795 8.1858 9.35543 7.38598 6.53452 10.9124 6.75983 6.05002 5.0084 10.9455 9.13382 9.16993 4.70855 4.32041 5.33783 6.83975 6.69159 4.30227 4.1104 4.93277 4.37426 3.96993 4.89927 3.22316 5.48005 3.67951 2.71666
threshold=0.066299999132752432 0.07391583546996118 0.010049999691545965 0.19614999741315844 0.69804999232292186 0.24665000289678576 0.079549998044967665 0.14179307967424395 0.45835000276565557 0.0052499999292194852 0.20902211219072345 0.86233633756637584 0.027649999596178535 0.048949999734759338 0.0059500001370906839 0.62500000000000011 0.41335000097751623 0.27769999206066137 0.0055499998852610597 0.019749999977648262 0.82500001788139354 0.1430500000715256 0.16845000535249713 1.0823040604591372 0.24405000358819964 0.014250000007450582 1.7969430685043337 0.025649999268352989 0.012749999761581423 1.0000000180025095e-35 0.47499999403953558 0.45835000276565557 0.14164999872446063
decision_type=2 2 2 2 2 2 2 2 2 2 2 2 2 2 2 2 2 2 2 2 2 2 2 2 2 2 2 2 2 2 2 2 2
left_child=-1 2 3 -2 -5 14 7 8 13 -10 11 -9 -12 -7 15 16 17 -3 -17 20 21 -16 -22 -18 25 -21 -26 28 -4 30 -30 -31 -29
right_child=1 5 27 4 -6 6 -8 10 9 -11 12 -13 -14 -15 19 18 23 -19 -20 24 22 -23 -24 -25 26 -27 -28 32 29 31 -32 -33 -34
leaf_value=-0.035658999105710597 0.017090745924477735 0.024600516095006179 0.02691526775869639 0.041347582652556517 0.047907917291960249 0.02686915061788181 0.028699066912477634 0.016436339717668471 0.026444117890498334 0.019424918721051343 0.023604537708123891 0.021538661092693142 0.01572658362316888 0.022103319583037458 0.022059029045751889 0.019455493413851891 0.02170635485909744 0.012429907448242596 0.010833853544643585 0.024703891149786238 0.027516875288267881 0.024301848014162356 0.021554994958313273 0.029314636261803268 0.023902571421959725 0.021547140631249278 0.025893551262883174 0.029918424214314319 0.016489744653125811 0.020980205842519712 0.023512304393109359 0.026896896074144319 0.023836681268410643
leaf_weight=204012.72979299724 159.94656671583652 105.32668562233448 169.29100169241428 140.04974399507046 293995.60797914863 753.19605903327465 173.83675433695316 480.72838568687439 165.62020373344421 523.26649411022663 1069.14422082901 1239.4811606705189 100.82899951934814 327.19744721055031 4378.6275895833969 119.22392998635769 100.69410814344883 100.0257106423378 97.069552376866341 645.13405148684978 441.81660957634449 1557.6780131906271 251.41014559566975 187.63787037134171 8520.4498801529408 1256.2423880249262 1086.0639306306839 117.49512682855129 223.25352701544762 237.6156103014946 163.00130532681942 152.34147600829601 161.62792874872684
leaf_count=1250610 443 281 438 313 607846 1971 447 1354 435 1441 2866 3367 285 885 11858 329 273 289 283 1716 1153 4141 682 482 22757 3411 2850 300 623 645 435 397 429
internal_value=0.014138 0.0459651 0.0477863 0.0478881 0.0479048 0.0232368 0.0224432 0.0222085 0.0237573 0.0211218 0.0212581 0.0201165 0.0229311 0.0254318 0.02344 0.0210202 0.0233751 0.0187034 0.0156156 0.0235344 0.0229335 0.0226486 0.025364 0.02668 0.0238799 0.0226216 0.0241283 0.0233213 0.0223997 0.0214065 0.0194699 0.0233082 0.02642
internal_weight=523214 319201 295520 294296 294136 23680.7 4833.3 4659.46 1769.28 688.887 2890.18 1720.21 1169.97 1080.39 18847.4 709.978 493.684 205.352 216.293 18137.4 6629.53 5936.31 693.227 288.332 11507.9 1901.38 9606.51 1224.63 945.503 776.212 386.255 389.957 279.123
internal_count=1926035 675425 611869 608602 608159 63556 13051 12604 4732 1876 7872 4721 3151 2856 50505 1937 1325 570 612 48568 17834 15999 1835 755 30734 5127 25607 3267 2538 2100 1058 1042 729
is_linear=0
shrinkage=0.0283395


Tree=18
num_leaves=37
num_cat=0
split_feature=2 3 5 13 2 6 3 5 7 12 7 14 13 5 3 13 13 0 14 7 3 1 5 2 5 12 14 6 13 11 5 7 5 7 12 0
split_gain=987426 16400.1 867.182 194.392 13.5241 11.3634 7.54516 7.87216 5.94492 4.86943 8.80398 9.58604 8.77928 14.8823 9.43058 7.69911 6.51312 6.48691 5.71823 7.20503 5.20057 4.91064 4.74047 4.73292 12.7969 6.57374 5.40824 6.18533 3.05736 2.64436 3.7391 5.14692 3.59242 3.17202 2.02242 1.58744
threshold=0.066299999132752432 0.28260000050067907 0.006599999964237214 0.010650000069290401 0.69804999232292186 0.26645000278949743 0.84784999489784252 0.063549999147653594 0.15444999933242801 0.39999999105930334 0.30795000493526464 0.23658198863267901 0.02615000028163195 0.046850001439452178 0.36954998970031744 0.0059500001370906839 0.0090499999932944792 0.088749997317790999 1.5570414066314699 0.20564999431371692 0.36954998970031744 0.45835000276565557 0.069099999964237227 0.29314999282360082 0.042749999091029174 0.22500000149011615 1.7969430685043337 0.20414999872446063 0.01925000082701445 1.0000000180025095e-35 0.061449998989701278 0.20564999431371692 0.061449998989701278 0.30795000493526464 0.47499999403953558 0.19614999741315844
decision_type=2 2 2 2 2 2 2 2 2 2 2 2 2 2 2 2 2 2 2 2 2 2 2 2 2 2 2 2 2 2 2 2 2 2 2 2
left_child=-1 2 3 4 -2 9 29 28 -5 12 11 22 18 14 -14 -12 -13 -17 20 -20 -3 -15 -11 24 -4 -25 27 -27 -8 30 31 -7 33 -31 -32 -34
right_child=1 5 23 8 -6 6 7 -9 -10 10 15 16 13 21 -16 17 -18 -19 19 -21 -22 -23 -24 25 -26 26 -28 -29 -30 32 34 -33 35 -35 -36 -37
leaf_value=-0.035402586018636724 0.038117208271464462 0.020632226089589856 0.025360305570595858 0.028667796439246586 0.046996130480416128 0.022347654921377098 0.025374630961265104 0.013354357184936437 0.019796932694054279 0.023609009173568302 0.015072791053194371 0.019065456167551505 0.025941928245638003 0.021956539053648017 0.017389619082971486 0.026392370104484256 0.021390550086922356 0.022727222691726157 0.026954265751769995 0.022682289361333305 0.022937871622409633 0.027359137398368594 0.030934319984539559 0.028056629767573848 0.010975993698979761 0.021434115712426982 0.016114449683553338 0.028145585058449898 0.019432075054734165 0.023867073747090253 0.023139023547557116 0.027462042872683053 0.027155984117504996 0.028491065969278286 0.017532852252533464 0.032279959003003102
leaf_weight=200005.59884950519 145.52473427355289 957.30129857361317 102.68101300299168 102.61833195388317 291233.92200540006 326.31609354913235 183.95403607189655 93.845551416277885 172.79131570458412 266.29432608187199 96.018421366810799 1208.995990306139 121.7933986634016 357.11721636354923 862.38168507814407 507.16197183728218 6391.1505682021379 2136.9803536534309 638.19522689282894 701.70566344261169 6825.6486804932356 245.80452187359333 108.36635786294937 189.93231578171253 100.45743298530579 495.4697592407465 113.72836421430111 152.7239021807909 134.56842844188213 529.0631789714098 138.5369278639555 355.49956561625004 165.02755571901798 179.40920597314835 105.82990303635597 100.9770236313343
leaf_count=1252349 329 2596 269 260 607745 872 482 267 468 708 271 3321 319 961 2393 1324 17266 5720 1657 1875 18252 638 274 485 291 1329 318 393 367 1396 369 915 427 458 293 252
internal_value=0.0138904 0.0450355 0.0468721 0.0469692 0.0469917 0.0223798 0.0242956 0.0207309 0.0231257 0.0221727 0.0217302 0.0212443 0.0226147 0.0206298 0.0184545 0.023142 0.0210215 0.0234327 0.0229594 0.0247219 0.0226551 0.0241698 0.0257451 0.0223541 0.0182783 0.0232171 0.0220022 0.0230254 0.0228842 0.0250657 0.0238998 0.0250238 0.0261671 0.0250472 0.0207373 0.0291256
internal_weight=516553 316548 292810 291655 291379 23737.9 2313.03 412.368 275.41 21424.9 10715 7974.81 10709.9 1587.1 984.175 2740.16 7600.15 2644.14 9122.85 1339.9 7782.95 602.922 374.661 1154.99 203.138 951.854 761.922 648.194 318.522 1900.66 926.182 681.816 974.477 708.472 244.367 266.005
internal_count=1927909 675560 611887 608802 608074 63673 6098 1116 728 57575 28884 21569 28691 4311 2712 7315 20587 7044 24380 3532 20848 1599 982 3085 560 2525 2040 1722 849 4982 2449 1787 2533 1854 662 679
is_linear=0
shrinkage=0.0283395


Tree=19
num_leaves=32
num_cat=0
split_feature=2 3 5 13 2 6 3 5 8 7 13 13 15 12 7 15 13 13 5 3 13 5 12 13 13 5 13 5 2 2 2
split_gain=944445 16149 854.011 191.6 18.1619 10.7457 7.09823 7.4049 6.83493 4.86737 8.01661 4.61569 4.82667 4.10715 7.36606 8.81499 7.23661 6.65105 12.0378 5.96749 4.00752 3.91456 5.36868 2.867 2.636 4.04958 4.43026 4.17213 3.56833 2.07755 0.737036
threshold=0.066299999132752432 0.28260000050067907 0.006599999964237214 0.010650000069290401 0.69304999709129345 0.26645000278949743 0.84784999489784252 0.063549999147653594 0.32500000298023229 0.037450000643730171 0.022149999625980858 0.0076500000432133683 1.0285270810127261 0.39999999105930334 0.30795000493526464 0.21235111355781558 0.0059500001370906839 0.02615000028163195 0.04474999941885472 0.36954998970031744 0.01664999965578318 0.067749999463558211 0.39999999105930334 0.01925000082701445 0.0092500001192092913 0.034350000321865089 0.026349999941885475 0.075350001454353346 0.56405001878738414 0.55535000562667858 0.55535000562667858
decision_type=2 2 2 2 2 2 2 2 2 2 2 2 2 2 2 2 2 2 2 2 2 2 2 2 2 2 2 2 2 2 2
left_child=-1 2 3 4 -2 9 24 23 -5 10 20 -4 21 17 15 -15 -16 19 -19 -11 29 22 -13 -8 28 26 -26 -27 -7 -3 -23
right_child=1 5 11 8 -6 6 7 -9 -10 13 -12 12 -14 14 16 -17 -18 18 -20 -21 -22 30 -24 -25 25 27 -28 -29 -30 -31 -32
leaf_value=-0.035156904624221406 0.034894154297159544 0.021598890575430438 0.016141218923916126 0.028233612082425887 0.046139686879398213 0.029813349474642429 0.024622274705402805 0.012964557635090145 0.018820869401892221 0.020273594718030911 0.012467860493728777 0.021611951311381911 0.017612488749070614 0.025093591817334442 0.014630071621261084 0.020492396515256049 0.02273645826870924 0.018190791612004768 0.023343654191413352 0.022573611425950046 0.025918440808720668 0.017307001572115958 0.026829852166404579 0.01886071256251028 0.024497131090796247 0.021735900516951775 0.031073360407183667 0.027124144295379588 0.023592326405409831 0.015332384506874842 0.021392829988800079
leaf_weight=195756.24845504761 120.08206190168858 99.5400700122118 116.20878705382347 105.63082358241081 288301.21468278766 168.81325878202915 184.19905669987202 93.92677004635334 170.01660384237766 1092.4949131608009 131.28999760746956 339.5326140075922 159.7528130710125 363.76515284180641 96.119381800293922 7406.2416157573462 2647.8323675990105 942.49971143901348 619.27771277725697 7863.029076680541 97.174148574471474 93.685747802257538 338.95577946305275 134.71401299536228 512.45926223695278 801.84018735587597 108.85524804890156 148.41520622372627 162.58072958886623 94.362550884485245 108.10229399800301
leaf_count=1252349 278 269 321 268 607796 425 482 267 460 2953 377 904 440 951 271 20019 7044 2589 1641 20942 254 259 873 367 1338 2137 272 383 427 265 288
internal_value=0.0136865 0.0441735 0.0460151 0.0461124 0.046135 0.0217165 0.0235792 0.0201209 0.0224514 0.0215151 0.0183998 0.0216976 0.0223123 0.0215774 0.021165 0.0207086 0.0224548 0.0219891 0.0202381 0.0222937 0.0210536 0.023158 0.0242282 0.0222086 0.024326 0.0238043 0.0256598 0.0225843 0.0267809 0.0185823 0.0195276
internal_weight=509379 313623 289853 288697 288421 23769.4 2315.8 412.84 275.647 21453.6 422.367 1156.24 1040.03 21031.3 10514 7770.01 2743.95 10517.3 1561.78 8955.52 291.077 880.276 678.488 318.913 1902.96 1571.57 621.315 950.255 331.394 193.903 201.788
internal_count=1927909 675560 611887 608802 608074 63673 6098 1116 728 57575 1165 3085 2764 56410 28285 20970 7315 28125 4230 23895 788 2324 1777 849 4982 4130 1610 2520 852 534 547
is_linear=0
shrinkage=0.0283395


Tree=20
num_leaves=32
num_cat=0
split_feature=7 3 0 13 0 6 5 14 3 0 5 1 14 13 8 13 13 7 7 13 6 8 12 5 13 1 13 7 12 12 0
split_gain=897765 15872.3 4703.14 789.135 589.502 392.066 165.233 32.0035 6.38383 6.59693 5.86976 6.33955 5.73172 6.16402 6.26796 5.55648 5.09896 4.75259 8.026 3.7812 3.35465 3.16693 2.94561 3.00927 2.58815 2.52949 2.67223 2.02749 3.73654 1.36459 0.854566
threshold=0.049949999898672111 0.28260000050067907 0.062849998474121108 0.010049999691545965 0.039950000122189529 0.030650000087916855 0.006599999964237214 0.14080559462308886 0.5000000149011613 0.25315000116825109 0.038549998775124557 0.45835000276565557 1.5570414066314699 0.010650000069290401 0.27500000596046453 0.013349999673664572 0.029849999584257606 0.15444999933242801 0.24994999915361407 0.018450000323355201 0.052850000560283668 0.32500000298023229 0.32500000298023229 0.042749999091029174 0.021650000475347046 0.45835000276565557 0.022349999286234382 0.21294999867677691 0.39999999105930334 0.39999999105930334 0.049850000068545348
decision_type=2 2 2 2 2 2 2 2 2 2 2 2 2 2 2 2 2 2 2 2 2 2 2 2 2 2 2 2 2 2 2
left_child=2 3 5 6 -3 30 -2 -6 20 10 19 -12 16 14 -14 -15 21 24 27 -10 -4 -9 -22 -24 -5 26 -20 28 -19 -8 -1
right_child=1 4 8 17 7 -7 29 12 9 -11 11 -13 13 15 -16 -17 -18 18 25 -21 22 -23 23 -25 -26 -27 -28 -29 -30 -31 -32
leaf_value=-0.034918690081307012 0.045332395188273748 -0.034937380843443396 0.027873437766012216 0.027008512493917766 0.0067615782897197489 0.02183244230330594 0.022948991986257532 0.020371658197353593 0.018276435280173083 0.02447838659182926 0.024758654008050895 0.015584989449238086 0.027609283349081727 0.018678854846969087 0.022601000994484723 0.021860622903498973 0.014295894276780293 0.014831960575925618 0.019008611132861838 0.011946118254578768 0.025897715300237545 0.021203388682609878 0.015961314001348457 0.023458552222028743 0.021772138008999686 0.025735801494970095 0.024885510103505818 0.014019449787483353 0.022810971027286159 0.017955844370499623 -0.033551516088599263
leaf_weight=190580.47779424489 285357.2889354825 152.08744935691357 133.29151850938797 202.68219050765038 126.88875856995583 97.691401109099388 113.65497553348541 6466.4756537973881 179.09157857298851 175.09575247764587 164.90732499957085 103.73937994241714 283.83618098497391 542.32620765268803 849.05316220223904 3389.4526836276054 100.68324385583401 98.858588650822639 183.54278095066547 146.61491657793522 117.91212472319603 10894.918970748782 91.861922115087509 98.130582019686699 153.16504098474979 191.62001949548721 112.90708792209625 119.29349260032177 104.85118886828423 104.22288200259209 607.6201583147049
leaf_count=1245980 608289 989 340 516 460 262 297 17408 490 460 432 289 723 1469 2242 8999 291 275 496 418 304 29144 254 258 405 494 293 334 277 285 3914
internal_value=0.0135239 0.0434087 -0.0345329 0.0452185 0.0206534 -0.0348854 0.0453135 0.0210269 0.0211448 0.0195412 0.0180759 0.02124 0.021107 0.02197 0.0238615 0.0214234 0.0208563 0.0219505 0.0207042 0.0154464 0.023927 0.020894 0.0221976 0.0198673 0.0247728 0.0230357 0.0212686 0.0171615 0.0189702 0.0205899 -0.0349144
internal_weight=502044 309548 192496 286742 22805.7 191286 285575 22653.6 1210.65 769.449 594.353 268.647 22526.7 5064.67 1132.89 3931.78 17462.1 1166.92 811.073 325.706 441.196 17361.4 307.905 189.993 355.847 488.07 296.45 323.003 203.71 217.878 191188
internal_count=1927087 673686 1253401 611961 61725 1250156 608871 60736 3245 2089 1629 721 60276 13433 2965 10468 46843 3090 2169 908 1156 46552 816 512 921 1283 789 886 552 582 1249894
is_linear=0
shrinkage=0.0283395


Tree=21
num_leaves=39
num_cat=0
split_feature=2 3 13 2 13 12 12 1 14 13 8 13 2 13 3 13 6 13 2 6 3 8 8 18 14 18 14 2 18 5 14 13 5 1 2 14 5 8
split_gain=865423 15721.2 827.394 177.624 5.17391 6.14456 5.45872 5.64328 5.15636 4.80809 6.18298 5.87841 5.6595 12.4727 4.94484 4.45288 8.39506 8.02132 3.74412 3.64193 3.58259 4.59875 9.63089 5.83833 5.04469 4.97157 5.99258 5.60659 3.17837 6.57537 2.45286 11.8793 6.11356 5.46132 5.07656 5.62519 5.03854 1.45777
threshold=0.066299999132752432 0.28260000050067907 0.010049999691545965 0.65810000896453869 0.012749999761581423 0.22500000149011615 0.82500001788139354 0.45835000276565557 1.5570414066314699 0.010650000069290401 0.27500000596046453 0.0069500000681728133 0.21435000002384189 0.02094999980181456 0.63044998049736034 0.013349999673664572 0.23785000294446948 0.01925000082701445 0.3949000090360642 0.26064999401569372 0.54344999790191661 0.32500000298023229 0.37500000000000006 0.62075829505920421 0.86233633756637584 0.76973482966423046 1.0823040604591372 0.99994999170303356 0.78109610080719005 0.036450000479817397 0.43962599337100988 0.012149999849498274 0.057249998673796661 0.37500000000000006 0.31239999830722814 1.0823040604591372 0.034350000321865089 0.37500000000000006
decision_type=2 2 2 2 2 2 2 2 2 2 2 2 2 2 2 2 2 2 2 2 2 2 2 2 2 2 2 2 2 2 2 2 2 2 2 2 2 2
left_child=-1 2 3 18 -4 37 7 -7 20 10 11 -10 13 19 -15 16 -14 -17 -2 -11 30 25 24 -24 -23 27 -27 -22 29 -12 31 33 -33 -3 36 -36 -32 -6
right_child=1 8 4 -5 5 6 -8 -9 9 12 28 -13 15 14 -16 17 -18 -19 -20 -21 21 22 23 -25 -26 26 -28 -29 -30 -31 34 32 -34 -35 35 -37 -38 -39
leaf_value=-0.034695622174540003 0.012691411381110521 0.021826423074219194 0.025968787025020389 0.044576891682166241 0.022221645089946888 0.016323447960598762 0.025457814407410247 0.021469322805821905 0.020776320162092004 0.016233327843464707 0.020338804379965113 0.029528684449364656 0.012882503384280019 0.027117201477735966 0.018151072939854133 0.023543778130070074 0.021010659873558379 0.020526679178874446 0.020975516946955947 0.0086874647998179347 0.019435342823405935 0.020246400246039711 0.01515241909489984 0.020070277159327153 0.02381183660091573 0.015692179388308716 0.019639892014341975 0.023588850977911354 0.018188882698275104 0.026005825093098116 0.020452448608645025 0.026001676265910746 0.02084632040349263 0.013793768848051629 0.01887392735522108 0.020952815610531087 0.024206713088307297 0.027590432718541575
leaf_weight=187204.27362039685 92.059796378016472 122.15992525219917 168.00307932496071 282052.04474173486 103.00907769799232 436.93407094478607 107.95823499560356 305.89612947404385 99.496168732643127 120.65116603672504 431.42629155516624 196.28819634020329 148.68570859730244 104.94780622422695 106.8690809905529 1153.4507569074631 364.48465099930763 2046.5865383595228 95.672734022140503 98.391086131334305 2718.7423022389412 539.64218245446682 211.95180062949657 5612.3490846157074 926.94414070248604 638.13720215857029 654.50935250520706 306.58562138676643 179.44436231255531 289.7434636503458 647.48663058876991 481.01910714805126 331.11503700911999 171.34886933863163 1836.3108835071325 2768.8537721186876 583.9335712492466 103.25068964064121
leaf_count=1251068 258 324 428 608403 270 1198 278 809 264 332 1151 490 417 268 291 3010 967 5455 253 284 7328 1446 589 15061 2425 1764 1762 803 486 743 1734 1239 882 479 4965 7379 1523 261
internal_value=0.0133396 0.0425969 0.0444576 0.0445585 0.021208 0.0204452 0.0193478 0.0184511 0.0205193 0.0213189 0.0229545 0.0266064 0.0208451 0.0176814 0.0226239 0.0212105 0.018668 0.0216162 0.0169471 0.0128727 0.0202887 0.0199706 0.0204187 0.0198924 0.0225043 0.0192125 0.017696 0.0198584 0.0217479 0.0226246 0.0208198 0.0221219 0.0239077 0.0171588 0.0205721 0.0201252 0.0222379 0.0249405
internal_weight=494561 307356 283465 282240 1225.05 1057.05 850.788 742.83 23891.6 5340.47 1196.4 295.784 4144.07 430.859 211.817 3713.21 513.17 3200.04 187.733 219.042 18551.1 11608.9 7290.89 5824.3 1466.59 4317.97 1292.65 3025.33 900.614 721.17 6942.23 1105.64 812.134 293.509 5836.58 4605.16 1231.42 206.26
internal_count=1927087 676019 612158 608914 3244 2816 2285 2007 63861 14158 3134 754 11024 1175 559 9849 1384 8465 511 616 49703 31178 19521 15650 3871 11657 3526 8131 2380 1894 18525 2924 2121 803 15601 12344 3257 531
is_linear=0
shrinkage=0.0283395


Tree=22
num_leaves=35
num_cat=0
split_feature=2 3 13 5 2 12 14 7 14 13 0 7 2 13 0 8 3 8 13 8 2 13 2 2 2 14 2 12 0 13 0 6 5 12
split_gain=829816 15591 758.38 157.092 15.0692 5.95957 12.8416 9.5217 7.5446 10.8842 6.50252 6.84462 7.31641 6.31504 5.78967 5.36577 5.01755 4.84296 4.48168 4.04709 9.88772 3.99472 6.50223 4.34465 3.83706 3.72525 3.67576 3.53691 3.47492 3.36296 2.80278 9.23127 5.74031 2.52499
threshold=0.066299999132752432 0.28260000050067907 0.010049999691545965 0.006599999964237214 0.69804999232292186 0.39999999105930334 2.5564196109771733 0.31524999439716345 1.5570414066314699 0.01925000082701445 0.28794999420642858 0.082199998199939742 0.38934999704360967 0.016950000077486042 0.11574999988079072 0.52500000596046459 0.89129999279975902 0.37500000000000006 0.012749999761581423 0.32500000298023229 0.57375001907348644 0.025649999268352989 0.28515000641345983 0.42720000445842748 0.44415000081062322 1.1111883521080019 0.4038000106811524 0.39999999105930334 0.14164999872446063 0.016350000165402893 0.24665000289678576 0.052850000560283668 0.040650000795722015 0.22500000149011615
decision_type=2 2 2 2 2 2 2 2 2 2 2 2 2 2 2 2 2 2 2 2 2 2 2 2 2 2 2 2 2 2 2 2 2 2
left_child=-1 2 3 4 -2 7 10 8 30 13 11 12 -7 -10 -13 19 -11 29 -4 24 -21 22 -20 -24 -9 -19 -17 -5 -23 -12 32 -32 -3 -28
right_child=1 5 18 27 -6 6 -8 15 9 16 17 14 -14 -15 -16 26 -18 25 21 20 -22 28 23 -25 -26 -27 33 -29 -30 -31 31 -33 -34 -35
leaf_value=-0.034478877075004549 0.034053881794207014 0.019770538360121128 0.025876175960616296 0.023905926686948822 0.043875681721167598 0.014318179146499788 0.029234867598047515 0.020201700606231447 0.023144756778227814 0.020689320509753528 0.028843444234211063 0.020512801754435012 0.018665058334980434 0.028902580182773748 0.018975513283883333 0.019760401998344126 0.014043890529854122 0.016780951542355857 0.013485230555574846 0.017848860218422701 0.02271548319245276 0.027539401115316268 0.02553063834971973 0.019469626674638321 0.01647827970725993 0.02390018009756335 0.016525666305168555 0.016554954893730971 0.020834684585428712 0.02217706867611717 0.022066762208185122 0.017347458992020157 0.021632600301530816 0.0099613169322997769
leaf_weight=183222.18255195022 131.35769808292389 3082.4887879341841 162.49677117168903 117.85891225934029 278424.3351162076 459.48056951165199 108.30640608072281 380.98894186317921 1012.8473635166883 763.95436133444309 121.24682348966599 2995.7456409484148 1082.2498387098312 193.07757352292538 6712.4507656246424 100.25110168755054 110.98977062106133 163.20376731455326 125.93717513978481 683.81306990981102 700.83889120817184 116.51777881383896 127.74751164019108 508.19681379199028 637.75702084600925 105.00753891468048 92.007469475269318 111.56601895391941 167.50725975632668 154.4788946211338 555.19127917289734 902.34690807759762 2580.6919198930264 113.49719630181789
leaf_count=1251895 305 8251 412 303 608126 1277 269 1016 2637 2024 305 7973 2920 483 18048 268 308 446 351 1850 1836 294 328 1356 1742 273 251 305 442 407 1464 2455 6814 323
internal_value=0.0131549 0.0418824 0.0437546 0.0438517 0.0438711 0.0198679 0.0194075 0.0203274 0.0207688 0.0223014 0.0193167 0.0191665 0.0173737 0.024072 0.0194505 0.0188256 0.0198536 0.0224122 0.0213422 0.0192853 0.0203167 0.0206315 0.0195135 0.0206973 0.017877 0.0195921 0.0151912 0.0203592 0.023608 0.025132 0.0203201 0.0191495 0.0206202 0.0129311
internal_weight=487029 303806 279994 278785 278556 23812.9 11902.2 11910.7 9201.59 2080.87 11793.9 11249.9 1541.73 1205.92 9708.2 2709.15 874.944 543.937 1208.4 2403.4 1384.65 1045.91 761.882 635.944 1018.75 268.211 305.756 229.425 284.025 275.726 7120.72 1457.54 5663.18 205.505
internal_count=1927757 675862 612222 609039 608431 63640 31918 31722 24436 5452 31649 30218 4197 3120 26021 7286 2332 1431 3183 6444 3686 2771 2035 1684 2758 719 842 608 736 712 18984 3919 15065 574
is_linear=0
shrinkage=0.0283395


Tree=23
num_leaves=36
num_cat=0
split_feature=2 3 13 0 2 14 8 8 2 6 2 6 2 6 13 2 13 3 7 6 13 0 8 2 2 0 13 1 7 8 2 13 6 6 7
split_gain=795669 15451.2 754.249 155.82 8.01264 4.25923 5.75777 6.60241 5.56942 9.11135 7.53817 5.43384 6.54452 8.29747 6.16325 7.50052 6.18904 4.28561 13.7669 9.31379 4.24186 3.86028 3.34677 7.15706 7.13841 2.80079 3.93659 6.50002 9.69327 5.53312 13.3244 8.99164 4.56858 2.68986 1.24524
threshold=0.066299999132752432 0.28260000050067907 0.010049999691545965 0.19614999741315844 0.69304999709129345 1.5570414066314699 0.47499999403953558 0.32500000298023229 0.15879999846220019 0.12115000188350679 0.17810000479221347 0.19385000318288806 0.35154999792575842 0.20414999872446063 0.018150000832974914 0.57034999132156383 0.025850000791251663 0.54344999790191661 0.35164999961853033 0.19385000318288806 0.012749999761581423 0.088749997317790999 0.42499999701976782 0.50235000252723705 0.71314999461174022 0.049550000578165061 0.020049999468028549 0.37500000000000006 0.082199998199939742 0.27500000596046453 0.29314999282360082 0.014250000007450582 0.24374999850988391 0.25534999370574957 0.22794999927282336
decision_type=2 2 2 2 2 2 2 2 2 2 2 2 2 2 2 2 2 2 2 2 2 2 2 2 2 2 2 2 2 2 2 2 2 2 2
left_child=-1 2 3 -2 -5 6 7 17 9 -9 -10 14 -13 -14 15 -8 -16 19 -19 -3 -4 34 23 -23 -24 33 29 28 -28 30 -27 -31 -29 -7 -22
right_child=1 5 20 4 -6 25 11 8 10 -11 -12 12 13 -15 16 -17 -18 18 -20 -21 21 22 24 -25 -26 26 27 32 -30 31 -32 -33 -34 -35 -36
leaf_value=-0.03427080870134213 0.015383498215574151 0.019019903730801094 0.025152439158397412 0.035459076590786953 0.043204157835538159 0.019931935444331316 0.015769301926305965 0.027145609105167015 0.012461501786807621 0.017233420571770436 0.019952960065050099 0.021032648742729605 0.0059331193300505378 0.015807613157714267 0.020905652302363447 0.019180613001253639 0.017457518273824291 0.018808226126776923 0.014016575034903484 0.024167325302920734 0.013723367574555743 0.026986757262683184 0.014272449359982918 0.019915521332302948 0.022985947686136675 0.01406300350706075 0.0087985533778822365 0.018030930218911834 0.018318530828119899 0.018639192542550972 0.024531397734848373 0.022308729182505281 0.021827509807254876 0.012834939316710961 0.01878268578360983
leaf_weight=179168.49099636078 162.52736108005047 2236.9555556327105 162.43592554330826 116.57469634711742 274843.18186572194 94.747888997197151 1069.932092949748 218.82797372341156 114.28529426455498 120.03936168551445 6529.1507053375244 130.53484185039997 90.52859528362751 310.36023123562336 1288.4655214995146 1076.2909757494926 665.83857037127018 3762.4376254677773 565.39107064902782 335.41255953907967 96.731869637966156 180.80371409654617 165.26213116943836 362.00297164916992 149.74701930582523 118.28125706315041 100.51880982518196 418.43055482208729 724.57777228951454 1393.3901616632938 659.32639084756374 922.72982867062092 781.35974675416946 93.21681047976017 91.507529780268669
leaf_count=1251895 444 5992 412 271 608324 253 2931 554 319 325 17371 345 263 848 3407 2882 1805 10100 1565 866 268 457 456 958 387 326 287 1126 1943 3727 1691 2407 2046 261 245
internal_value=0.0129883 0.0411985 0.0430863 0.0431845 0.0432009 0.0192983 0.0190881 0.0193838 0.0200118 0.0236533 0.019825 0.0182003 0.0154328 0.0135934 0.0185574 0.017483 0.0197341 0.0187475 0.0181837 0.0196936 0.0207366 0.0200447 0.0208772 0.0222828 0.0184349 0.0200306 0.020161 0.01915 0.0171664 0.0208206 0.0229472 0.0201039 0.0205088 0.0164462 0.0162167
internal_weight=479320 300152 276331 275122 274960 23821 18514.5 13882.5 6982.3 338.867 6643.44 4631.95 531.424 400.889 4100.53 2146.22 1954.3 6900.2 4327.83 2572.37 1208.49 1046.06 857.816 542.807 315.009 5306.58 5118.61 2024.89 825.097 3093.73 777.608 2316.12 1199.79 187.965 188.239
internal_count=1927757 675862 612222 609039 608595 63640 49573 37092 18569 879 17690 12481 1456 1111 11025 5813 5212 18523 11665 6858 3183 2771 2258 1415 843 14067 13553 5402 2230 8151 2017 6134 3172 514 513
is_linear=0
shrinkage=0.0283395


Tree=24
num_leaves=34
num_cat=0
split_feature=2 3 13 2 14 13 2 13 3 8 2 14 2 12 7 7 7 14 12 0 13 13 13 7 13 2 2 13 14 13 2 13 2
split_gain=763784 15020.3 785.539 165.793 5.36868 6.10368 9.54207 16.272 8.39492 7.88266 7.70041 5.47507 5.32679 5.27028 5.07096 4.66644 4.56156 4.53813 7.11476 6.45857 7.11764 4.65381 4.00499 3.92125 3.70163 8.18527 3.54725 3.88927 3.23298 3.12545 7.07134 1.93838 2.98257
threshold=0.066299999132752432 0.28260000050067907 0.010049999691545965 0.65810000896453869 1.5570414066314699 0.010650000069290401 0.21050000190734866 0.020350000821053985 0.63044998049736034 0.27500000596046453 0.2391999959945679 2.2105520963668828 0.44799999892711645 0.39999999105930334 0.15444999933242801 0.24994999915361407 0.33724999427795416 0.23658198863267901 0.22500000149011615 0.088749997317790999 0.026549999602139 0.018649999983608726 0.014250000007450582 0.24994999915361407 0.021949999965727333 0.53734999895095836 0.10545000061392786 0.029849999584257606 0.86233633756637584 0.021650000475347046 0.52895000576972973 0.023550000041723255 0.52465000748634349
decision_type=2 2 2 2 2 2 2 2 2 2 2 2 2 2 2 2 2 2 2 2 2 2 2 2 2 2 2 2 2 2 2 2 2
left_child=-1 2 3 -2 17 9 7 13 -9 12 -11 -12 -6 -7 29 31 23 18 21 -20 -21 -3 -18 -8 25 -17 -19 28 -28 30 -4 32 -16
right_child=1 4 14 -5 5 6 16 8 -10 10 11 -13 -14 -15 15 24 22 26 19 20 -22 -23 -24 -25 -26 -27 27 -29 -30 -31 -32 -33 -34
leaf_value=-0.034070972014156452 0.015575184968525151 0.01101250918286906 0.018849146987930769 0.042572024818801867 0.020515941540433038 0.013717443516362502 0.019937518860013 0.026485760755134487 0.01493092328481626 0.0269674250413433 0.020335107555795293 0.013931496260530767 0.028641994908621377 0.004389978112736578 0.017518739076103351 0.022972897212240207 0.016843306240322941 0.013745362747064283 0.02708806991640066 0.019242632521325881 0.027581673664081163 0.020105840955744948 0.023013246739142543 0.017614916358075782 0.023258694594591227 0.013206596621475289 0.018174652831788575 0.012746725540694557 0.019025430976817047 0.019280160112967577 0.028999365205075522 0.018731328393107552 0.01045937975283383
leaf_weight=175151.46923328936 183.55848553776741 94.018153011798859 104.74506889283657 271306.49610060453 109.76732197403908 104.53371296823025 2207.011637955904 103.54242932796478 106.27126318216324 123.80622638761997 631.8001647144556 137.79710781574249 191.03706818819046 95.763446852564812 96.755514562129974 138.02165624499321 110.54862794280052 126.53189840912819 160.5818444788456 543.76422484219074 102.05467599630356 96.294799089431763 540.51613314449787 879.39815416932106 191.26172189414501 147.42937923967838 5976.3540830612183 94.267878085374832 11336.038302570581 180.24160428345203 130.61073264479637 109.7646901011467 110.24335761368275
leaf_count=1251770 499 265 278 608901 288 289 5832 262 292 312 1665 378 473 281 261 357 298 350 404 1447 256 255 1398 2359 493 406 16046 263 30244 477 321 293 310
internal_value=0.0128527 0.0405653 0.0424523 0.0425538 0.0190088 0.0198218 0.0192936 0.015124 0.0206638 0.0216508 0.0202809 0.0191968 0.0256981 0.00928934 0.0196504 0.018277 0.0197495 0.0187741 0.0206933 0.0218763 0.0205704 0.015647 0.0219754 0.0192778 0.0200941 0.0179512 0.0186647 0.0187001 0.0187321 0.022257 0.0245094 0.0155222 0.0137897
internal_weight=471722 296571 272699 271490 23871.7 5341.79 4147.59 410.111 209.814 1194.21 893.403 769.597 300.804 200.297 1209.07 793.476 3737.47 18529.9 996.714 806.401 645.819 190.313 651.065 3086.41 476.713 285.451 17533.2 17406.7 17312.4 415.597 235.356 316.764 206.999
internal_count=1928023 676253 612596 609400 63657 14127 11011 1124 554 3116 2355 2043 761 570 3196 2120 9887 49530 2627 2107 1703 520 1696 8191 1256 763 46903 46553 46290 1076 599 864 571
is_linear=0
shrinkage=0.0283395


Tree=25
num_leaves=34
num_cat=0
split_feature=2 3 13 5 2 6 6 5 18 13 13 18 3 12 2 3 13 7 6 5 7 3 2 2 3 13 7 13 13 13 2 7 13
split_gain=733096 14928.6 782.136 164.587 27.0942 7.77885 6.96005 8.87399 6.84218 9.9989 5.31219 5.94204 5.9279 5.27827 5.12401 6.27521 4.88864 4.80142 5.42502 4.7235 5.64579 4.60459 4.55682 12.0964 11.3789 4.28945 3.64664 3.2588 3.08288 2.95684 6.69994 2.41968 2.25098
threshold=0.066299999132752432 0.28260000050067907 0.010049999691545965 0.006599999964237214 0.69304999709129345 0.1430500000715256 0.052850000560283668 0.02185000013560057 0.64449253678321849 0.010049999691545965 0.024950000457465652 0.78109610080719005 0.7173999845981599 0.39999999105930334 0.13925000280141833 0.7173999845981599 0.026549999602139 0.15444999933242801 0.24374999850988391 0.0052499999292194852 0.20564999431371692 0.6739499866962434 0.98925000429153453 0.8712500035762788 0.32604999840259558 0.0053499999921768912 0.034450000151991851 0.014250000007450582 0.0059500001370906839 0.021650000475347046 0.52895000576972973 0.1909499987959862 0.018949999473989013
decision_type=2 2 2 2 2 2 2 2 2 2 2 2 2 2 2 2 2 2 2 2 2 2 2 2 2 2 2 2 2 2 2 2 2
left_child=-1 2 3 4 -2 6 8 10 9 -3 11 -8 -12 16 15 32 -9 29 19 -19 -21 -15 23 -10 -24 -16 -27 -11 -28 30 -4 -5 -7
right_child=1 5 17 31 -6 14 7 13 22 27 12 -13 -14 21 25 -17 -18 18 -20 20 -22 -23 24 -25 -26 26 28 -29 -30 -31 -32 -33 -34
leaf_value=-0.033878981030876922 0.027984950760189864 0.028766487131953108 0.018321227612077339 0.020925308181185147 0.041985983672223767 0.015523125395197814 0.01508124067861248 0.019404574857016719 0.018317911088805271 0.014811165090635379 0.0084276343593517478 0.020053299256544962 0.016975689884650289 0.018040544083110142 0.024140890039559344 0.010357923508965907 0.015502514401205269 0.014450389014349366 0.011935025339966272 0.014249611052842307 0.021706705614869436 0.015406261416319832 0.02903593526704679 0.012913940834975577 0.019079060861823333 0.013738592734859265 0.015868769957313008 0.020856513420146803 0.019227901924648242 0.018740498047121038 0.028211417850664149 0.01467880270217276 0.021744742638679752
leaf_weight=171208.46941632032 113.79280456900597 125.80420304834843 104.71006548404694 102.91045334935188 267249.72863894701 110.5434560328722 916.47666525840759 2005.5524065196514 4666.1332311332226 98.021781370043755 173.57688429951668 257.89520892500877 109.55533665418625 1309.1839352548122 146.53490939736366 125.03013467788696 316.6519583761692 165.60611419379711 115.49718296527863 109.51037314534187 402.69806967675686 989.49949835240841 102.06065444648266 367.17510083317757 1311.1952403187752 109.51999807357788 246.81272488832474 391.35330556333065 9891.3003256618977 180.178038880229 130.45628371834755 120.32266287505627 100.79151627421379
leaf_count=1251770 278 313 278 269 608526 301 2503 5319 12468 268 495 682 296 3507 375 353 863 451 322 300 1047 2698 253 1016 3486 302 669 1028 26199 477 321 327 263
internal_value=0.0127007 0.0399496 0.041857 0.0419597 0.04198 0.0184711 0.018 0.0172824 0.0186168 0.0215317 0.0153241 0.0161786 0.0117576 0.0178987 0.0190474 0.0155053 0.0188752 0.0191014 0.0177639 0.0187478 0.0201248 0.0169094 0.0183376 0.017925 0.0198027 0.0191614 0.0190896 0.0196586 0.0191468 0.0216405 0.0238351 0.0175871 0.0185207
internal_weight=463875 292666 268795 267587 267364 23870.7 13140.1 6078.39 7061.74 615.179 1457.5 1174.37 283.132 4620.89 10730.5 336.365 2322.2 1208.66 793.312 677.815 512.208 2298.68 6446.56 5033.31 1413.26 10394.2 10247.6 489.375 10138.1 415.344 235.166 223.233 211.335
internal_count=1928023 676253 612596 609400 608804 63657 35195 16363 18832 1609 3976 3185 791 12387 28462 917 6182 3196 2120 1798 1347 6205 17223 13484 3739 27545 27170 1296 26868 1076 599 596 564
is_linear=0
shrinkage=0.0283395


Tree=26
num_leaves=35
num_cat=0
split_feature=2 3 13 5 2 12 6 5 2 0 13 2 13 2 13 2 2 13 13 5 0 2 12 0 2 14 7 5 0 2 2 13 0 7
split_gain=703236 15139.9 833.663 163.254 17.0156 6.54773 5.00556 6.95432 7.42614 5.19978 3.39324 5.89926 14.4538 8.90645 6.89551 4.60409 8.66422 6.71344 4.29481 6.09476 7.98658 7.18778 5.46321 8.62206 5.21365 3.35336 3.25355 5.52175 3.34119 3.08936 7.41475 3.80117 2.70789 3.70667
threshold=0.066299999132752432 0.28260000050067907 0.010049999691545965 0.006599999964237214 0.69804999232292186 0.17500000447034839 0.26645000278949743 0.071150001138448729 0.52465000748634349 0.27445000410079962 0.015150000341236593 0.42189998924732214 0.0059500001370906839 0.29675000905990606 0.013650000095367433 0.65254998207092296 0.90035000443458568 0.010650000069290401 0.020750000141561035 0.046850001439452178 0.14164999872446063 0.29314999282360082 0.22500000149011615 0.25315000116825109 0.16745000332593921 1.1111883521080019 0.15444999933242801 0.006599999964237214 0.16845000535249713 0.81894999742507946 0.54330000281333934 0.02094999980181456 0.25315000116825109 0.34465000033378607
decision_type=2 2 2 2 2 2 2 2 2 2 2 2 2 2 2 2 2 2 2 2 2 2 2 2 2 2 2 2 2 2 2 2 2 2
