tree
version=v4
num_class=1
num_tree_per_iteration=1
label_index=0
max_feature_idx=18
objective=binary sigmoid:1
feature_names=Column_0 Column_1 Column_2 Column_3 Column_4 Column_5 Column_6 Column_7 Column_8 Column_9 Column_10 Column_11 Column_12 Column_13 Column_14 Column_15 Column_16 Column_17 Column_18
feature_infos=[0.0010000000474974513:1] [0.083300001919269562:1] [0.05000000074505806:1] [0:0.95649999380111694] [0:1] [-1:0.49930000305175781] [-1:1] [0:1] [0.05000000074505806:1] [0:1] [0:1] [0:1] [0.15000000596046448:0.85000002384185791] [0.0020000000949949026:0.05000000074505806] [0:9.9275074005126953] [0:2.3912832736968994] [0:0.24780228734016418] [0.96881061792373657:1] [0.23978953063488007:0.92104405164718628]
tree_sizes=1104 1015 1125 1332 1121 1327 1444 1123 1554 1439 1232 1121 1229 1120 1545 909 1217 1230 1550 1332 1655 1335 1560 1120 1545 1649 1545 1646 1438 1756 1760 1756 1872 1540 1757 1764 1765 1653 1764 1766 1871 1759 1865 1870 1438 1545 1974 1870 1867 1447

Tree=0
num_leaves=9
num_cat=0
split_feature=2 3 13 5 2 6 2 2
split_gain=2.84935e+06 46122.3 2353.32 485.576 24.2463 5.76962 2.29149 2.81945
threshold=0.066299999132752432 0.28260000050067907 0.010049999691545965 0.006599999964237214 0.70195001363754284 0.26645000278949743 0.70974999666214 0.5132499933242799
decision_type=2 2 2 2 2 2 2 2
left_child=-1 2 3 4 -2 -3 7 -4
right_child=1 5 6 -5 -6 -7 -8 -9
leaf_value=-0.72869034419218881 -0.6363598477587169 -0.65974108903524209 -0.65823908690264721 -0.66038965891376611 -0.62467243441241072 -0.65789817024799768 -0.65560899101266856 -0.66385965291306415
leaf_weight=288763.97576069832 149.18520821630955 19875.3838827461 490.37277641892433 209.17174087464809 280789.53340829909 2156.8891614228487 396.13063225150108 232.50487431883812
leaf_count=1299824 372 59787 1458 631 631409 6401 1155 719
internal_value=-0.676694 -0.627352 -0.624838 -0.624705 -0.624678 -0.659558 -0.65838 -0.659973
internal_weight=593063 304299 282267 281148 280939 22032.3 1119.01 722.878
internal_count=2001756 701932 635744 632412 631781 66188 3332 2177
is_linear=0
shrinkage=1


Tree=1
num_leaves=8
num_cat=0
split_feature=2 3 13 5 2 6 0
split_gain=2.6761e+06 41649.5 2162.68 428.948 16.7553 7.88673 6.21368
threshold=0.066299999132752432 0.28260000050067907 0.010049999691545965 0.006599999964237214 0.70195001363754284 0.21554999798536303 0.049550000578165061
decision_type=2 2 2 2 2 2 2
left_child=-1 2 3 4 -2 -3 -7
right_child=1 5 -4 -5 -6 6 -8
leaf_value=-0.034259227880534135 0.05565345910004342 0.032951033941020516 0.034350570059480071 0.033244319578030826 0.066265237566439622 0.028485734972242306 0.034521763077472949
leaf_weight=285236.88384829462 142.23320299386978 16832.948109030724 1147.3382358551025 216.65085318684578 287066.55983571708 194.25082597136497 5213.6527316570282
leaf_count=1299227 347 50136 3379 643 631434 596 15344
internal_value=0.0168535 0.0637603 0.0661089 0.0662355 0.0662602 0.033285 0.0343147
internal_weight=596051 310814 288573 287425 287209 22240.9 5407.9
internal_count=2001106 701879 635803 632424 631781 66076 15940
is_linear=0
shrinkage=0.0231086


Tree=2
num_leaves=9
num_cat=0
split_feature=2 3 13 5 2 14 2 7
split_gain=2.52236e+06 37875.6 1984.49 353.847 16.0139 4.09343 10.0472 4.63818
threshold=0.066299999132752432 0.28260000050067907 0.010049999691545965 0.006599999964237214 0.70195001363754284 1.5570414066314699 0.21435000002384189 0.037149999290704734
decision_type=2 2 2 2 2 2 2 2
left_child=-1 2 3 4 -2 7 -7 -3
right_child=1 5 -4 -5 -6 6 -8 -9
leaf_value=-0.033883675576795329 0.053260110472760629 0.027920023374778682 0.033078659453645957 0.03321276652945547 0.063498538973707525 0.029275668266540041 0.033634611514431562 0.032095240793877391
leaf_weight=281792.53243875504 145.97034168243408 335.65230642259121 1158.9343779534101 213.45602530241013 292873.56235274673 512.91443614661694 4526.3043353706598 17194.038545802236
leaf_count=1299312 351 1017 3380 622 632051 1539 13154 50598
internal_value=0.0164189 0.0611403 0.0633523 0.0634718 0.0634936 0.0322848 0.0332014 0.0320183
internal_weight=598753 316961 294392 293233 293020 22568.9 5039.22 17529.7
internal_count=2002024 702712 636404 633024 632402 66308 14693 51615
is_linear=0
shrinkage=0.0231086


Tree=3
num_leaves=11
num_cat=0
split_feature=2 3 13 5 2 7 7 7 6 0
split_gain=2.38033e+06 34874.4 1729.36 348.513 13.1595 2.8077 2.01156 2.08098 1.34875 1.26962
threshold=0.066299999132752432 0.28260000050067907 0.010049999691545965 0.006599999964237214 0.70195001363754284 0.037149999290704734 0.15444999933242801 0.24994999915361407 0.26645000278949743 0.24665000289678576
decision_type=2 2 2 2 2 2 2 2 2 2
left_child=-1 2 3 4 -2 -3 -4 -8 9 -7
right_child=1 5 6 -5 -6 8 7 -9 -10 -11
leaf_value=-0.03352468451602536 0.051614879752353834 0.027895048628824897 0.035394369279943175 0.030828338330341425 0.061013201807457736 0.031311719071068153 0.028337010022741471 0.033164423835647161 0.032503010287165714 0.030227627280844892
leaf_weight=278257.03953513503 152.7576690018177 427.48844353854656 402.8007185459137 211.43545341491699 297394.30621525645 16005.045474424958 306.6367057710886 462.01650987565517 2173.6721671074629 4111.1575777977705
leaf_count=1299254 361 1276 1133 616 631405 46558 909 1322 6253 12054
internal_value=0.0159652 0.058779 0.0608769 0.0609873 0.0610086 0.0311722 0.0327585 0.0313076 0.0312327 0.0310928
internal_weight=599904 321647 298930 297758 297547 22717.4 1171.45 768.653 22289.9 20116.2
internal_count=2001141 701887 635746 632382 631766 66141 3364 2231 64865 58612
is_linear=0
shrinkage=0.0231086


Tree=4
num_leaves=9
num_cat=0
split_feature=2 3 13 2 6 0 14 2
split_gain=2.25157e+06 32367.5 1648.9 318.715 2.93682 5.7395 0.579365 0.315088
threshold=0.066299999132752432 0.28260000050067907 0.010049999691545965 0.65810000896453869 0.1430500000715256 0.049249999225139625 0.23658198863267901 0.81185001134872448
decision_type=2 2 2 2 2 2 2 2
left_child=-1 2 3 -2 6 -6 -3 -4
right_child=1 4 7 -5 5 -7 -8 -9
leaf_value=-0.033181268134231535 0.027192663304075781 0.031541103090092261 0.030030584386132438 0.058762740713345633 0.026520299103646526 0.030786889487258141 0.029591816195876832 0.033787986301818222
leaf_weight=274635.09106823802 176.96029165387154 948.26049390435219 838.66881044209003 301665.0155634135 351.54276564717293 9965.3989688456059 11653.90807248652 328.92669712007046
leaf_count=1299033 516 2709 2418 631686 1043 28611 33798 919
internal_value=0.0155625 0.0566352 0.0586382 0.0587444 0.0301519 0.0306466 0.0297427 0.0311348
internal_weight=600564 325929 303010 301842 22919.1 10316.9 12602.2 1167.6
internal_count=2000733 701700 635539 632202 66161 29654 36507 3337
is_linear=0
shrinkage=0.0231086


Tree=5
num_leaves=11
num_cat=0
split_feature=2 3 13 5 2 6 7 7 7 7
split_gain=2.13635e+06 30087.2 1551.93 323.815 14.7284 5.30175 3.07376 2.22796 1.50046 0.570438
threshold=0.066299999132752432 0.28260000050067907 0.010049999691545965 0.006599999964237214 0.69804999232292186 0.26645000278949743 0.15444999933242801 0.03655000030994416 0.24994999915361407 0.1909499987959862
decision_type=2 2 2 2 2 2 2 2 2 2
left_child=-1 2 3 4 -2 7 -4 -3 -8 -7
right_child=1 5 6 -5 -6 9 8 -9 -10 -11
leaf_value=-0.03285251707509685 0.046944769050934448 0.025754624939342649 0.032748857164487256 0.028461719903887212 0.056734225019624968 0.02932597844011578 0.025782403434005174 0.029160437955113038 0.030243626661785674 0.031833450230298897
leaf_weight=271175.06909877062 144.42804369330406 363.56074206531048 401.72879940271378 223.90441784262657 305333.82721269131 947.17820081114769 307.92762875556946 20523.402850821614 466.65234862267971 1293.5967011749744
leaf_count=1299798 337 1071 1114 641 631852 2702 903 58808 1321 3620
internal_value=0.0152029 0.0546914 0.0566071 0.0567092 0.0567298 0.02927 0.0300213 0.0291037 0.028538 0.0307972
internal_weight=601181 330006 306878 305702 305478 23127.7 1176.31 20887 774.58 2240.77
internal_count=2002167 702369 636168 632830 632189 66201 3338 59879 2224 6322
is_linear=0
shrinkage=0.0231086


Tree=6
num_leaves=12
num_cat=0
split_feature=2 3 13 5 2 13 7 8 8 2 12
split_gain=2.02762e+06 28244.9 1446.06 303.333 11.9828 3.70182 2.65209 0.704603 2.37099 0.673218 0.285237
threshold=0.066299999132752432 0.28260000050067907 0.010049999691545965 0.006599999964237214 0.70195001363754284 0.012450000271201135 0.035350000485777862 0.47499999403953558 0.32500000298023229 0.70974999666214 0.32500000298023229
decision_type=2 2 2 2 2 2 2 2 2 2 2
left_child=-1 2 3 4 -2 -4 10 8 -8 -7 -3
right_child=1 6 5 -5 -6 9 7 -9 -10 -11 -12
leaf_value=-0.032537599619836259 0.046108615136662541 0.027990453155846494 0.034687669770740469 0.027528283007845489 0.05487967785100973 0.027133491020660597 0.02812423641260281 0.027753612488172472 0.029108550835561624 0.030802924705631826 0.022197449648061928
leaf_weight=267302.49593742192 158.15713723003864 133.83159628510475 147.31882467865944 224.33154088258743 308200.31207683682 672.97882437705994 8533.2054087370634 5735.1153202205896 8687.9219460785389 375.93942618370056 190.76609948277473
leaf_count=1298765 363 382 396 638 631601 1926 24290 16371 24545 1042 569
internal_value=0.0148668 0.0529122 0.0547572 0.0548556 0.0548754 0.0293059 0.0283599 0.0284088 0.0286239 0.0284991 0.0247471
internal_weight=600362 333060 309779 308583 308358 1196.24 23280.8 22956.2 17221.1 1048.92 324.598
internal_count=2000888 702123 635966 632602 631964 3364 66157 65206 48835 2968 951
is_linear=0
shrinkage=0.0231086


Tree=7
num_leaves=9
num_cat=0
split_feature=2 3 13 5 2 6 6 12
split_gain=1.92965e+06 26498.6 1342.67 266.685 9.5756 3.71774 1.38051 1.33102
threshold=0.066299999132752432 0.28260000050067907 0.010049999691545965 0.006599999964237214 0.70195001363754284 0.1430500000715256 0.052850000560283668 0.22500000149011615
decision_type=2 2 2 2 2 2 2 2
left_child=-1 2 3 4 -2 6 -3 -4
right_child=1 5 7 -5 -6 -7 -8 -9
leaf_value=-0.032235726995838779 0.044924901473373823 0.027659992116829749 0.031969691769975987 0.027468208424589812 0.053182784199221567 0.028090276052458209 0.026617287392740874 0.027544276718613082
leaf_weight=263682.52411699295 156.77602398395538 6950.8682618439198 226.72555196285248 223.89784471690655 310816.32775211334 10535.805601552129 5964.8318860828876 959.54627837240696
leaf_count=1299104 356 19608 615 629 631934 29580 16963 2698
internal_value=0.0145521 0.051288 0.0530667 0.0531605 0.0531788 0.0275926 0.0271825 0.0284349
internal_weight=599517 335835 312383 311197 310973 23451.5 12915.7 1186.27
internal_count=2001487 702383 636232 632919 632290 66151 36571 3313
is_linear=0
shrinkage=0.0231086


Tree=8
num_leaves=13
num_cat=0
split_feature=2 3 13 5 2 6 0 0 6 13 0 0
split_gain=1.83637e+06 25170.4 1341.97 267.606 7.08718 2.11511 5.99201 6.13229 0.389309 1.52892 0.238898 0.688389
threshold=0.066299999132752432 0.28260000050067907 0.010049999691545965 0.006599999964237214 0.70195001363754284 0.1430500000715256 0.062849998474121108 0.046250000596046455 0.21554999798536303 0.013650000095367433 0.24665000289678576 0.062849998474121108
decision_type=2 2 2 2 2 2 2 2 2 2 2 2
left_child=-1 2 3 4 -2 6 7 -3 9 -4 11 -7
right_child=1 5 8 -5 -6 10 -8 -9 -10 -11 -12 -13
leaf_value=-0.031946193613673651 0.043978097545605069 0.02464153608661547 0.032133915239775608 0.025839035964378365 0.051625064947902144 0.025711390151637786 0.026151194613758845 0.029847169033883722 0.024236246730777056 0.026992424650907881 0.026139636469184314 0.027647171512910497
leaf_weight=259904.96179535985 157.12235109508038 310.03486470878124 167.98374643921852 223.12846493721008 312293.31360721588 945.86695742607117 11804.606071427464 853.28915728628635 274.18993851542473 771.65206560492516 2149.9235562682152 7485.0954274535179
leaf_count=1298794 353 883 448 627 630968 2674 33280 2336 780 2152 6050 20815
internal_value=0.0142206 0.04978 0.0515088 0.0516032 0.0516214 0.0267332 0.0263664 0.0285049 0.0271682 0.0279681 0.0271777 0.0274362
internal_weight=597341 337436 313887 312674 312450 23548.8 12967.9 1163.32 1213.83 939.636 10580.9 8430.96
internal_count=2000160 701366 635328 631948 631321 66038 36499 3219 3380 2600 29539 23489
is_linear=0
shrinkage=0.0231086


Tree=9
num_leaves=12
num_cat=0
split_feature=2 3 5 13 2 6 7 13 2 12 13
split_gain=1.75256e+06 24103.8 1238.64 266.134 11.3443 8.51046 3.41593 5.09854 1.69455 2.51093 0.414546
threshold=0.066299999132752432 0.28260000050067907 0.006599999964237214 0.010650000069290401 0.69804999232292186 0.26645000278949743 0.037450000643730171 0.022149999625980858 0.29314999282360082 0.22500000149011615 0.0059500001370906839
decision_type=2 2 2 2 2 2 2 2 2 2 2
left_child=-1 2 3 4 -2 6 7 -3 -4 -10 -8
right_child=1 5 8 -5 -6 -7 10 -9 9 -11 -12
leaf_value=-0.03166831519939721 0.041557481593764788 0.024681847260561187 0.022350056639451745 0.027027061064046336 0.050189969978895688 0.02756912347124223 0.02389046182211781 0.017246823527681775 0.031024569271365064 0.025841141227959871 0.025845158307162292
leaf_weight=256409.06664356589 151.62737426161766 291.01797351241112 206.4925049841404 274.85545563697815 313900.42483824492 2305.5106952190399 767.87336146831512 130.33674937486649 188.3439553976059 765.34866937994957 20179.576391294599
leaf_count=1300005 344 823 590 756 631213 6326 2175 389 501 2128 56334
internal_value=0.0139227 0.04839 0.0500777 0.0501659 0.050186 0.0258968 0.0257139 0.0225041 0.0261517 0.0269203 0.025776
internal_weight=595570 339161 315487 314327 314052 23674.3 21368.8 421.355 1160.19 953.693 20947.4
internal_count=2001584 701579 635532 632313 631557 66047 59721 1212 3219 2629 58509
is_linear=0
shrinkage=0.0231086


Tree=10
num_leaves=10
num_cat=0
split_feature=2 3 13 2 14 13 12 7 3
split_gain=1.67298e+06 23074.7 1152.64 235.482 3.37975 1.15682 1.23805 0.896748 0.10087
threshold=0.066299999132752432 0.28260000050067907 0.010049999691545965 0.65810000896453869 1.5570414066314699 0.012749999761581423 0.22500000149011615 0.035350000485777862 0.54344999790191661
decision_type=2 2 2 2 2 2 2 2 2
left_child=-1 2 3 -2 7 -4 -7 -3 -9
right_child=1 4 5 -5 -6 6 -8 8 -10
leaf_value=-0.031401482076229621 0.022427103744406297 0.021628946147162407 0.030365761503049659 0.048859233760025544 0.025989420709098997 0.029149476819730707 0.024709278792642963 0.025495110706830977 0.024718422008329105
leaf_weight=252447.80899491906 187.25134716928005 265.84331794083118 168.05979450047016 315141.24332928658 5348.5963808000088 203.87088023126125 854.72663496434689 6826.1306596696377 11443.991032630205
leaf_count=1298934 523 763 443 631649 14715 544 2374 18905 31888
internal_value=0.0136767 0.0471038 0.0487565 0.0488437 0.0251972 0.0263083 0.0256142 0.0249658 0.0250115
internal_weight=592888 340440 316555 315328 23884.6 1226.66 1058.6 18536 18270.1
internal_count=2000738 701804 635533 632172 66271 3361 2918 51556 50793
is_linear=0
shrinkage=0.0231086


Tree=11
num_leaves=9
num_cat=0
split_feature=2 3 13 0 12 14 14 13
split_gain=1.60002e+06 22122.5 1061.14 216.68 1.8968 10.7763 1.93847 0.157824
threshold=0.066299999132752432 0.28260000050067907 0.010049999691545965 0.19614999741315844 0.39999999105930334 2.5564196109771733 1.5570414066314699 0.012749999761581423
decision_type=2 2 2 2 2 2 2 2
left_child=-1 2 3 -2 6 -6 -3 -4
right_child=1 4 7 -5 5 -7 -8 -9
leaf_value=-0.03114511010023727 0.020716239795291486 0.02455401931333662 0.029605042571463493 0.047630544748780868 0.024005152069386929 0.032722711220098774 0.025856864445373169 0.025231138034600049
leaf_weight=248776.29573047161 166.52883949875832 9255.7073924094439 162.67678767442703 315902.51164615154 11836.914893597364 108.53389653563499 2695.8532394468784 1049.5900624990463
leaf_count=1299396 466 25565 426 631884 32815 278 7346 2872
internal_value=0.0134217 0.0459185 0.0475336 0.0476165 0.0244728 0.0240888 0.0248523 0.0258617
internal_weight=589955 341178 317281 316069 23897 11945.4 11951.6 1212.27
internal_count=2001048 701652 635648 632350 66004 33093 32911 3298
is_linear=0
shrinkage=0.0231086


Tree=12
num_leaves=10
num_cat=0
split_feature=2 3 5 2 6 6 2 6 6
split_gain=1.53215e+06 21152.4 1027.07 247.296 8.49501 3.14824 2.56041 2.29764 0.624001
threshold=0.066299999132752432 0.28260000050067907 0.006599999964237214 0.66589999198913585 0.1430500000715256 0.24374999850988391 0.13925000280141833 0.052850000560283668 0.26064999401569372
decision_type=2 2 2 2 2 2 2 2 2
left_child=-1 2 3 -2 7 -4 -6 -3 -8
right_child=1 4 5 -5 6 -7 8 -9 -10
leaf_value=-0.030898658071998229 0.021295013359489405 0.023900895487682067 0.025518122197753953 0.046488363480551777 0.021181787990003503 0.020687138551590531 0.024297582999689888 0.02285604720373486 0.025487286868506907
leaf_weight=245054.1287021637 215.68254965543747 7120.4173649996519 946.34146754443645 316461.25813822448 338.07467874884605 219.91120338439941 7827.0244319587946 6099.7296023368835 2667.6630729138851
leaf_count=1299632 595 19583 2554 632472 949 616 21428 16922 7209
internal_value=0.0132013 0.0448101 0.0463915 0.0464714 0.0239114 0.0246516 0.0245029 0.0234227 0.024605
internal_weight=586950 341896 317843 316677 24052.9 1166.25 10832.8 13220.1 10494.7
internal_count=2001960 702328 636237 633067 66091 3170 29586 36505 28637
is_linear=0
shrinkage=0.0231086


Tree=13
num_leaves=9
num_cat=0
split_feature=2 3 13 5 2 6 12 7
split_gain=1.46674e+06 20676.2 1084.74 209.124 7.17493 5.48575 2.36791 0.494602
threshold=0.066299999132752432 0.28260000050067907 0.010049999691545965 0.006599999964237214 0.70195001363754284 0.26645000278949743 0.17500000447034839 0.15444999933242801
decision_type=2 2 2 2 2 2 2 2
left_child=-1 2 3 4 -2 -3 -4 -8
right_child=1 5 6 -5 -6 -7 7 -9
leaf_value=-0.030661626559868149 0.038208822516576917 0.023002017539760201 0.02864514143021377 0.022891440643308936 0.045432850891510494 0.024573073897980666 0.025000689395621962 0.021799897228027602
leaf_weight=241196.24579250813 163.77969238162041 21819.061079129577 125.4902363717556 229.16068316996098 316028.65044599771 2362.4686920642853 386.02577820420265 718.9792782664299
leaf_count=1299150 362 59872 325 623 631692 6368 1034 1983
internal_value=0.0129724 0.0437605 0.0453287 0.0454131 0.0454293 0.0231577 0.0235873 0.0229652
internal_weight=583030 341834 317652 316422 316192 24181.5 1230.5 1105.01
internal_count=2001409 702259 636019 632677 632054 66240 3342 3017
is_linear=0
shrinkage=0.0231086


Tree=14
num_leaves=13
num_cat=0
split_feature=2 3 13 5 0 12 0 2 6 7 6 13
split_gain=1.4067e+06 19921.2 980.576 208.916 5.30093 5.19696 4.28985 2.44319 2.36504 3.59395 2.01818 0.0908556
threshold=0.066299999132752432 0.28260000050067907 0.010049999691545965 0.006599999964237214 0.049249999225139625 0.39999999105930334 0.11574999988079072 0.70195001363754284 0.24374999850988391 0.24994999915361407 0.26645000278949743 0.025150000117719177
decision_type=2 2 2 2 2 2 2 2 2 2 2 2
left_child=-1 2 3 7 8 -5 -6 -2 9 -3 -8 -4
right_child=1 4 11 5 6 -7 10 -9 -10 -11 -12 -13
leaf_value=-0.030433542934096093 0.038463914741448592 0.022849195464873066 0.023007461871109625 0.026273388196231109 0.023458342937684479 0.01695568618147764 0.022311854272566458 0.044441288132546393 0.015417520017569412 0.018068444874227749 0.02379426264358514 0.026228805163155369
leaf_weight=237489.576212883 165.47233030200005 435.1786480396986 938.54692296683788 115.32570938766003 6259.3173582404852 113.11062775552273 15541.909727185965 315557.88637371361 123.93102261424065 295.34202893078327 1683.0508616268635 315.60798212885857
leaf_count=1299464 361 1186 2538 302 16957 319 42522 631570 357 835 4523 832
internal_value=0.0127604 0.042795 0.0443411 0.0444222 0.0226428 0.0218862 0.0227281 0.0444383 0.0202388 0.0209869 0.0224597 0.0238598
internal_weight=579034 341545 317206 315952 24338.7 228.436 23484.3 315723 854.452 730.521 17225 1254.15
internal_count=2001766 702302 635922 632552 66380 621 64002 631931 2378 2021 47045 3370
is_linear=0
shrinkage=0.0231086


Tree=15
num_leaves=7
num_cat=0
split_feature=2 3 13 2 6 7
split_gain=1.34944e+06 19348.9 1037.87 204.326 3.05664 2.43992
threshold=0.066299999132752432 0.28260000050067907 0.010049999691545965 0.65810000896453869 0.26645000278949743 0.03655000030994416
decision_type=2 2 2 2 2 2
left_child=-1 2 3 -2 5 -3
right_child=1 4 -4 -5 -6 -7
leaf_value=-0.030213967374222085 0.018985055044066248 0.018868758548307284 0.022255364091988344 0.043508588691748395 0.023258237973655827 0.021970819658738212
leaf_weight=233806.27612322569 188.89224441349506 370.52297227084637 1243.3900604844093 314789.80066080391 2385.9261071532965 21655.486014947295
leaf_count=1299881 519 1039 3357 631520 6390 58933
internal_value=0.0125367 0.0418803 0.0434107 0.043494 0.0220538 0.021921
internal_weight=574440 340634 316222 314979 24411.9 22026
internal_count=2001639 701758 635396 632039 66362 59972
is_linear=0
shrinkage=0.0231086


Tree=16
num_leaves=10
num_cat=0
split_feature=2 3 5 0 2 6 2 2 0
split_gain=1.29627e+06 18839 929.355 190.799 4.84479 4.50046 2.87133 2.05196 1.19504
threshold=0.066299999132752432 0.28260000050067907 0.006599999964237214 0.19614999741315844 0.29314999282360082 0.26645000278949743 0.69804999232292186 0.10545000061392786 0.24665000289678576
decision_type=2 2 2 2 2 2 2 2 2
left_child=-1 2 3 -2 -4 7 -5 -3 -9
right_child=1 5 4 6 -6 -7 -8 8 -10
leaf_value=-0.030002484267452594 0.02022479654492473 0.016900761940251675 0.017677537449758005 0.036412034359319043 0.022968940014779126 0.022774931895804845 0.042641269259520165 0.021527178821084979 0.020643955657843872
leaf_weight=229958.689406991 211.5951124727726 164.7641034424305 207.7885752171278 153.1466271430254 984.02423985302448 2376.7805719524622 314043.24944989383 17356.371392294765 4489.8214995414019
leaf_count=1299326 570 463 579 341 2619 6341 632008 47048 12263
internal_value=0.0123724 0.0410338 0.0425461 0.0426235 0.0220895 0.0214613 0.0426384 0.0213171 0.021348
internal_weight=569946 339988 315600 314408 1191.81 24387.7 314196 22011 21846.2
internal_count=2001558 702232 636117 632919 3198 66115 632349 59774 59311
is_linear=0
shrinkage=0.0231086


Tree=17
num_leaves=10
num_cat=0
split_feature=2 16 13 2 6 16 7 0 8
split_gain=1.24602e+06 18439.8 956.82 200.481 4.51214 5.19795 2.51225 2.06332 0.180755
threshold=0.066299999132752432 0.07391583546996118 0.010049999691545965 0.65810000896453869 0.26645000278949743 0.22014483809471133 0.032850001007318504 0.24665000289678576 0.37500000000000006
decision_type=2 2 2 2 2 2 2 2 2
left_child=-1 2 3 -2 6 8 -3 -8 -6
right_child=1 4 -4 -5 5 -7 7 -9 -10
leaf_value=-0.029798711631977042 0.017498520469667277 0.016194866624614553 0.021516537112772474 0.041824198206806253 0.023918938386696807 0.019066702936024339 0.020980258955106718 0.020036115007981109 0.021714632693266494
leaf_weight=226297.06607723236 188.19550615549088 163.36724931001663 1256.0732550024986 313038.93317198753 992.39306065440178 425.07964123785496 17413.066010445356 4501.5241949111223 979.50611852109432
leaf_count=1299744 517 461 3361 632537 2603 1159 47075 12271 2616
internal_value=0.0121913 0.0402251 0.0417289 0.0418097 0.0209005 0.0222008 0.020757 0.0207887 0.0228503
internal_weight=565255 338958 314483 313227 24474.9 2396.98 22078 21914.6 1971.9
internal_count=2002344 702600 636415 633054 66185 6378 59807 59346 5219
is_linear=0
shrinkage=0.0231086


Tree=18
num_leaves=13
num_cat=0
split_feature=2 3 13 5 2 14 12 12 12 13 12 8
split_gain=1.19735e+06 18137.5 911.037 200.543 6.87757 3.93185 5.29138 2.46112 1.84679 1.01693 1.23034 0.992045
threshold=0.066299999132752432 0.28260000050067907 0.010049999691545965 0.006599999964237214 0.69804999232292186 1.3390499949455263 0.32500000298023229 0.39999999105930334 0.22500000149011615 0.012749999761581423 0.22500000149011615 0.52500000596046459
decision_type=2 2 2 2 2 2 2 2 2 2 2 2
left_child=-1 2 3 4 -2 6 8 -5 -3 -4 -11 -7
right_child=1 5 9 7 -6 11 -8 -9 -10 10 -12 -13
leaf_value=-0.029602285774012232 0.033753757816224715 0.020014771326067902 0.024766849776347397 0.022667089268421807 0.041062641347336656 0.021140069775885052 0.019598882799376008 0.01523036896279306 0.021361754168441698 0.02368730184473684 0.019686156647454076 0.019357692242842766
leaf_weight=222448.6702503264 148.03885337710381 3398.6507174223661 171.24325373768806 117.58543163537979 311134.99393826723 6688.9630638957024 10125.84820856154 115.49040341377258 3353.2046973407269 210.82468907535076 862.3781836181879 944.82649146020412
leaf_count=1298990 329 9203 440 307 631672 17894 27517 321 8982 548 2330 2564
internal_value=0.0120149 0.0394638 0.0409641 0.0410431 0.0410593 0.0203174 0.020039 0.0192025 0.0206914 0.0211468 0.0205206 0.0209262
internal_weight=559721 337272 312761 311516 311283 24511.5 16877.7 233.076 6751.86 1244.45 1073.2 7633.79
internal_count=2001097 702107 635947 632629 632001 66160 45702 628 18185 3318 2878 20458
is_linear=0
shrinkage=0.0231086


Tree=19
num_leaves=11
num_cat=0
split_feature=2 3 5 2 7 6 5 2 2 13
split_gain=1.15232e+06 17841 911.343 195.918 2.94603 2.05163 7.18841 6.66033 1.77884 0.653366
threshold=0.066299999132752432 0.28260000050067907 0.006599999964237214 0.66589999198913585 0.031850000843405731 0.1430500000715256 0.079549998044967665 0.1438500061631203 0.21435000002384189 0.017849999479949478
decision_type=2 2 2 2 2 2 2 2 2 2
left_child=-1 2 3 9 -3 6 -6 -7 -4 -2
right_child=1 4 8 -5 5 7 -8 -9 -10 -11
leaf_value=-0.029412863273805143 0.015191707839791992 0.014134481909281378 0.01536361569848399 0.040334121094533375 0.019368067743891038 0.016395484720019438 0.023363462562346834 0.020325408850649682 0.020605427146494958 0.021385369073726918
leaf_weight=218851.39967089891 115.28853303194046 110.97458919882774 119.69851286709309 309621.37360689044 13121.650572776794 374.06144267320633 372.91541038453579 10589.228926256299 1088.9340631663799 112.38020068407059
leaf_count=1299588 314 314 333 632170 35512 1036 976 28356 2897 297
internal_value=0.0118416 0.0387424 0.0402399 0.0403182 0.0197808 0.0198043 0.0194823 0.020196 0.0201285 0.0184742
internal_weight=554478 335627 311058 309849 24568.8 24457.9 13494.6 10963.3 1208.63 227.669
internal_count=2001793 702205 636011 632781 66194 65880 36488 29392 3230 611
is_linear=0
shrinkage=0.0231086


Tree=20
num_leaves=14
num_cat=0
split_feature=2 3 13 5 2 6 13 13 12 7 7 0 0
split_gain=1.10873e+06 17513.7 896.286 183.085 11.3839 4.64685 7.43351 4.7567 4.04032 3.27324 2.10782 1.79767 0.950136
threshold=0.066299999132752432 0.28260000050067907 0.010049999691545965 0.006599999964237214 0.69804999232292186 0.26645000278949743 0.014250000007450582 0.01544999983161688 0.39999999105930334 0.039650000631809242 0.11744999885559083 0.062849998474121108 0.2396500036120415
decision_type=2 2 2 2 2 2 2 2 2 2 2 2 2
left_child=-1 2 3 4 -2 7 12 11 -5 -9 -8 -3 -7
right_child=1 5 -4 8 -6 6 10 9 -10 -11 -12 -13 -14
leaf_value=-0.029230127190889615 0.031270286976230688 0.020380506571319061 0.020000438519747064 0.022421174272177536 0.039659222841462193 0.023494249958685761 0.016709806386123818 0.016231437634925298 0.01405070678161488 0.019632411772111304 0.020097566256985833 0.018459520969121544 0.019294089124604289
leaf_weight=215064.75940853357 144.37661275267601 842.80089707672596 1256.4254807382822 115.7381246984005 307182.07419335842 706.37695640325546 346.64598962664604 328.61408600211143 112.35703322291374 12729.193954885006 1157.1016252040863 8346.4000463783741 202.71316507458687
leaf_count=1298932 326 2248 3340 299 631072 1824 946 910 312 34154 3073 22609 541
internal_value=0.0116796 0.0380635 0.0395602 0.0396399 0.0396555 0.0193189 0.0206018 0.0191774 0.0185227 0.0195507 0.0193507 0.0186413 0.0226144
internal_weight=548536 333471 308811 307555 307326 24659.8 2412.84 22247 228.095 13057.8 1503.75 9189.2 909.09
internal_count=2000586 701654 635349 632009 631398 66305 6384 59921 611 35064 4019 24857 2365
is_linear=0
shrinkage=0.0231086


Tree=21
num_leaves=11
num_cat=0
split_feature=2 3 13 5 2 0 6 0 6 0
split_gain=1.06908e+06 16998.7 823.612 184.403 7.68783 4.33653 4.88604 6.88352 2.30715 0.889003
threshold=0.066299999132752432 0.28260000050067907 0.010049999691545965 0.006599999964237214 0.70195001363754284 0.049249999225139625 0.1430500000715256 0.062849998474121108 0.23185000568628314 0.24665000289678576
decision_type=2 2 2 2 2 2 2 2 2 2
left_child=-1 2 3 4 -2 8 7 -7 -3 -8
right_child=1 5 -4 -5 -6 6 9 -9 -10 -11
leaf_value=-0.029053771745882001 0.031822327604572223 0.017593658469851524 0.020171488099157579 0.018161559508909412 0.039015464525471888 0.021322619599713429 0.019753836762659221 0.018475765402270337 0.012852317502145102 0.018579849713791681
leaf_weight=211534.71806526184 156.91261291503906 705.17327958345413 1257.4593279212713 235.78586277365685 305225.96699887514 723.57640747725964 8448.4787887781858 12353.399182677269 158.02645941078663 2227.704225063324
leaf_count=1299682 351 1915 3320 631 631420 1902 22469 33307 445 5987
internal_value=0.0115355 0.0374368 0.0389191 0.038996 0.0390119 0.0189565 0.0190333 0.0186372 0.0167843 0.0195137
internal_weight=543027 331492 306876 305619 305383 24616.4 23753.2 13077 863.2 10676.2
internal_count=2001429 701747 635722 632402 631771 66025 63665 35209 2360 28456
is_linear=0
shrinkage=0.0231086


Tree=22
num_leaves=13
num_cat=0
split_feature=2 3 13 2 0 13 13 13 13 8 7 13
split_gain=1.02977e+06 16981.4 884.787 185.944 3.36721 6.98407 4.16453 3.89198 3.25639 2.02151 0.303917 0.11609
threshold=0.066299999132752432 0.28260000050067907 0.010049999691545965 0.65810000896453869 0.24665000289678576 0.0059500001370906839 0.025649999268352989 0.0056499999482184657 0.014549999963492157 0.47499999403953558 0.15444999933242801 0.028749999590218071
decision_type=2 2 2 2 2 2 2 2 2 2 2 2
left_child=-1 2 3 -2 5 7 8 -3 -6 -7 -4 -8
right_child=1 4 10 -5 6 9 11 -9 -10 -11 -12 -13
leaf_value=-0.028883514488513822 0.014824996707350414 0.017263713854700859 0.020601784511738299 0.038401317089945673 0.016974848898575798 0.018881976618483391 0.014710090038766058 0.012425896504090327 0.018824613627279857 0.017968946167426669 0.017907516438732989 0.017741373868857428
leaf_weight=207850.25300593674 185.71575957536697 506.02933993935585 428.32925371825695 303110.5643350333 1894.9689422249794 14180.642445296049 615.7326835244894 225.60543617606163 2275.0993363410234 4708.0770736634731 827.1467540115118 246.25675198435783
leaf_count=1299329 507 1368 1118 631851 5142 37852 1700 633 6081 12664 2215 663
internal_value=0.0113873 0.0368134 0.0383068 0.038387 0.0183623 0.0185547 0.017602 0.0158412 0.0179963 0.0186571 0.0188677 0.0156354
internal_weight=537054 329204 304552 303296 24652.4 19620.4 5032.06 731.635 4170.07 18888.7 1255.48 861.989
internal_count=2001123 701794 635691 632358 66103 52517 13586 2001 11223 50516 3333 2363
is_linear=0
shrinkage=0.0231086


Tree=23
num_leaves=9
num_cat=0
split_feature=2 3 13 2 14 8 0 8
split_gain=993133 16661.2 905.822 199.259 3.23089 2.23674 6.46364 4.02349
threshold=0.066299999132752432 0.28260000050067907 0.010049999691545965 0.65810000896453869 1.7969430685043337 0.47499999403953558 0.046250000596046455 0.32500000298023229
decision_type=2 2 2 2 2 2 2 2
left_child=-1 2 3 -2 5 7 -7 -3
right_child=1 4 -4 -5 -6 6 -8 -9
leaf_value=-0.028719090543702377 0.013703589716998386 0.017572561545952974 0.018187426013377923 0.037824245249164445 0.018978189679160797 0.010749095026459944 0.017355107505162812 0.018562823385332567
leaf_weight=204193.62215870619 189.5469102114439 7995.6912711262703 1271.6349848359823 300809.20755365491 3265.2444795817137 121.07671456038952 5253.8018326461315 8141.7826133668423
leaf_count=1298961 521 21485 3379 632192 8641 343 14146 21698
internal_value=0.0112675 0.0362334 0.0377268 0.0378092 0.018012 0.0178629 0.0172156 0.0180754
internal_weight=531242 327048 302270 300999 24777.6 21512.4 5374.88 16137.5
internal_count=2001366 702405 636092 632713 66313 57672 14489 43183
is_linear=0
shrinkage=0.0231086


Tree=24
num_leaves=13
num_cat=0
split_feature=2 3 13 2 14 7 14 0 7 7 13 7
split_gain=958255 16478.7 842.777 172.978 3.42845 1.9404 1.63816 1.57949 1.32946 3.22453 0.986493 0.0416956
threshold=0.066299999132752432 0.28260000050067907 0.010049999691545965 0.64434999227523815 1.5570414066314699 0.035350000485777862 0.23658198863267901 0.049249999225139625 0.15444999933242801 0.24994999915361407 0.021650000475347046 0.033150000497698791
decision_type=2 2 2 2 2 2 2 2 2 2 2 2
left_child=-1 2 3 -2 5 11 -7 -6 10 -10 -4 -3
right_child=1 4 8 -5 7 6 -8 -9 9 -11 -12 -13
leaf_value=-0.028560242510138181 0.014727643242127086 0.015904375844744311 0.022141206616369657 0.037278605265643402 0.014553977070589679 0.018958050807016437 0.017321036101344431 0.018405653368396651 0.014707524960588284 0.018855369673906629 0.017264266932455637 0.011252298010119854
leaf_weight=200697.43006324768 189.14347292482853 162.36410342156887 254.12994648516178 298061.91984212399 186.27189974486828 1031.3759945034981 17974.624230489135 5323.8443255722523 336.79357640445232 491.54872718453407 184.88770407438278 110.62097191810608
leaf_count=1299424 514 443 648 631898 511 2727 48196 14094 918 1293 491 312
internal_value=0.0111258 0.0356857 0.0371844 0.0372645 0.0175752 0.0173698 0.0174126 0.0182847 0.0183013 0.0172305 0.0202045 0.0142044
internal_weight=525005 324308 299518 298251 24789.1 19279 19006 5510.12 1267.36 828.342 439.018 272.985
internal_count=2001469 702045 635762 632412 66283 51678 50923 14605 3350 2211 1139 755
is_linear=0
shrinkage=0.0231086


Tree=25
num_leaves=14
num_cat=0
split_feature=2 3 5 13 2 5 13 7 6 5 5 7 7
split_gain=925056 16253.1 865.263 177.612 11.1501 2.70882 2.85044 2.69258 1.59858 4.71794 4.26987 1.92304 1.11567
threshold=0.066299999132752432 0.28260000050067907 0.006599999964237214 0.010049999691545965 0.69804999232292186 0.069099999964237227 0.0080500002950429934 0.1909499987959862 0.26064999401569372 0.079549998044967665 0.071150001138448729 0.35915000736713415 0.039349999278783805
decision_type=2 2 2 2 2 2 2 2 2 2 2 2 2
left_child=-1 2 3 4 -2 6 -4 -5 9 12 11 -10 -3
right_child=1 8 5 7 -6 -7 -8 -9 10 -11 -12 -13 -14
leaf_value=-0.028406730130458583 0.028470329877853379 0.014901084377033068 0.012604765263867591 0.021859519800572578 0.036765056968762914 0.013607546777018987 0.018380483590740935 0.015192876457332985 0.018904544987665136 0.019433527353830311 0.015155550427343191 0.015349507812702133 0.017029800620709117
leaf_weight=197124.8771725148 141.30795511603355 518.09923769533634 111.27882486581802 139.26028022170067 295353.05122384429 221.33514946699142 874.03806301951408 156.71997505426407 2171.1672525405884 725.5327877253294 414.59900386631489 254.68347625434399 20702.340986773372
leaf_count=1299191 325 1417 305 353 631941 604 2301 421 5691 1902 1120 686 55395
internal_value=0.0110137 0.0351629 0.0366634 0.0367432 0.0367613 0.0170563 0.0177795 0.018503 0.0171816 0.0170637 0.0180744 0.0185523 0.0169802
internal_weight=518908 321783 296997 295790 295494 1206.65 985.317 295.98 24786.4 21946 2840.45 2425.85 21220.4
internal_count=2001652 702461 636250 633040 632266 3210 2606 774 66211 58714 7497 6377 56812
is_linear=0
shrinkage=0.0231086


Tree=26
num_leaves=13
num_cat=0
split_feature=2 3 13 5 2 14 3 7 12 13 2 2
split_gain=892787 16345.9 793.47 189.33 9.98151 4.4429 3.76413 6.53141 3.13455 0.418237 0.0551904 1.18483
threshold=0.066299999132752432 0.28260000050067907 0.010049999691545965 0.006599999964237214 0.69804999232292186 2.4703083038330083 0.54344999790191661 0.037450000643730171 0.32500000298023229 0.0059500001370906839 0.84029999375343334 0.60354998707771312
decision_type=2 2 2 2 2 2 2 2 2 2 2 2
left_child=-1 2 3 4 -2 6 9 -8 -7 -3 11 -4
right_child=1 5 10 -5 -6 8 7 -9 -10 -11 -12 -13
leaf_value=-0.028258333742175377 0.028352600241819355 0.014703781495995123 0.017980537274972206 0.015036908814221152 0.036271846408785807 0.015841538145806806 0.012127758671134877 0.016374668033480061 0.022243270160366726 0.017181123793792344 0.019794273729574857 0.014368034345501508
leaf_weight=193598.34122501314 144.23868463933468 326.0633946210146 687.23501931130886 232.58586654067039 292398.74418976903 145.78231801092625 288.80388225615025 15052.114070370793 230.32210600376129 8807.6832654923201 339.35563926398754 242.01968729496002
leaf_count=1299035 332 885 1810 624 631760 389 804 40315 583 23434 875 654
internal_value=0.0108865 0.0346511 0.0361722 0.0362514 0.0362681 0.0166507 0.0165987 0.016298 0.0198983 0.0170982 0.0178572 0.0170944
internal_weight=512493 318895 294044 292776 292543 24850.8 24474.7 15340.9 376.104 9133.75 1268.61 929.255
internal_count=2001500 702465 636055 632716 632092 66410 65438 41119 972 24319 3339 2464
is_linear=0
shrinkage=0.0231086


Tree=27
num_leaves=14
num_cat=0
split_feature=2 16 5 2 2 12 0 2 0 16 2 2 13
split_gain=863117 16117.7 812.911 179.351 6.30132 4.76263 3.71151 4.61878 2.48891 1.98261 5.33953 1.60151 1.50792
threshold=0.066299999132752432 0.07391583546996118 0.006599999964237214 0.66589999198913585 0.29314999282360082 0.39999999105930334 0.26015000045299536 0.6480500102043153 0.049249999225139625 0.14179307967424395 0.34039999544620519 0.49100001156330114 0.017849999479949478
decision_type=2 2 2 2 2 2 2 2 2 2 2 2 2
left_child=-1 2 3 12 -4 6 8 -8 -3 -7 -11 -6 -2
right_child=1 5 4 -5 11 9 7 -9 -10 10 -12 -13 -14
leaf_value=-0.028114835976653593 0.011376488427076713 0.014331207936471864 0.012141768769500256 0.035797013994761019 0.020029469289035175 0.016461778224651644 0.018629369605129349 0.014739740157483026 0.017021814474990134 0.014147445587055016 0.015921591315225754 0.016470514946724416 0.017712357195946812
leaf_weight=190310.9208022058 111.62216252088547 434.63733004033566 206.70818077027798 289764.49614924192 290.30172495543957 4629.7684315890074 316.99994242191315 1590.7080801278353 10099.320362776518 1832.2670274674892 5872.3298202157021 706.45443665981293 114.03792947530746
leaf_count=1300270 304 1181 570 632552 749 12345 830 4303 26798 4978 15733 1870 299
internal_value=0.010763 0.0341795 0.035702 0.0357809 0.0166702 0.016283 0.0166893 0.0154129 0.0169156 0.0158691 0.0155063 0.0175586 0.0148032
internal_weight=506281 315970 291194 289990 1203.46 24776 12441.7 1907.71 10534 12334.4 7704.6 996.756 225.66
internal_count=2002782 702512 636344 633155 3189 66168 33112 5133 27979 33056 20711 2619 603
is_linear=0
shrinkage=0.0231086


Tree=28
num_leaves=12
num_cat=0
split_feature=2 3 13 5 2 13 14 7 7 7 6
split_gain=833667 15962.1 795.366 179.866 13.307 5.11373 4.95835 4.65901 1.77058 0.616224 0.615485
threshold=0.066299999132752432 0.28260000050067907 0.010049999691545965 0.006599999964237214 0.69804999232292186 0.02615000028163195 0.23658198863267901 0.046649999916553504 0.15444999933242801 0.24994999915361407 0.26645000278949743
decision_type=2 2 2 2 2 2 2 2 2 2 2
left_child=-1 2 3 4 -2 10 -7 -8 -4 -10 -3
right_child=1 5 8 -5 -6 6 7 -9 9 -11 -12
leaf_value=-0.027976031168046204 0.026576367858943958 0.015996416281635013 0.018927062453031628 0.014457886776836645 0.035356565444647915 0.019792632804588567 0.0096599858806591561 0.014899842951376356 0.014010926190849683 0.017082270864151965 0.017024671628200351
leaf_weight=186836.92797777057 139.0795239508152 18999.254255115986 436.15686628222466 228.33420668542385 286206.55080911517 166.31491579115391 149.984753459692 3443.4839965701103 340.86296500265598 498.69916445016861 2023.6743866801262
leaf_count=1300002 326 50712 1126 612 631471 429 421 9266 921 1311 5327
internal_value=0.0106428 0.0337225 0.0352548 0.035336 0.0353525 0.0159234 0.0149343 0.0146951 0.0169724 0.0158959 0.0160978
internal_weight=499469 312632 287850 286574 286346 24782.7 3759.78 3593.47 1275.72 839.562 21022.9
internal_count=2001924 701922 635767 632409 631797 66155 10116 9687 3358 2232 56039
is_linear=0
shrinkage=0.0231086


Tree=29
num_leaves=15
num_cat=0
split_feature=2 3 13 0 2 8 7 8 7 7 2 2 7 5
split_gain=805546 15884.3 842.77 181.199 3.03619 2.86633 4.61457 4.50352 4.3075 3.20543 2.95046 2.43022 0.540783 0.208449
threshold=0.066299999132752432 0.28260000050067907 0.010049999691545965 0.19614999741315844 0.69804999232292186 0.47499999403953558 0.23525000363588336 0.32500000298023229 0.24255000054836276 0.037750000134110458 0.25145000219345098 0.14914999902248385 0.15444999933242801 0.042749999091029174
decision_type=2 2 2 2 2 2 2 2 2 2 2 2 2 2
left_child=-1 2 3 -2 -5 7 11 8 -3 -9 -8 -7 -4 -14
right_child=1 5 12 4 -6 6 10 9 -10 -11 -12 -13 13 -15
leaf_value=-0.027841733255431121 0.011269468463159654 0.015809911022167923 0.017632392941997505 0.02896317328969316 0.034927248517459888 0.0097336061616018002 0.013065483691397917 0.012003381678425035 0.014506963417321472 0.016267384783052556 0.016196376548730577 0.014354249465344211 0.01615249616847092 0.013338321780330854
leaf_weight=183389.46546204388 179.28514614701271 5308.4680032432079 430.57788637280464 146.03778721392155 283039.76405251026 131.79692606627941 370.67016619443893 186.50155493617058 3905.7519061863422 9182.4975758939981 2404.007696300745 3288.3521210700274 496.89721739292145 343.17204964160919
leaf_count=1299649 492 14139 1120 338 631500 368 1009 514 10511 24354 6383 8865 1313 929
internal_value=0.0105345 0.0332803 0.0348252 0.0349096 0.0349244 0.0155307 0.0149182 0.0157321 0.0152631 0.0161879 0.0157964 0.0141908 0.0159741 0.0150633
internal_weight=492803 309414 284636 283365 283186 24778 6194.83 18583.2 9214.22 9369 2774.68 3420.15 1270.65 840.069
internal_count=2001484 701835 635692 632330 631838 66143 16625 49518 24650 24868 7392 9233 3362 2242
is_linear=0
shrinkage=0.0231086


Tree=30
num_leaves=15
num_cat=0
split_feature=2 3 13 5 2 12 13 6 0 0 0 0 12 8
split_gain=778922 15703 828.501 181.509 12.6773 3.96349 3.32118 2.83992 1.92824 1.88786 1.86546 1.61001 0.75797 0.691009
threshold=0.066299999132752432 0.28260000050067907 0.010049999691545965 0.006599999964237214 0.69804999232292186 0.39999999105930334 0.012749999761581423 0.26645000278949743 0.088749997317790999 0.088749997317790999 0.11574999988079072 0.049249999225139625 0.22500000149011615 0.32500000298023229
decision_type=2 2 2 2 2 2 2 2 2 2 2 2 2 2
left_child=-1 2 3 4 -2 -5 -4 9 -9 11 -10 -3 -8 -11
right_child=1 7 6 5 -6 -7 12 8 10 13 -12 -13 -14 -15
leaf_value=-0.02771175889475104 0.025810439435229083 0.014225649340492948 0.019716733027974064 0.017151041201186216 0.034524899952065854 0.0093903641595498161 0.017656857787751046 0.014041586293454544 0.019678971891221631 0.014531256045957657 0.016281417588349719 0.016159299062273431 0.01433867989386794 0.015193233595614657
leaf_weight=179931.29002943635 135.58181597292423 803.16782610118389 176.95346349477768 117.6864135414362 279865.07103918493 111.71000325679779 214.49303612112999 435.68392318487167 267.36060245335102 6746.8432933986187 1702.4159502834082 3436.7609579861164 879.1846719533205 11397.541655391455
leaf_count=1298930 321 2165 450 306 631655 310 556 1169 683 18113 4481 9099 2353 30430
internal_value=0.0104488 0.0328665 0.0344193 0.0345039 0.0345209 0.0135922 0.0157285 0.0152309 0.0162959 0.0151141 0.0167687 0.015805 0.0150362 0.0149499
internal_weight=486222 306290 281501 280230 280001 229.396 1270.63 24789.8 2405.46 22384.3 1969.78 4239.93 1093.68 18144.4
internal_count=2001021 702091 635951 632592 631976 616 3359 66140 6333 59807 5164 11264 2909 48543
is_linear=0
shrinkage=0.0231086


Tree=31
num_leaves=15
num_cat=0
split_feature=2 3 5 13 2 8 14 12 13 7 8 14 14 6
split_gain=753184 15826.4 800.742 180.764 8.86029 4.13597 4.86306 3.10579 2.67751 2.22436 0.990662 0.843984 0.289481 0.193891
threshold=0.066299999132752432 0.28260000050067907 0.006599999964237214 0.010950000025331976 0.69804999232292186 0.47499999403953558 2.2935868501663212 0.22500000149011615 0.01124999998137355 0.1909499987959862 0.32500000298023229 1.5570414066314699 1.1111883521080019 0.28335000574588781
decision_type=2 2 2 2 2 2 2 2 2 2 2 2 2 2
left_child=-1 2 3 4 -2 6 10 -4 -9 -5 -3 12 -7 -8
right_child=1 5 7 9 -6 11 13 8 -10 -11 -12 -13 -14 -15
leaf_value=-0.027585934470583835 0.026623165345180073 0.014531030002571357 0.01849230687445334 0.018598670200886999 0.034137443491854762 0.014062318795368827 0.015776409452032555 0.011268267532685242 0.015295746882298518 0.01241012747275605 0.015200326695270798 0.015083144172156282 0.012721836152956082 0.019336506639277887
leaf_weight=176712.47913859785 145.5542027503252 8938.3864890187979 234.80051638185978 130.03661431372166 276269.63831663132 3731.5252964198589 308.05625596642494 230.39833277463913 749.18034668266773 155.36016972362995 9001.4855969846249 1374.2293042242527 1096.0453705042601 278.00764079391956
leaf_count=1299657 343 23923 603 332 631037 10035 812 629 1986 419 23948 3653 2976 710
internal_value=0.0103215 0.0324558 0.0340322 0.0341145 0.0341337 0.0147363 0.0149573 0.0152334 0.0144 0.0154083 0.0148697 0.014068 0.0137685 0.0175526
internal_weight=479355 302643 277915 276701 276415 24727.7 18525.9 1214.38 979.579 285.397 17939.9 6201.8 4827.57 586.064
internal_count=2001063 701406 635349 632131 631380 66057 49393 3218 2615 751 47871 16664 13011 1522
is_linear=0
shrinkage=0.0231086


Tree=32
num_leaves=16
num_cat=0
split_feature=2 3 13 5 2 0 3 6 13 12 5 0 5 7 12
split_gain=728972 15655.3 870.165 177.495 12.3231 3.93951 6.76342 8.04968 5.14444 12.4537 4.20413 2.45282 1.91473 0.84105 0.467668
threshold=0.066299999132752432 0.28260000050067907 0.010049999691545965 0.006599999964237214 0.69804999232292186 0.24665000289678576 0.54344999790191661 0.23185000568628314 0.0059500001370906839 0.62500000000000011 0.073249999433755889 0.16845000535249713 0.069099999964237227 0.1909499987959862 0.39999999105930334
decision_type=2 2 2 2 2 2 2 2 2 2 2 2 2 2 2
left_child=-1 2 3 4 -2 8 7 -7 9 -3 -8 -10 13 -4 -5
right_child=1 5 12 14 -6 6 10 -9 11 -11 -12 -13 -14 -15 -16
leaf_value=-0.027464098260525836 0.025286835337006659 0.014437972009455463 0.016474476061179143 0.015671129595341483 0.033767338014975161 0.015795598793761169 0.012586774534448102 0.011389988077619664 0.014462668143785105 0.0074133607210896072 0.016210320593800006 0.015251438922918187 0.010983678548213555 0.013796367932943488 0.010514180768776415
leaf_weight=173348.63381159306 139.41699838638306 519.41993016004562 486.97576846182346 115.00298722088337 273277.1302946806 1571.4242122471333 2831.4913651645184 367.99895083904266 11802.180420130491 230.06686291098595 296.86407864093781 7186.9531560540199 174.21808362007141 610.47114245593548 118.87174066901207
leaf_count=1299026 333 1387 1270 301 631946 4155 7682 1004 31511 649 781 19064 476 1632 326
internal_value=0.0102553 0.0320706 0.0336571 0.0337459 0.0337632 0.0144852 0.0137371 0.0149857 0.0146747 0.0123485 0.0129469 0.0147639 0.0145162 0.0150311 0.0132661
internal_weight=473077 299728 274922 273650 273417 24806.4 5067.78 1939.42 19738.6 749.487 3128.36 18989.1 1271.66 1097.45 233.875
internal_count=2001543 702517 636284 632906 632279 66233 13622 5159 52611 2036 8463 50575 3378 2902 627
is_linear=0
shrinkage=0.0231086


Tree=33
num_leaves=13
num_cat=0
split_feature=2 3 5 2 0 0 2 8 2 0 2 14
split_gain=705469 15646.6 774.158 181.676 5.16386 6.0109 9.25454 4.82892 4.54301 3.39787 1.44371 2.02858
threshold=0.066299999132752432 0.28260000050067907 0.006599999964237214 0.66589999198913585 0.049550000578165061 0.11574999988079072 0.33605000376701361 0.47499999403953558 0.29934999346733099 0.043250000104308135 0.2230000048875809 1.7969430685043337
decision_type=2 2 2 2 2 2 2 2 2 2 2 2
left_child=-1 2 3 -2 7 8 -7 9 -6 -3 -4 -12
right_child=1 4 10 -5 5 6 -8 -9 -10 -11 11 -13
leaf_value=-0.027346091090718713 0.011892502153628921 0.015837682195542085 0.010713896716355307 0.033406229610185079 0.01420336657783869 0.011444314156171392 0.014058670677057053 0.0082647237233494583 0.015783943294538604 0.011391236239285604 0.015698876958430495 0.011273963239820224
leaf_weight=170121.78344258666 217.01390898227692 246.57806074619293 129.48803834617138 269939.11454629898 3534.3358855545521 980.20304077863693 16519.124086275697 213.32508328557014 2808.8463507890701 433.59371760487556 911.09002995491028 154.25353573262691
leaf_count=1299107 585 650 355 632219 9431 2674 44155 598 7398 1185 2392 419
internal_value=0.0101555 0.0317029 0.0333069 0.0333891 0.0141049 0.0141823 0.0139151 0.0119846 0.0149113 0.0130777 0.0146717 0.0151055
internal_weight=466209 296087 271351 270156 24736 23842.5 17499.3 893.497 6343.18 680.172 1194.83 1065.34
internal_count=2001168 702061 635970 632804 66091 63658 46829 2433 16829 1835 3166 2811
is_linear=0
shrinkage=0.0231086


Tree=34
num_leaves=15
num_cat=0
split_feature=2 3 13 0 6 0 0 7 0 3 6 12 7 2
split_gain=682286 15638.9 844.35 154.169 4.91958 4.53635 5.45212 3.73183 5.46816 4.01308 3.19006 2.47134 4.59775 2.18951
threshold=0.066299999132752432 0.28260000050067907 0.010049999691545965 0.19614999741315844 0.1430500000715256 0.062849998474121108 0.047150000929832465 0.11744999885559083 0.062849998474121108 0.5000000149011613 0.052850000560283668 0.22500000149011615 0.15444999933242801 0.69804999232292186
decision_type=2 2 2 2 2 2 2 2 2 2 2 2 2 2
left_child=-1 2 3 -2 5 6 -3 8 -6 -9 -7 -4 -13 -5
right_child=1 4 11 13 7 10 -8 9 -10 -11 -12 12 -14 -15
leaf_value=-0.027231769381252803 0.010642682019932499 0.012189696835104005 0.016934778730771309 0.027172805265865099 0.0090121953595286089 0.013675381657743027 0.016307540938408641 0.015432172105980677 0.01355813450634742 0.014044845684139174 0.012686733847212731 0.015836705654040117 0.011782452464236981 0.033071096157351237
leaf_weight=166840.14719408751 170.37999054789543 377.75472365319729 247.06183932721615 130.5962723493576 224.18837001919746 6662.5673677027225 833.67224110662937 2738.4454171657562 2322.9094652086496 5822.4101332873106 5748.6000997871161 351.09750823676586 659.70145720243454 265939.57126127183
leaf_count=1298444 466 1024 638 310 622 17836 2181 7211 6214 15512 15518 916 1787 631017
internal_value=0.0100526 0.0313393 0.0329649 0.0330542 0.0137542 0.0133892 0.0150653 0.0141971 0.0131777 0.0144946 0.0132215 0.014007 0.0132409 0.0330684
internal_weight=459069 292229 267498 266241 24730.5 13622.6 1211.43 11108 2547.1 8560.86 12411.2 1257.86 1010.8 266070
internal_count=1999696 701252 635134 631793 66118 36559 3205 29559 6836 22723 33354 3341 2703 631327
is_linear=0
shrinkage=0.0231086


Tree=35
num_leaves=15
num_cat=0
split_feature=2 3 13 5 2 12 14 14 14 13 13 12 5 5
split_gain=661538 15465 835.132 185.644 10.9622 3.75481 10.3218 2.3036 2.29724 1.8868 3.35601 1.78569 1.40651 0.845744
threshold=0.066299999132752432 0.28260000050067907 0.010049999691545965 0.006599999964237214 0.69804999232292186 0.39999999105930334 2.5564196109771733 1.5570414066314699 0.23658198863267901 0.012450000271201135 0.025649999268352989 0.39999999105930334 0.019749999977648262 0.065650001168251051
decision_type=2 2 2 2 2 2 2 2 2 2 2 2 2 2
left_child=-1 2 3 4 -2 7 8 13 -7 -4 -11 -5 -9 -3
right_child=1 5 9 11 -6 6 -8 12 -10 10 -12 -13 -14 -15
leaf_value=-0.02712098776597743 0.024459531967443715 0.013433430753070952 0.017504648373570471 0.014589298017581388 0.032750154214082318 0.015236751247577018 0.020756010609398044 0.013484514010192603 0.012995500819189336 0.012253424403838743 0.016071274077195521 0.0085871118620525714 0.015379841990844941 0.014515440224202637
leaf_weight=163812.01583281159 133.7226914614439 7668.9291566759348 151.89248289167881 119.89200355112553 262751.20372620225 525.35575777292252 117.17828750610352 931.46240702271461 11766.916775494814 824.97488570213318 287.56656807661057 115.15165588259697 1833.6638924479485 1934.2055726200342
leaf_count=1299435 325 20524 389 315 631832 1384 292 2485 31595 2219 749 319 4815 5128
internal_value=0.00998207 0.0310013 0.0326375 0.0327277 0.0327461 0.0135411 0.0131719 0.0139074 0.0130954 0.0138332 0.013286 0.0118628 0.0147597 0.0136566
internal_weight=452974 289162 264384 263120 262885 24777.7 12409.5 12368.3 12292.3 1264.43 1112.54 235.044 2765.13 9603.13
internal_count=2001806 702371 636148 632791 632157 66223 33271 32952 32979 3357 2968 634 7300 25652
is_linear=0
shrinkage=0.0231086


Tree=36
num_leaves=15
num_cat=0
split_feature=2 3 13 5 2 12 15 15 13 15 0 13 12 12
split_gain=640543 15432.8 785.808 189.086 6.34286 4.10817 5.67388 5.73049 4.3432 5.70226 3.51141 2.3815 2.95601 0.57938
threshold=0.066299999132752432 0.28260000050067907 0.010049999691545965 0.006599999964237214 0.69804999232292186 0.39999999105930334 1.268754303455353 0.21235111355781558 0.026349999941885475 0.93885087966918956 0.24665000289678576 0.012749999761581423 0.82500001788139354 0.39999999105930334
decision_type=2 2 2 2 2 2 2 2 2 2 2 2 2 2
left_child=-1 2 3 4 -2 8 7 -7 9 -3 -10 -4 -13 -5
right_child=1 5 11 13 -6 6 -8 -9 10 -11 -12 12 -14 -15
leaf_value=-0.02701361405030284 0.025196157826741821 0.013479632590540644 0.017711925012981543 0.013680523142779668 0.032439853169142614 0.015609525259262045 0.018915077981747679 0.012668618757468065 0.012928644166766166 0.015028947505816488 0.0096887224303219104 0.012918057935363032 0.018242313353298838 0.0087642925213321059
leaf_weight=160545.32654884458 127.54587645828724 8223.6732176542282 177.07147881388664 125.64779175817966 259290.66488459706 522.79034087061882 116.02752296626568 11753.304035142064 1407.1250702887774 2372.2195545583963 372.31554520130157 980.89807052910328 114.94018842279911 113.61324851214886
leaf_count=1298194 309 21955 452 332 632100 1370 293 31583 3770 6236 1024 2620 293 314
internal_value=0.00991935 0.0306737 0.0323285 0.0324174 0.0324365 0.0132376 0.0128594 0.012798 0.0136122 0.0138313 0.012279 0.0141461 0.0135232 0.0115561
internal_weight=446243 285698 260930 259657 259418 24767.5 12392.1 12276.1 12375.3 10595.9 1779.44 1272.91 1095.84 239.261
internal_count=2000845 702651 636420 633055 632409 66231 33246 32953 32985 28191 4794 3365 2913 646
is_linear=0
shrinkage=0.0231086


Tree=37
num_leaves=14
num_cat=0
split_feature=2 3 13 2 6 13 5 5 0 7 7 13 13
split_gain=620765 15229 806.554 160.326 2.70388 4.64103 3.87326 3.75174 7.13631 2.32803 1.83571 4.61593 2.19486
threshold=0.066299999132752432 0.28260000050067907 0.010049999691545965 0.65810000896453869 0.26645000278949743 0.015150000341236593 0.071150001138448729 0.079549998044967665 0.19614999741315844 0.20564999431371692 0.15444999933242801 0.021650000475347046 0.025850000791251663
decision_type=2 2 2 2 2 2 2 2 2 2 2 2 2
left_child=-1 2 3 -2 7 -6 -7 9 -9 -3 11 -4 -12
right_child=1 4 10 -5 5 6 -8 8 -10 -11 12 -13 -14
leaf_value=-0.026909522845880246 0.010414289641538628 0.013191030214933676 0.018004691194547791 0.032135910772754808 0.015522040806602575 0.013539665861975816 0.0091474561862036827 0.012653680760420975 0.018047885010854546 0.012506022465285951 0.011656482806195571 0.011876011696945696 0.015792014377280793
leaf_weight=157599.45059260726 188.39434514939785 10159.059105828404 244.78764490783215 255545.80070260167 991.55246703326702 1204.3911845684052 202.85588552057743 438.30449621379375 311.14110873639584 11361.517892405391 660.36702142655849 188.19479678571224 179.88696454465389
leaf_count=1299198 514 27142 623 631745 2587 3195 557 1174 797 30516 1780 504 468
internal_value=0.00981566 0.0303638 0.0320286 0.0321201 0.013017 0.0140297 0.0129421 0.0129057 0.0149611 0.0128317 0.0136133 0.0154581 0.0126023
internal_weight=439276 281676 257007 255734 24668.8 2398.8 1407.25 22270 749.446 21520.6 1273.24 432.982 840.254
internal_count=2000800 701602 635634 632259 65968 6339 3752 59629 1971 57658 3375 1127 2248
is_linear=0
shrinkage=0.0231086


Tree=38
num_leaves=15
num_cat=0
split_feature=2 3 13 5 2 12 3 8 8 13 6 13 15 15
split_gain=601657 15225.2 822.572 183.461 16.58 5.26876 4.54772 4.87609 8.09304 2.42208 1.71794 2.15954 0.576556 1.08208
threshold=0.066299999132752432 0.28260000050067907 0.010049999691545965 0.006599999964237214 0.69804999232292186 0.39999999105930334 0.54344999790191661 0.47499999403953558 0.32500000298023229 0.0069500000681728133 0.23785000294446948 0.012749999761581423 1.1413148045539858 0.36438335478305822
decision_type=2 2 2 2 2 2 2 2 2 2 2 2 2 2
left_child=-1 2 3 4 -2 -5 12 8 -8 -9 11 -4 13 -3
right_child=1 6 10 5 -6 -7 7 9 -10 -11 -12 -13 -14 -15
leaf_value=-0.026808589063843737 0.022115732736046941 0.014318623624692354 0.017425944292153515 0.01465359298766815 0.031856072052830108 0.0064344436391151538 0.012021139434393657 0.0142350693651133 0.013408955004867709 0.011330491450533898 0.010058310669670974 0.012950378910356714 0.014998827968981101 0.012948189026831045
leaf_weight=154646.00659393519 127.47041121125221 1154.0230134278536 144.80073210597038 116.6426587998867 251749.00634640455 112.59041705727577 5744.2993628978729 314.51036642491817 5854.3463032841682 3576.5080558806658 209.65994693338871 907.82384189963341 493.05364993214607 7599.1865930855274
leaf_count=1299817 320 3048 369 305 631311 316 15462 831 15575 9683 571 2416 1290 20296
internal_value=0.00973082 0.0300496 0.0317391 0.0318324 0.0318513 0.0108355 0.0127415 0.0124409 0.012726 0.0115783 0.0130637 0.0136146 0.0132396 0.0131347
internal_weight=432750 278104 253368 252106 251876 229.233 24735.9 15489.7 11598.6 3891.02 1262.28 1052.62 9246.26 8753.21
internal_count=2001610 701793 635608 632252 631631 621 66185 41551 31037 10514 3356 2785 24634 23344
is_linear=0
shrinkage=0.0231086


Tree=39
num_leaves=15
num_cat=0
split_feature=2 3 13 5 2 0 13 13 2 13 13 0 12 12
split_gain=582937 15301.9 766.037 184.766 11.4718 3.30798 6.51756 3.72135 5.29635 3.65048 2.0724 1.83827 1.29299 0.748093
threshold=0.066299999132752432 0.28260000050067907 0.010049999691545965 0.006599999964237214 0.69804999232292186 0.26015000045299536 0.0061500000301748523 0.0059500001370906839 0.43394999206066137 0.02615000028163195 0.012450000271201135 0.16845000535249713 0.39999999105930334 0.82500001788139354
decision_type=2 2 2 2 2 2 2 2 2 2 2 2 2 2
left_child=-1 2 3 4 -2 7 -7 8 -3 -8 -4 -9 -5 -12
right_child=1 5 10 12 -6 6 9 11 -10 -11 13 -13 -14 -15
leaf_value=-0.026710700717685672 0.023067328166447885 0.007818265692550638 0.017181162448864706 0.013116232364820414 0.031581345042364886 0.016483235936979621 0.011655669880211954 0.012287962031453907 0.012354934450671142 0.0091297357848085809 0.012441828864196244 0.01296506758162635 0.0076624903488433909 0.016491329169702879
leaf_weight=151581.58810359985 128.82865992188454 327.70439973473549 151.31554099917412 120.61762091517448 248143.98929899931 178.21477986872196 3018.4487676173449 11735.909464344382 438.58329667150974 571.0665096193552 999.07500830292702 8298.9760652035475 113.04285998642445 113.85429462790489
leaf_count=1299139 322 910 386 319 631399 461 8138 31464 1175 1571 2667 22127 314 293
internal_value=0.00965889 0.0297545 0.0314663 0.0315577 0.0315771 0.0123499 0.011528 0.0124964 0.0104802 0.0112678 0.0134545 0.012571 0.0106924 0.0129019
internal_weight=425921 274340 249771 248506 248273 24568.9 3767.73 20801.2 766.288 3589.52 1264.24 20034.9 233.66 1112.93
internal_count=2000685 701546 635700 632354 631721 65846 10170 55676 2085 9709 3346 53591 633 2960
is_linear=0
shrinkage=0.0231086


Tree=40
num_leaves=16
num_cat=0
split_feature=2 3 13 5 2 6 13 13 3 13 8 12 12 12 12
split_gain=565186 15226 795.57 171.076 18.1403 1.76726 2.2667 4.60263 3.34759 1.7113 9.02894 1.71246 1.0177 3.94163 0.660251
threshold=0.066299999132752432 0.28260000050067907 0.010049999691545965 0.006599999964237214 0.69804999232292186 0.21554999798536303 0.0089499996975064295 0.0094499997794628161 0.45655000209808355 0.028050000779330734 0.42499999701976782 0.32500000298023229 0.22500000149011615 0.39999999105930334 0.39999999105930334
decision_type=2 2 2 2 2 2 2 2 2 2 2 2 2 2 2
left_child=-1 2 3 4 -2 6 8 -8 -3 11 -11 -7 -4 -14 -5
right_child=1 5 12 14 -6 9 7 -9 -10 10 -12 -13 13 -15 -16
leaf_value=-0.026615743784525848 0.021204402424398819 0.0093607322683366325 0.015178599563028384 0.013233978573787965 0.031318222655311721 0.013594226229288211 0.015102474147191165 0.012054094680156032 0.011697328751027842 0.013147674246949195 0.0057072621100889573 0.01231331632290222 0.0097335886193553219 0.013481810262629916 0.0082397398170770304
leaf_weight=148648.53050136566 125.81069153547287 702.68679168820381 244.48387491703033 116.71773931384087 244479.83971343935 2232.9445907920599 404.15456242859364 15419.681562647223 2143.0254415273666 293.7313130646944 165.41091276705265 3311.5608479827642 373.0958230048418 637.11686334013939 112.51777650415897
leaf_count=1299203 321 1926 635 308 631366 5904 1057 41385 5769 779 465 8852 1016 1684 311
internal_value=0.0095886 0.0294649 0.0312002 0.0312944 0.0313132 0.0121553 0.0119859 0.0121352 0.011138 0.0126736 0.0105758 0.0128383 0.0127784 0.0121473 0.0110016
internal_weight=419411 270763 246090 244835 244606 24673.2 18669.5 15823.8 2845.71 6003.65 459.142 5544.51 1254.7 1010.21 229.236
internal_count=2000981 701778 635641 632306 631687 66137 50137 42442 7695 16000 1244 14756 3335 2700 619
is_linear=0
shrinkage=0.0231086


Tree=41
num_leaves=15
num_cat=0
split_feature=2 3 13 8 5 2 2 8 0 0 7 8 6 2
split_gain=547927 15313.8 845.14 171.337 58.3994 2.77678 7.48957 7.16176 3.9956 2.29839 7.95184 4.68806 1.81059 2.67198
threshold=0.066299999132752432 0.28260000050067907 0.010049999691545965 0.37500000000000006 0.006599999964237214 0.70195001363754284 0.46005000174045568 0.32500000298023229 0.11574999988079072 0.24665000289678576 0.046949999406933791 0.22500000149011615 0.21554999798536303 0.57375001907348644
decision_type=2 2 2 2 2 2 2 2 2 2 2 2 2 2
left_child=-1 2 3 -2 -5 6 8 -8 -3 11 -11 -7 -4 -14
right_child=1 5 12 4 -6 9 7 -9 -10 10 -12 -13 13 -15
leaf_value=-0.026523611353368934 0.0054988119143165671 0.012045241832938576 0.012589226462498495 0.031063698475063288 0.014091648989726669 0.013982374147674283 0.01159355711099817 0.013445739374177543 0.010812795758194847 0.016226443316496999 0.010497974722521933 0.011491022895746992 0.0064657412173080844 0.012218304614520116
leaf_weight=145752.88183487952 144.86903539299965 5943.0750544220209 964.92327906191349 240994.26766523719 119.1611899882555 678.85487841069698 2346.3093331307173 4038.9848552644253 3396.5683217793703 169.60020591318607 3495.8309042006731 4620.6711367964745 144.81545151770115 139.40444165468216
leaf_count=1299215 410 15923 2565 631804 313 1789 6309 10697 9190 439 9488 12432 404 371
internal_value=0.00951691 0.0291768 0.0309421 0.0310404 0.0310555 0.0118354 0.012081 0.012773 0.0116024 0.011399 0.0107769 0.0118197 0.0119181 0.00946327
internal_weight=412950 267197 242507 241258 241113 24689.9 15724.9 6385.29 9339.64 8964.96 3665.43 5299.53 1249.14 284.22
internal_count=2001349 702134 635867 632527 632117 66267 42119 17006 25113 24148 9927 14221 3340 775
is_linear=0
shrinkage=0.0231086


Tree=42
num_leaves=16
num_cat=0
split_feature=2 3 13 5 2 12 7 6 0 0 7 12 14 0 14
split_gain=531458 15278 839.737 182.695 19.3983 3.12445 2.82645 2.29809 4.10252 5.60967 1.81268 0.997599 6.12686 1.16688 0.716407
threshold=0.066299999132752432 0.28260000050067907 0.010049999691545965 0.006599999964237214 0.69804999232292186 0.39999999105930334 0.33724999427795416 0.1430500000715256 0.062849998474121108 0.047150000929832465 0.11744999885559083 0.39999999105930334 2.5564196109771733 0.28794999420642858 0.43962599337100988
decision_type=2 2 2 2 2 2 2 2 2 2 2 2 2 2 2
left_child=-1 2 3 4 -2 -5 10 8 9 -3 -4 13 -13 -9 -10
right_child=1 7 6 5 -6 -7 -8 11 14 -11 -12 12 -14 -15 -16
leaf_value=-0.02643420751285341 0.020430926125649854 0.010033709867412064 0.013101381217658505 0.012979182628552561 0.030821665876795686 0.006207188203951961 0.014786331621151503 0.012413792228314803 0.011769478119745791 0.014119861424149916 0.009968953498167692 0.011370129305200014 0.017681328865179681 0.0096389025662915063 0.010940203699041544
leaf_weight=142933.54541491717 124.9245450347662 372.94955682754517 291.90827095508575 116.22513820230961 237190.05395250022 113.08949239552021 214.5462708324194 5314.0788490325212 2784.7936373353004 814.02063924074173 728.730369374156 5356.8433908075094 112.95421332120895 250.4110289812088 9598.7551805824041
leaf_count=1299525 324 1015 770 307 631457 317 559 14164 7471 2140 1978 14407 286 682 25937
internal_value=0.0094415 0.0289107 0.0306974 0.0307964 0.0308164 0.0098577 0.0116279 0.0115694 0.0112873 0.0128784 0.0109143 0.0119118 0.0115098 0.0122979 0.0111308
internal_weight=406318 263384 238779 237544 237315 229.315 1235.18 24604.8 13570.5 1186.97 1020.64 11034.3 5469.8 5564.49 12383.5
internal_count=2001339 701814 635712 632405 631781 624 3307 66102 36563 3155 2748 29539 14693 14846 33408
is_linear=0
shrinkage=0.0231086


Tree=43
num_leaves=16
num_cat=0
split_feature=2 3 13 5 2 0 5 0 2 2 7 13 2 0 6
split_gain=515065 15494.6 825.195 187.934 16.8059 4.14982 6.43552 4.68269 8.05257 7.16646 3.43779 1.70664 1.70111 1.53061 1.27523
threshold=0.066299999132752432 0.28260000050067907 0.010049999691545965 0.006599999964237214 0.69804999232292186 0.049550000578165061 0.03024999983608723 0.11574999988079072 0.33605000376701361 0.39204999804496771 0.15444999933242801 0.021650000475347046 0.17255000025033954 0.26015000045299536 0.22625000029802325
decision_type=2 2 2 2 2 2 2 2 2 2 2 2 2 2 2
left_child=-1 2 3 4 -2 6 12 9 -9 -7 11 -4 -3 -12 -8
right_child=1 5 10 -5 -6 7 14 8 -10 -11 13 -13 -14 -15 -16
leaf_value=-0.026347431240356697 0.020574894900032371 0.013068776566136172 0.015621918784282433 0.0095518421296942324 0.030586983332807304 0.011323522405076199 0.0079892758002439966 0.0087115849528465582 0.011137274980649961 0.013303160693206986 0.011065890982360278 0.010984531693705625 0.0086443842569741535 0.0068899823430381051 0.0040445464320724859
leaf_weight=140038.75873622298 120.49611078202724 269.99443770945072 245.0018874257803 234.0413202047348 233519.15809002519 4545.2903927117586 340.29314440488815 970.04766523838043 16383.477706030011 1775.9717153906822 691.62244915962219 185.39595383405685 169.47115944325924 125.29522310197353 118.86325635015965
leaf_count=1298743 314 716 632 638 631442 12217 940 2663 44122 4696 1860 497 465 347 338
internal_value=0.0093736 0.0286362 0.0304611 0.0305612 0.030582 0.0111729 0.0092837 0.0112425 0.0110046 0.0118877 0.0116501 0.0137418 0.0114768 0.0104863 0.00707573
internal_weight=399733 259694 235121 233874 233640 24573.4 898.622 23674.8 17353.5 6321.26 1247.32 430.398 439.466 816.918 459.156
internal_count=2000630 701887 635730 632394 631756 66157 2459 63698 46785 16913 3336 1129 1181 2207 1278
is_linear=0
shrinkage=0.0231086


Tree=44
num_leaves=12
num_cat=0
split_feature=2 3 5 2 6 6 14 7 8 0 0
split_gain=500008 15457.1 777.775 195.18 3.38027 3.04153 2.56089 2.28627 1.11305 0.82808 0.461084
threshold=0.066299999132752432 0.28260000050067907 0.006599999964237214 0.66589999198913585 0.076150000095367446 0.27775000035762792 2.3824222087860112 0.032150000333786018 0.52500000596046459 0.27445000410079962 0.24665000289678576
decision_type=2 2 2 2 2 2 2 2 2 2 2
left_child=-1 2 3 -2 -4 6 7 -3 -6 10 -7
right_child=1 5 4 -5 8 9 -8 -9 -10 -11 -12
leaf_value=-0.02626319431696917 0.0078967461716948645 0.0065028233726068044 0.014443617932442095 0.030353661299631341 0.011057121332060653 0.012082752108559898 0.0072965001139294831 0.010902162369285885 0.0070706839998232159 0.0089583955291213414 0.015178658073382199
leaf_weight=137365.52257675678 212.84660892188549 119.20926763117313 253.61559535562992 230067.52251803875 810.03696751594543 1262.7565191984177 191.46110910177231 22636.683841645718 118.18428960442543 144.96075360476971 176.36833390593529
leaf_count=1299613 586 333 662 631976 2177 3362 529 61026 327 395 457
internal_value=0.00930325 0.0283883 0.030237 0.0303331 0.0114702 0.0109429 0.0108536 0.0108813 0.0106032 0.0122052 0.0124975
internal_weight=393359 255994 231462 230280 1181.84 24531.4 22947.4 22755.9 928.221 1584.09 1439.12
internal_count=2001443 701830 635728 632562 3166 66102 61888 61359 2504 4214 3819
is_linear=0
shrinkage=0.0231086


Tree=45
num_leaves=13
num_cat=0
split_feature=2 3 13 8 5 14 12 12 7 13 2 2
split_gain=485434 15245.8 825.128 164.013 59.88 4.07263 10.7633 3.84954 8.21625 5.1371 1.76193 1.67948
threshold=0.066299999132752432 0.28260000050067907 0.010049999691545965 0.37500000000000006 0.006599999964237214 2.4703083038330083 0.32500000298023229 0.39999999105930334 0.30795000493526464 0.02615000028163195 0.93395000696182262 0.5132499933242799
decision_type=2 2 2 2 2 2 2 2 2 2 2 2
left_child=-1 2 3 -2 -5 7 -7 9 -9 -3 11 -4
right_child=1 5 10 4 -6 6 -8 8 -10 -11 -12 -13
leaf_value=-0.026181404660169959 0.0051782138844018062 0.011395948843716357 0.011560875447130251 0.030143914422011323 0.012672300857606338 0.0080624434072284167 0.017067262377530902 0.010048840440620163 0.011590226983187069 0.0098216012560752367 0.013484883709573936 0.0087188595741054913
leaf_weight=134595.83437114209 145.48692531883717 10342.216614127159 539.78564009070396 226519.26469829679 114.70911675691605 141.20084667205811 230.90700331330299 8971.6057386398315 3059.3819368183613 1826.8500029742718 266.34378343820572 424.20514076948166
leaf_count=1299167 413 27736 1443 632284 304 387 588 24332 8194 4962 699 1159
internal_value=0.00926449 0.0281531 0.030017 0.0301195 0.0301353 0.0108556 0.0137855 0.0108085 0.010445 0.0111637 0.0110793 0.0103622
internal_weight=387178 252582 228010 226779 226634 24572.2 372.108 24200.1 12031 12169.1 1230.33 963.991
internal_count=2001668 702501 636302 633001 632588 66199 975 65224 32526 32698 3301 2602
is_linear=0
shrinkage=0.0231086


Tree=46
num_leaves=17
num_cat=0
split_feature=2 3 13 5 2 14 12 2 2 2 7 2 13 12 12 3
split_gain=470923 15230.2 827.976 171.624 17.2035 5.39023 2.99261 2.75162 3.05278 1.47307 9.13879 3.00747 1.05061 0.875996 3.60752 1.73683
threshold=0.066299999132752432 0.28260000050067907 0.010049999691545965 0.006599999964237214 0.69804999232292186 1.7969430685043337 0.39999999105930334 0.78540000319480907 0.5132499933242799 0.15879999846220019 0.082199998199939742 0.33605000376701361 0.022850000299513343 0.47499999403953558 0.39999999105930334 0.89129999279975902
decision_type=2 2 2 2 2 2 2 2 2 2 2 2 2 2 2 2
left_child=-1 2 3 4 -2 9 -5 8 -4 10 -3 -11 -9 14 -7 -15
right_child=1 5 7 6 -6 13 -8 12 -10 11 -12 -13 -14 15 -16 -17
leaf_value=-0.026101980943759918 0.01996220965829874 0.0053134077993174118 0.011196696476419238 0.012587160413448106 0.029935801013402558 0.011557077643809321 0.0059201137480708781 0.01114621070494448 0.0075855151158103771 0.0096461788215277296 0.012651666148664123 0.010555319390483046 0.015662496318829659 0.012916189853569052 0.0081892539945128007 0.0089818905923580768
leaf_weight=131935.30099540949 122.87467080354691 128.60689762234688 544.22489096224308 114.58794215321541 222494.65029723942 1637.0839855670929 112.46477146446705 233.07473790645599 316.11021158099174 3960.54600225389 874.07907797396183 16263.556636318564 148.07120028138161 1144.1185038983822 317.54245842993259 159.04439920186996
leaf_count=1299350 328 361 1458 303 631240 4374 315 623 871 10766 2319 43893 381 3024 871 433
internal_value=0.0091846 0.0279141 0.029805 0.0299099 0.0299305 0.0106063 0.009505 0.010922 0.00992794 0.0104473 0.0117599 0.0103798 0.0130337 0.0116266 0.0110355 0.0124744
internal_weight=380506 248571 224086 222845 222618 24484.6 227.053 1241.48 860.335 21226.8 1002.69 20224.1 381.146 3257.79 1954.63 1303.16
internal_count=2000910 701560 635519 632186 631568 66041 618 3333 2329 57339 2680 54659 1004 8702 5245 3457
is_linear=0
shrinkage=0.0231086


Tree=47
num_leaves=16
num_cat=0
split_feature=2 3 5 1 2 6 8 8 7 7 0 12 6 5 12
split_gain=457228 15408.8 769.57 193.479 63.627 3.45649 5.76474 5.26061 4.96385 4.84527 4.48568 3.46105 3.28077 1.51817 1.03727
threshold=0.066299999132752432 0.28260000050067907 0.006599999964237214 0.45835000276565557 0.67960000038146984 0.1430500000715256 0.52500000596046459 0.27500000596046453 0.082199998199939742 0.082199998199939742 0.062849998474121108 0.32500000298023229 0.076150000095367446 0.046850001439452178 0.22500000149011615
decision_type=2 2 2 2 2 2 2 2 2 2 2 2 2 2 2
left_child=-1 2 3 -2 -5 7 11 10 -8 -9 -3 -7 13 -4 -14
right_child=1 5 12 4 -6 6 8 9 -10 -11 -12 -13 14 -15 -16
leaf_value=-0.02602483998403941 0.0073721204680702217 0.012241035255931352 0.016336839750104741 0.010982154659414588 0.029733355434429749 0.011553456175495058 0.0048105447878481339 0.011720391692574777 0.0096122389592148312 0.010027473840842316 0.0087180026627281127 0.010431807139737778 0.012696992092007515 0.01044489346108984 0.0094225814878968819
leaf_weight=129381.61522098631 212.89837875962257 290.24032773077488 139.03120942413807 105.13612276315689 219096.57453006506 3897.6538901478052 176.52420920133591 1468.5530343949795 1170.8999366909266 8735.7087733745575 3013.0390880256891 5765.4748492538929 178.89134864509106 114.30017110705376 751.82871961593628
leaf_count=1300179 592 771 356 286 631862 10416 497 3925 3179 23662 8248 15553 472 307 2044
internal_value=0.00912006 0.027671 0.0296027 0.0297031 0.0297246 0.0102887 0.0106652 0.00997816 0.0090199 0.010276 0.00904281 0.0108894 0.0109558 0.013878 0.0101061
internal_weight=374498 245117 220599 219415 219202 24518.1 11010.6 13507.5 1347.42 10204.3 3303.28 9663.13 1184.05 253.331 930.72
internal_count=2002349 702170 635919 632740 632148 66251 29645 36606 3676 27587 9019 25969 3179 663 2516
is_linear=0
shrinkage=0.0231086


Tree=48
num_leaves=16
num_cat=0
split_feature=2 3 5 12 2 12 7 7 14 7 14 7 2 12 8
split_gain=443700 15381.8 814.003 198.234 30.0136 5.98888 7.65131 7.15681 6.64419 3.61042 3.1973 3.17402 1.63704 2.20445 0.425116
threshold=0.066299999132752432 0.28260000050067907 0.006599999964237214 0.62500000000000011 0.68895000219345104 0.39999999105930334 0.037149999290704734 0.27205000817775732 2.4703083038330083 0.03354999981820584 1.5570414066314699 0.1909499987959862 0.29314999282360082 0.22500000149011615 0.32500000298023229
decision_type=2 2 2 2 2 2 2 2 2 2 2 2 2 2 2
left_child=-1 2 3 11 -5 7 9 10 -8 -7 -3 -2 -4 -14 -9
right_child=1 5 12 4 -6 6 8 14 -10 -11 -12 -13 13 -15 -16
leaf_value=-0.025949905044496731 0.011588851525491845 0.010620807319219897 0.0075706362637363413 0.01661407091249141 0.029538485569496592 0.0079075851823001524 0.0096699286673316513 0.0089265821497584164 0.014663481340016639 0.0014214258706025619 0.012028903602616874 0.0051367363488907794 0.01389726529317014 0.010063814364145024 0.01001746319675147
leaf_weight=126700.59878665209 111.30940817296505 6237.3958202898502 213.20453508198261 113.83411026000977 215518.08461238444 119.54224649071693 11811.562518283725 1583.3344397246838 183.59516003727913 109.72752490639687 1817.3354080617428 130.57579107582569 189.60751390457153 791.26165315508842 2633.9130951315165
leaf_count=1299294 298 16800 588 304 631980 329 32058 4321 476 317 4832 370 495 2138 7125
internal_value=0.0090738 0.027444 0.029403 0.0295084 0.0295319 0.0100826 0.00966589 0.0104935 0.00975059 0.0050185 0.0109448 0.00831218 0.0103115 0.0108564 0.00961977
internal_weight=368265 241564 217068 215874 215632 24496.4 12224.4 12272 11995.2 229.27 8054.73 241.885 1194.07 980.869 4217.25
internal_count=2001725 702431 636173 632952 632284 66258 33180 33078 32534 646 21632 668 3221 2633 11446
is_linear=0
shrinkage=0.0231086


Tree=49
num_leaves=12
num_cat=0
split_feature=2 3 5 1 2 7 12 12 6 0 2
split_gain=430973 15178.2 802.984 184.793 68.0246 3.49054 2.85033 6.85384 2.12352 4.62206 2.18364
threshold=0.066299999132752432 0.28260000050067907 0.006599999964237214 0.45835000276565557 0.67595002055168163 0.031850000843405731 0.22500000149011615 0.39999999105930334 0.1430500000715256 0.062849998474121108 0.70195001363754284
decision_type=2 2 2 2 2 2 2 2 2 2 2
left_child=-1 2 3 -2 -5 -3 -4 -8 9 -7 -10
right_child=1 5 6 4 -6 8 7 -9 10 -11 -12
leaf_value=-0.025877102309712425 0.0073318300693547798 0.0049915581684049628 0.013042803141755644 0.0096774772415723492 0.029351368889298502 0.011354307086447264 0.0064397899451993654 0.0109908958592232 0.010663679639301196 0.0095763103952670042 0.0097312307823226064
leaf_weight=124155.81825959682 209.9083210080862 113.75112909078598 230.04497855901718 101.45828068256378 211898.37932674587 1190.6967540234327 351.68519181013107 595.47730833292007 6975.4867805540562 12221.424131557345 3935.7341999709606
leaf_count=1299349 584 320 605 278 631884 3185 977 1597 18758 33184 10663
internal_value=0.00902068 0.0272392 0.0292149 0.0293207 0.0293422 0.00998512 0.0101175 0.0093537 0.0100064 0.00973791 0.0103319
internal_weight=361980 237824 213387 212210 212000 24437.1 1177.21 947.163 24323.3 13412.1 10911.2
internal_count=2001384 702035 635925 632746 632162 66110 3179 2574 65790 36369 29421
is_linear=0
shrinkage=0.0231086


end of trees

feature_importances:
Column_2=134
Column_13=84
Column_3=55
Column_7=54
Column_0=53
Column_5=52
Column_12=46
Column_6=42
Column_14=25
Column_8=24
Column_15=5
Column_16=4
Column_1=2

parameters:
[boosting: gbdt]
[objective: binary]
[metric: custom]
[tree_learner: serial]
[device_type: cpu]
[data_sample_strategy: bagging]
[data: ]
[valid: ]
[num_iterations: 50]
[learning_rate: 0.0231086]
[num_leaves: 25]
[num_threads: 0]
[seed: 42]
[deterministic: 0]
[force_col_wise: 0]
[force_row_wise: 0]
[histogram_pool_size: -1]
[max_depth: 5]
[min_data_in_leaf: 296]
[min_sum_hessian_in_leaf: 0.001]
[bagging_fraction: 0.833855]
[pos_bagging_fraction: 1]
[neg_bagging_fraction: 1]
[bagging_freq: 1]
[bagging_seed: 42]
[bagging_by_query: 0]
[feature_fraction: 0.92407]
[feature_fraction_bynode: 1]
[feature_fraction_seed: 42]
[extra_trees: 0]
[extra_seed: 12879]
[early_stopping_round: 0]
[early_stopping_min_delta: 0]
[first_metric_only: 0]
[max_delta_step: 0]
[lambda_l1: 2.10836]
[lambda_l2: 0.141411]
[linear_lambda: 0]
[min_gain_to_split: 0.0369164]
[drop_rate: 0.1]
[max_drop: 50]
[skip_drop: 0.5]
[xgboost_dart_mode: 0]
[uniform_drop: 0]
[drop_seed: 17869]
[top_rate: 0.2]
[other_rate: 0.1]
[min_data_per_group: 100]
[max_cat_threshold: 32]
[cat_l2: 10]
[cat_smooth: 10]
[max_cat_to_onehot: 4]
[top_k: 20]
[monotone_constraints: ]
[monotone_constraints_method: basic]
[monotone_penalty: 0]
[feature_contri: ]
[forcedsplits_filename: ]
[refit_decay_rate: 0.9]
[cegb_tradeoff: 1]
[cegb_penalty_split: 0]
[cegb_penalty_feature_lazy: ]
[cegb_penalty_feature_coupled: ]
[path_smooth: 0]
[interaction_constraints: ]
[verbosity: -1]
[saved_feature_importance_type: 0]
[use_quantized_grad: 0]
[num_grad_quant_bins: 4]
[quant_train_renew_leaf: 0]
[stochastic_rounding: 1]
[linear_tree: 0]
[max_bin: 255]
[max_bin_by_feature: ]
[min_data_in_bin: 3]
[bin_construct_sample_cnt: 200000]
[data_random_seed: 42]
[is_enable_sparse: 1]
[enable_bundle: 1]
[use_missing: 1]
[zero_as_missing: 0]
[feature_pre_filter: 1]
[pre_partition: 0]
[two_round: 0]
[header: 0]
[label_column: ]
[weight_column: ]
[group_column: ]
[ignore_column: ]
[categorical_feature: ]
[forcedbins_filename: ]
[precise_float_parser: 0]
[parser_config_file: ]
[objective_seed: 16083]
[num_class: 1]
[is_unbalance: 1]
[scale_pos_weight: 1]
[sigmoid: 1]
[boost_from_average: 1]
[reg_sqrt: 0]
[alpha: 0.9]
[fair_c: 1]
[poisson_max_delta_step: 0.7]
[tweedie_variance_power: 1.5]
[lambdarank_truncation_level: 30]
[lambdarank_norm: 1]
[label_gain: ]
[lambdarank_position_bias_regularization: 0]
[eval_at: ]
[multi_error_top_k: 1]
[auc_mu_weights: ]
[num_machines: 1]
[local_listen_port: 12400]
[time_out: 120]
[machine_list_filename: ]
[machines: ]
[gpu_platform_id: -1]
[gpu_device_id: -1]
[gpu_use_dp: 0]
[num_gpu: 1]

end of parameters

pandas_categorical:null
